8.255540132522583008e-01
-1.088187620043754578e-01
-5.391323938965797424e-02
-2.230131328105926514e-01
2.906320989131927490e-01
4.935272634029388428e-01
-2.663533389568328857e-01
-9.534214437007904053e-02
9.314335882663726807e-02
-2.777121067047119141e-01
2.252777069807052612e-01
-4.333909973502159119e-02
-4.605173766613006592e-01
1.472240239381790161e-01
3.606362938880920410e-01
7.333132624626159668e-01
-1.536907851696014404e-01
-8.545396476984024048e-02
-6.164266541600227356e-02
5.586142539978027344e-01
-1.788895577192306519e-01
-6.694642454385757446e-02
4.134013652801513672e-01
-1.180326342582702637e-01
3.067755699157714844e-01
6.546269059181213379e-01
-2.673001401126384735e-02
-1.987789124250411987e-01
-2.863664627075195312e-01
-3.960847556591033936e-01
5.716806054115295410e-01
1.070843696594238281e+00
7.970039844512939453e-01
6.951481103897094727e-01
-2.359272390604019165e-01
5.129446983337402344e-01
8.894665539264678955e-02
4.372177124023437500e-01
-6.919391155242919922e-01
3.797424435615539551e-01
-6.877884864807128906e-01
8.327406644821166992e-01
5.502599477767944336e-01
2.066337466239929199e-01
2.485278435051441193e-02
6.421468853950500488e-01
-5.288041010499000549e-02
1.281801015138626099e-01
4.027236402034759521e-01
-4.027775526046752930e-01
-8.566148579120635986e-02
4.705458581447601318e-01
9.650105983018875122e-02
2.286341227591037750e-02
-5.583256483078002930e-01
4.685607552528381348e-01
1.853992789983749390e-01
9.483152031898498535e-01
5.308631658554077148e-01
4.845455288887023926e-01
7.853769063949584961e-01
5.031711608171463013e-02
5.231062173843383789e-01
7.005999088287353516e-01
