7.206143140792846680e-01
1.284825503826141357e-01
-3.722024261951446533e-01
-1.107802465558052063e-01
7.743319869041442871e-02
-4.250340163707733154e-03
2.758213318884372711e-03
7.896205037832260132e-02
1.949236541986465454e-01
-2.277009002864360809e-02
2.108573354780673981e-02
1.025285455398261547e-03
2.450471520423889160e-01
1.101284399628639221e-01
-1.444337368011474609e-01
2.205415070056915283e-01
1.160938069224357605e-01
1.124594062566757202e-01
2.524986676871776581e-02
-1.563308238983154297e-01
1.199400871992111206e-01
1.706126630306243896e-01
-1.396113634109497070e-01
1.146619208157062531e-02
1.081691235303878784e-01
3.837048113346099854e-01
7.515823841094970703e-01
-3.462767973542213440e-02
-4.966690242290496826e-01
1.976717412471771240e-01
2.420924752950668335e-01
4.805460199713706970e-02
-2.248448282480239868e-01
-6.443645805120468140e-02
-1.076832935214042664e-01
7.584305852651596069e-02
6.757839000783860683e-04
-1.017104759812355042e-01
5.840925127267837524e-02
3.354480564594268799e-01
6.707120537757873535e-01
-3.667902052402496338e-01
-1.282122284173965454e-01
-9.420441836118698120e-02
4.790004715323448181e-02
1.463308483362197876e-01
7.869540154933929443e-02
3.802453726530075073e-02
-2.478677779436111450e-02
-2.087180912494659424e-01
-1.361868530511856079e-02
2.362070083618164062e-01
1.476242989301681519e-01
2.643785774707794189e-01
3.321313261985778809e-01
-2.527172677218914032e-02
1.964649409055709839e-01
-5.051448568701744080e-02
2.143094837665557861e-01
2.543961703777313232e-01
-1.759117655456066132e-02
-1.865845024585723877e-01
-1.753101795911788940e-01
-5.446471646428108215e-02
-2.261495962738990784e-02
1.989702731370925903e-01
1.037297993898391724e-01
1.288340389728546143e-01
1.449317112565040588e-02
-8.926957845687866211e-02
5.942431688308715820e-01
-2.960890233516693115e-01
1.032299473881721497e-01
-1.380360126495361328e-01
-5.623415112495422363e-02
1.460620313882827759e-01
-5.796645954251289368e-02
3.504721820354461670e-02
1.055706175975501537e-03
1.276052296161651611e-01
-4.806220158934593201e-02
9.699805825948715210e-02
-1.714776903390884399e-01
-2.407589852809906006e-01
3.226138055324554443e-01
-2.535820007324218750e-01
-1.629498749971389771e-01
-3.536041080951690674e-01
-1.584464907646179199e-01
1.543825119733810425e-01
6.862536072731018066e-03
-7.259556651115417480e-02
-7.795451581478118896e-02
5.219368729740381241e-03
-3.087072074413299561e-01
-7.378619909286499023e-02
-1.552697122097015381e-01
3.086233697831630707e-02
9.329377859830856323e-02
-3.610571920871734619e-01
-4.745385646820068359e-01
-4.554693400859832764e-01
-1.778448820114135742e-01
1.552090644836425781e-01
-3.108176775276660919e-02
-6.964097172021865845e-02
-5.370059236884117126e-02
-6.761207431554794312e-02
-5.276795029640197754e-01
-4.585067927837371826e-01
-3.351920247077941895e-01
7.776523381471633911e-02
-4.609740339219570160e-03
-1.259298920631408691e-01
-3.010331988334655762e-01
-1.447044014930725098e-01
-6.346604228019714355e-02
7.076433300971984863e-02
3.005853667855262756e-02
-4.610454291105270386e-02
5.225591827183961868e-03
6.734903901815414429e-02
-4.199828505516052246e-01
-2.596622705459594727e-01
-1.112803816795349121e-02
1.679613068699836731e-02
-7.740605622529983521e-02
4.797202348709106445e-02
-1.160781010985374451e-01
-1.387454867362976074e-01
6.379892677068710327e-02
9.171263873577117920e-02
-3.857506066560745239e-02
1.314165163785219193e-02
-1.425668895244598389e-01
4.409890621900558472e-03
-2.617824375629425049e-01
-2.390118241310119629e-01
9.851539134979248047e-02
-7.987140119075775146e-02
-5.283750593662261963e-02
8.895839750766754150e-02
-2.069800794124603271e-01
5.807084962725639343e-02
9.354352951049804688e-02
6.673250347375869751e-02
-6.886591017246246338e-02
-9.818192571401596069e-02
-2.321179211139678955e-01
-4.142821207642555237e-02
-9.100632369518280029e-02
-2.058027833700180054e-01
1.497277468442916870e-01
2.833703532814979553e-02
4.405301064252853394e-02
-3.250817358493804932e-01
-5.775287747383117676e-01
1.210690066218376160e-01
1.976960003376007080e-01
7.460195920430123806e-04
2.499716542661190033e-02
-9.559129178524017334e-02
-1.748679429292678833e-01
-3.471027687191963196e-02
4.971071332693099976e-02
-2.664525508880615234e-01
-1.153514459729194641e-01
-1.511612255126237869e-02
1.698160022497177124e-01
-5.222929716110229492e-01
-2.278607934713363647e-01
1.519184857606887817e-01
1.492001116275787354e-01
1.000854596495628357e-01
-3.585461759939789772e-03
-5.184590071439743042e-02
-1.239775344729423523e-01
1.615698039531707764e-01
6.687013804912567139e-02
1.664246246218681335e-02
-1.466726958751678467e-01
1.930335164070129395e-01
1.330632865428924561e-01
-5.292913317680358887e-01
-3.608171641826629639e-01
9.122841060161590576e-02
2.046452760696411133e-01
4.707814380526542664e-02
1.636286228895187378e-01
2.367361634969711304e-01
-2.070221118628978729e-02
1.441853344440460205e-01
1.718695312738418579e-01
-3.092935308814048767e-02
-1.123052686452865601e-01
4.355203211307525635e-01
-5.782817006111145020e-01
1.797928065061569214e-01
-1.271396130323410034e-01
1.265418827533721924e-01
3.417355194687843323e-02
-3.054295778274536133e-01
-1.292330622673034668e-01
6.251129787415266037e-03
-3.713334798812866211e-01
-6.046914458274841309e-01
-2.058234214782714844e-01
3.308192640542984009e-02
6.883140802383422852e-01
9.805378317832946777e-02
1.713777631521224976e-01
4.097075760364532471e-01
1.359625905752182007e-01
4.182491302490234375e-01
1.769271343946456909e-01
6.062886677682399750e-03
4.875559359788894653e-02
-1.312607973814010620e-01
1.226324513554573059e-01
1.315474808216094971e-01
3.052302896976470947e-01
3.161724805831909180e-01
3.712960183620452881e-01
5.612737536430358887e-01
5.114050507545471191e-01
1.790631562471389771e-01
4.646283984184265137e-01
2.401319891214370728e-01
1.436070948839187622e-01
-5.889339372515678406e-02
-3.953008353710174561e-02
-1.012657582759857178e-01
1.354615688323974609e-01
2.403470277786254883e-01
2.931370213627815247e-02
1.654217094182968140e-01
2.720313668251037598e-01
4.195205271244049072e-01
1.378998160362243652e-01
3.017959184944629669e-02
2.096435427665710449e-01
2.896782159805297852e-01
3.142216503620147705e-01
1.307097077369689941e-02
1.276558637619018555e-01
-4.170609265565872192e-02
1.254135966300964355e-01
1.920983195304870605e-01
-1.861071288585662842e-01
-3.565602377057075500e-02
-1.132091358304023743e-01
1.899411827325820923e-01
4.795232713222503662e-01
3.773329257965087891e-01
2.610744237899780273e-01
2.963587939739227295e-01
4.029641151428222656e-01
1.314989328384399414e-01
2.687427699565887451e-01
5.930508021265268326e-03
7.295239716768264771e-02
1.851443052291870117e-01
2.409447357058525085e-02
1.302202045917510986e-01
-1.921737939119338989e-01
2.228659838438034058e-01
3.936200439929962158e-01
1.716074794530868530e-01
3.086425662040710449e-01
8.244345337152481079e-02
1.068768203258514404e-01
4.035076797008514404e-01
2.052447013556957245e-02
-9.168624132871627808e-02
6.303936243057250977e-02
1.722481846809387207e-01
1.660135537385940552e-01
8.892160654067993164e-02
-7.839849591255187988e-02
7.765584439039230347e-02
5.613476037979125977e-01
1.701120287179946899e-01
1.084251627326011658e-01
-1.472255289554595947e-01
-2.123316824436187744e-01
3.246445953845977783e-02
-3.399037290364503860e-03
-3.838187828660011292e-02
2.133361063897609711e-02
4.914695397019386292e-02
1.179840415716171265e-01
5.226831510663032532e-02
3.870286454912275076e-04
2.831650078296661377e-01
-2.540332376956939697e-01
-3.632900416851043701e-01
-3.211049437522888184e-01
-1.711677163839340210e-01
4.910051450133323669e-02
2.509863674640655518e-01
3.105704858899116516e-02
-7.456794381141662598e-02
1.160850224550813437e-04
-7.609061896800994873e-02
-1.932282000780105591e-01
-1.280157566070556641e-01
-4.635494202375411987e-02
2.045158445835113525e-01
-3.003948628902435303e-01
-3.714164495468139648e-01
-5.970044434070587158e-02
2.331614494323730469e-02
2.436833456158638000e-02
1.264129132032394409e-01
8.754350990056991577e-02
3.437630459666252136e-02
4.089199379086494446e-02
-1.546856164932250977e-01
-1.409914195537567139e-01
4.393845051527023315e-02
9.062790870666503906e-02
5.083273723721504211e-02
-1.933044940233230591e-01
-4.243644773960113525e-01
-5.130430683493614197e-02
-5.378752946853637695e-02
-4.680268466472625732e-02
1.253907382488250732e-01
6.918871402740478516e-02
1.245324984192848206e-01
8.905031532049179077e-02
7.068076729774475098e-02
4.748313501477241516e-02
8.345986157655715942e-02
5.920947343111038208e-02
-3.407411277294158936e-02
-1.453094035387039185e-01
-2.118653357028961182e-01
-3.819103911519050598e-02
1.355225443840026855e-01
-1.094027087092399597e-01
-2.214070707559585571e-01
-2.404443472623825073e-01
9.358347952365875244e-02
1.613322645425796509e-01
2.033225744962692261e-01
1.350155770778656006e-01
-4.335787147283554077e-02
-1.767098456621170044e-01
1.317921429872512817e-01
-9.158669412136077881e-02
-5.582372844219207764e-02
2.014395445585250854e-01
2.232192307710647583e-01
-3.128865659236907959e-01
-4.471110999584197998e-01
-2.250897437334060669e-01
7.114210724830627441e-02
1.785583645105361938e-01
1.506834477186203003e-01
-7.715804874897003174e-02
-2.769259512424468994e-01
-2.060777693986892700e-01
-1.151031926274299622e-01
9.330324083566665649e-02
-7.826702296733856201e-02
5.819251760840415955e-02
5.411738157272338867e-02
-2.624321877956390381e-01
-1.916746050119400024e-01
-2.210326194763183594e-01
-8.623919636011123657e-02
1.180724799633026123e-01
2.319976687431335449e-01
-1.965355873107910156e-02
-1.375858038663864136e-01
-9.162066876888275146e-02
-2.696145474910736084e-01
-6.074196100234985352e-01
-6.063097715377807617e-02
1.294226050376892090e-01
2.616750299930572510e-01
-2.219999879598617554e-01
-2.982519567012786865e-01
-1.390392482280731201e-01
1.643591672182083130e-01
-1.130296662449836731e-02
-7.223858684301376343e-02
-1.819138079881668091e-01
-2.622128725051879883e-01
-1.436595916748046875e-01
-3.438310027122497559e-01
-5.840936303138732910e-01
-4.949359968304634094e-02
-2.441241741180419922e-01
-2.759259045124053955e-01
-5.282124280929565430e-01
-1.084957942366600037e-01
3.975658491253852844e-02
1.935071945190429688e-01
4.131083935499191284e-02
-2.517643272876739502e-01
4.011956155300140381e-01
1.173608284443616867e-02
-1.270247995853424072e-01
2.832825183868408203e-01
-5.527330636978149414e-01
3.527175188064575195e-01
-4.182474613189697266e-01
-2.775596976280212402e-01
-1.505183279514312744e-01
-1.491385996341705322e-01
1.054111495614051819e-01
2.973024547100067139e-01
3.813245892524719238e-02
-5.785192828625440598e-03
2.133179754018783569e-01
1.876911520957946777e-02
-8.700879663228988647e-02
-1.342575531452894211e-02
-1.840761154890060425e-01
1.279630362987518311e-01
1.005684360861778259e-01
2.597363665699958801e-02
-2.568048983812332153e-02
-1.947346329689025879e-01
1.680517643690109253e-01
5.582826957106590271e-02
4.123634472489356995e-02
1.129153743386268616e-01
5.722480639815330505e-02
1.085859015583992004e-01
-9.422157704830169678e-02
-4.423851072788238525e-01
7.906230688095092773e-01
1.907612681388854980e-01
1.694566458463668823e-01
1.424032896757125854e-01
-2.042874135076999664e-02
2.283386886119842529e-02
1.039192005991935730e-01
-8.950752206146717072e-03
4.543018992990255356e-03
2.136114686727523804e-01
-2.733933739364147186e-02
9.207353740930557251e-02
1.208982095122337341e-01
7.588540017604827881e-02
6.389141678810119629e-01
4.042597115039825439e-01
3.799578845500946045e-01
9.403207898139953613e-02
3.733326122164726257e-02
6.914298981428146362e-02
1.340618357062339783e-02
7.011798769235610962e-02
-7.288902252912521362e-02
2.039191424846649170e-01
-1.759385019540786743e-01
1.725208610296249390e-01
-3.332240739837288857e-03
2.101996988058090210e-01
2.901697456836700439e-01
1.604032814502716064e-01
2.414156347513198853e-01
-1.038098260760307312e-01
2.549979090690612793e-02
1.635097861289978027e-01
9.417463839054107666e-02
2.734716236591339111e-02
4.921375960111618042e-02
1.838470250368118286e-01
9.625817090272903442e-02
2.384232580661773682e-01
-2.656860947608947754e-01
8.738927543163299561e-02
4.372205138206481934e-01
2.394212037324905396e-01
3.320270404219627380e-02
-1.900199353694915771e-01
4.664159566164016724e-02
1.704362332820892334e-01
6.395430862903594971e-02
8.906067907810211182e-02
4.324536398053169250e-02
8.293562382459640503e-02
2.952647022902965546e-02
6.851204484701156616e-02
-1.948972791433334351e-01
3.319077193737030029e-01
-2.455041930079460144e-02
-1.351329535245895386e-01
-2.267519831657409668e-01
-2.230612337589263916e-01
3.872331976890563965e-02
1.396910101175308228e-01
7.996883243322372437e-03
9.971761610358953476e-04
7.978890091180801392e-02
3.198515623807907104e-02
-1.024328023195266724e-01
-1.311451196670532227e-01
-9.857247769832611084e-02
2.407280504703521729e-01
-4.238702356815338135e-01
4.757828544825315475e-03
-2.708221971988677979e-01
-1.658629477024078369e-01
1.133096218109130859e-01
2.215844988822937012e-01
-8.391229808330535889e-02
3.166854381561279297e-02
1.044783741235733032e-01
1.061906814575195312e-01
9.623568505048751831e-02
-1.061258539557456970e-01
-2.540795505046844482e-02
3.449909761548042297e-02
-1.450572013854980469e-01
-1.748270913958549500e-02
-1.009837239980697632e-01
-8.832138031721115112e-02
6.371570378541946411e-02
1.055961400270462036e-01
-7.464713603258132935e-02
-3.372722119092941284e-02
1.447357237339019775e-01
3.032200783491134644e-02
-1.236319169402122498e-01
-2.064329981803894043e-01
-8.274166285991668701e-02
-1.007694676518440247e-01
2.548651099205017090e-01
2.965947985649108887e-01
1.943630129098892212e-01
1.538712829351425171e-01
-5.389017611742019653e-02
1.038386672735214233e-01
-1.486023664474487305e-01
-1.599056869745254517e-01
-1.115588564425706863e-02
-8.925571106374263763e-03
-2.018926888704299927e-01
-1.892436295747756958e-01
-2.839277088642120361e-01
-1.356306076049804688e-01
2.047036737203598022e-01
1.350085139274597168e-01
-1.144392266869544983e-01
5.919751524925231934e-02
-2.268607020378112793e-01
1.070504426024854183e-03
-7.038450241088867188e-02
-1.882541030645370483e-01
2.613631542772054672e-03
-6.405571103096008301e-02
-4.095822870731353760e-01
-5.870170593261718750e-01
-6.236534118652343750e-01
-3.987371325492858887e-01
8.449324965476989746e-02
-1.249662935733795166e-01
-2.886791825294494629e-01
-1.369061172008514404e-01
-3.483474254608154297e-01
-1.384710967540740967e-01
-1.315270215272903442e-01
-2.054267227649688721e-01
-9.737342596054077148e-02
-2.735348939895629883e-01
-4.187435805797576904e-01
-7.677879929542541504e-01
-4.568313956260681152e-01
-3.295163512229919434e-01
-5.215732455253601074e-01
-3.742057681083679199e-01
-2.117631137371063232e-01
-3.439345955848693848e-02
-4.190801829099655151e-02
-2.346962690353393555e-01
-2.301122844219207764e-01
-9.657736122608184814e-02
-7.067060098052024841e-03
-1.243240833282470703e-01
-8.851922303438186646e-02
-3.802058696746826172e-01
-4.142610728740692139e-01
-3.568066358566284180e-01
-4.169467091560363770e-01
-3.265184536576271057e-02
2.811124920845031738e-01
1.545499414205551147e-01
3.585869669914245605e-01
3.169317543506622314e-01
1.295360475778579712e-01
-2.263069748878479004e-01
1.483500897884368896e-01
8.507620543241500854e-02
-1.264892667531967163e-01
1.834367811679840088e-01
5.161862447857856750e-02
-2.976278364658355713e-01
3.845894038677215576e-01
-1.315103173255920410e-01
4.900868609547615051e-02
5.817203596234321594e-02
2.259751260280609131e-01
8.354004472494125366e-02
-5.926346406340599060e-02
-1.124348491430282593e-01
-1.517239063978195190e-01
-8.827240765094757080e-02
-8.508759550750255585e-03
-1.569315791130065918e-01
9.038869291543960571e-02
-1.270120590925216675e-01
3.105883300304412842e-01
-1.689151376485824585e-01
-9.411713480949401855e-02
1.868179589509963989e-01
8.408032357692718506e-02
-5.970191583037376404e-02
-2.733784541487693787e-02
-5.626274645328521729e-02
-2.022865712642669678e-01
-5.673757940530776978e-02
7.333733141422271729e-02
-1.812304109334945679e-01
-2.086105570197105408e-02
1.015190780162811279e-01
-6.425481438636779785e-01
-8.609035611152648926e-02
9.663825482130050659e-02
2.619028687477111816e-01
1.912669539451599121e-01
5.202898383140563965e-02
1.160930171608924866e-01
-3.812708333134651184e-02
-9.282582253217697144e-02
-1.087027564644813538e-01
1.555772125720977783e-01
-1.749251037836074829e-02
-8.303098380565643311e-02
1.239076480269432068e-01
-3.607691228389739990e-01
-8.287059515714645386e-02
-2.313818596303462982e-02
3.110907077789306641e-01
2.172736376523971558e-01
-3.368182480335235596e-02
-1.925226859748363495e-02
-8.481327444314956665e-02
2.811721712350845337e-02
-1.366460472345352173e-01
3.760561943054199219e-01
-3.970559686422348022e-02
9.045028686523437500e-02
-2.165343426167964935e-02
2.506096661090850830e-01
2.760919630527496338e-01
4.496075585484504700e-02
2.860227525234222412e-01
-1.236424893140792847e-01
-5.077847465872764587e-02
1.648354530334472656e-01
3.733894601464271545e-02
-2.160066552460193634e-02
-2.011391967535018921e-01
3.342865705490112305e-01
-5.742809548974037170e-02
8.122626692056655884e-02
2.018880695104598999e-01
-2.350198030471801758e-01
1.935364454984664917e-01
-5.241841822862625122e-02
-6.115180626511573792e-02
-1.707262247800827026e-01
-1.408800035715103149e-01
1.191776543855667114e-01
-3.783880174160003662e-02
-4.068456962704658508e-02
-1.808471381664276123e-01
1.530967950820922852e-01
-6.183916120789945126e-04
1.329823285341262817e-01
4.340893123298883438e-03
-4.826013445854187012e-01
2.460560053586959839e-01
-7.896504551172256470e-02
-1.468310058116912842e-01
-7.455780357122421265e-02
-1.701297760009765625e-01
1.056247651576995850e-01
-1.636845991015434265e-02
-1.097966209053993225e-01
-2.370155975222587585e-02
1.899290271103382111e-02
1.001997143030166626e-01
1.118374615907669067e-01
2.471604943275451660e-01
-3.481575846672058105e-01
3.413434326648712158e-01
-1.220316216349601746e-01
-1.788023859262466431e-01
-4.479061067104339600e-02
-7.935236394405364990e-02
1.714665209874510765e-03
1.050938442349433899e-01
-4.047414660453796387e-02
-2.871546335518360138e-02
1.139305382966995239e-01
-4.177698865532875061e-02
1.524354368448257446e-01
2.515648901462554932e-01
-1.070036441087722778e-01
3.363023102283477783e-01
-9.562824666500091553e-02
-4.992897436022758484e-02
-1.989792287349700928e-01
-1.573800891637802124e-01
8.274454623460769653e-03
9.464886039495468140e-03
-1.285359561443328857e-01
-9.115466475486755371e-02
1.113497018814086914e-01
6.183512136340141296e-02
1.804779320955276489e-01
2.266391962766647339e-01
1.971021890640258789e-01
1.340324338525533676e-02
-3.055329918861389160e-01
-1.716475635766983032e-01
-1.012003049254417419e-01
-9.352916479110717773e-02
7.295947521924972534e-02
1.408558040857315063e-01
-5.622906982898712158e-02
-1.690341383218765259e-01
1.196573972702026367e-01
2.076899260282516479e-01
6.955865025520324707e-02
1.944137662649154663e-01
4.294120520353317261e-02
2.197128683328628540e-01
1.087986826896667480e-01
-1.763631701469421387e-01
-1.911648958921432495e-01
-7.422506809234619141e-02
6.513566710054874420e-03
1.063291355967521667e-01
-3.807531297206878662e-02
-1.877639442682266235e-01
2.196564823389053345e-01
1.108806431293487549e-01
-5.534826591610908508e-02
-4.432499036192893982e-02
-4.244039058685302734e-01
-2.126086950302124023e-01
4.081183969974517822e-01
1.326805055141448975e-01
-1.147450879216194153e-01
-8.782080560922622681e-02
1.475933641195297241e-01
2.187859714031219482e-01
1.280741393566131592e-01
-6.593035906553268433e-02
1.885440498590469360e-01
2.695592641830444336e-01
-1.135866902768611908e-02
-2.944972217082977295e-01
7.900722324848175049e-02
1.003214195370674133e-01
-1.712755262851715088e-01
-2.575302720069885254e-01
-3.790964484214782715e-01
2.923684008419513702e-02
2.441644519567489624e-01
2.707102894783020020e-01
-4.259070754051208496e-02
-5.787595361471176147e-02
-1.396199166774749756e-01
-2.685566842555999756e-01
2.522792220115661621e-01
-8.045338094234466553e-03
-5.517965555191040039e-01
-5.228006839752197266e-02
2.673717737197875977e-01
1.181384250521659851e-01
-1.254675239324569702e-01
-2.233157604932785034e-01
1.140808314085006714e-01
-1.347710639238357544e-01
-2.464437335729598999e-01
-3.521376550197601318e-01
-3.602566123008728027e-01
5.400048941373825073e-02
7.786924242973327637e-01
-3.057388365268707275e-01
2.324069440364837646e-01
2.906465716660022736e-02
1.530188173055648804e-01
3.423899412155151367e-01
4.417650029063224792e-02
-7.108435034751892090e-02
7.650630921125411987e-02
-1.583563536405563354e-01
-1.442649662494659424e-01
-1.512777432799339294e-02
-1.006978526711463928e-01
1.605925709009170532e-02
7.534116506576538086e-01
7.433065026998519897e-02
5.947422981262207031e-01
-1.214056909084320068e-01
-1.386426985263824463e-01
1.290554702281951904e-01
-1.551970187574625015e-02
-9.245592355728149414e-02
-2.774099409580230713e-01
-2.267016768455505371e-01
-2.187293618917465210e-01
2.657337859272956848e-02
1.380286514759063721e-01
-1.532202959060668945e-01
1.004420816898345947e-01
7.150979042053222656e-01
-6.872706860303878784e-02
-3.307975530624389648e-01
-2.538841962814331055e-01
-1.094368025660514832e-01
1.321096122264862061e-01
-1.643669009208679199e-01
-1.477808952331542969e-01
-1.536892503499984741e-01
-1.789815872907638550e-01
6.641872972249984741e-02
5.063160508871078491e-02
-2.186384648084640503e-01
-1.711410433053970337e-01
4.131465554237365723e-01
-3.545197099447250366e-02
-3.942338526248931885e-01
-2.774311304092407227e-01
9.177498519420623779e-02
6.818220764398574829e-02
-3.066895604133605957e-01
-4.148011282086372375e-02
-1.662828624248504639e-01
-1.058110734447836876e-03
6.334598362445831299e-02
3.371311128139495850e-01
-1.112954467535018921e-01
4.988417401909828186e-02
2.477774769067764282e-01
2.153015136718750000e-01
-7.080738991498947144e-02
-2.133900821208953857e-01
4.482163488864898682e-02
1.257454324513673782e-02
-8.489844202995300293e-02
9.016626328229904175e-02
-1.114102359861135483e-02
-1.064126938581466675e-01
-6.845710426568984985e-02
2.468008548021316528e-01
-1.483320742845535278e-01
-5.793524906039237976e-02
5.122338533401489258e-01
2.877194881439208984e-01
-1.140253245830535889e-01
-1.801136434078216553e-01
7.208192348480224609e-02
-2.041973620653152466e-01
-2.799551561474800110e-02
8.978401869535446167e-02
1.353152841329574585e-01
1.788331121206283569e-01
3.738388791680335999e-02
8.972819894552230835e-02
-5.570157244801521301e-02
-4.263057187199592590e-02
4.372788220643997192e-02
3.739930093288421631e-01
-1.255538314580917358e-02
-4.224999248981475830e-02
-5.203115567564964294e-02
-9.828894585371017456e-02
6.877409666776657104e-02
5.644728243350982666e-02
-1.592419669032096863e-02
1.496861428022384644e-01
1.102999895811080933e-01
3.091821633279323578e-02
8.570473641157150269e-02
1.211223900318145752e-01
1.571915447711944580e-01
-2.549144029617309570e-01
2.526308298110961914e-01
8.391193300485610962e-02
-4.217381775379180908e-02
-5.419960245490074158e-02
9.384089708328247070e-02
7.226275652647018433e-02
2.731304615736007690e-02
2.382668852806091309e-01
1.758792549371719360e-01
1.063718348741531372e-01
7.544160634279251099e-02
1.710027456283569336e-01
4.755928367376327515e-02
-8.399507403373718262e-02
4.050448536872863770e-01
9.421191364526748657e-02
2.161468379199504852e-02
-1.523261517286300659e-01
-2.836287021636962891e-02
7.943189889192581177e-02
2.023064047098159790e-01
1.937604099512100220e-01
-1.548311207443475723e-02
1.502949744462966919e-01
9.705196321010589600e-02
3.733071684837341309e-01
2.720465362071990967e-01
-2.228969782590866089e-01
1.676209419965744019e-01
-4.670350998640060425e-02
-1.398523896932601929e-01
-1.297753155231475830e-01
2.916946075856685638e-02
9.109415113925933838e-02
1.299697458744049072e-01
5.548679828643798828e-02
-2.188659608364105225e-01
-3.518572077155113220e-02
2.412284351885318756e-02
3.944894373416900635e-01
6.665068119764328003e-02
-1.467097997665405273e-01
-3.470736369490623474e-02
-3.351874276995658875e-02
-1.895766705274581909e-01
4.513988271355628967e-02
6.866427138447761536e-03
1.013607382774353027e-01
2.000652253627777100e-01
8.219762891530990601e-02
-1.365800350904464722e-01
-6.263572722673416138e-02
-5.476259812712669373e-02
1.550633013248443604e-01
-1.161278132349252701e-02
-2.307368069887161255e-01
-1.793519854545593262e-01
5.451113730669021606e-02
-2.572297118604183197e-02
-8.801417052745819092e-02
5.897732451558113098e-02
2.265328913927078247e-01
2.456542253494262695e-01
1.172620281577110291e-01
4.224158078432083130e-02
-3.792364895343780518e-02
1.078643575310707092e-01
3.410980105400085449e-02
5.576311051845550537e-02
-2.281918227672576904e-01
1.599858514964580536e-02
-1.702809035778045654e-01
3.582605347037315369e-02
-2.682246565818786621e-01
1.503517031669616699e-01
4.091014862060546875e-01
3.440237939357757568e-01
-1.434366591274738312e-02
-1.637227237224578857e-01
-6.711838394403457642e-02
-2.745528817176818848e-01
-2.058037221431732178e-01
-2.530842721462249756e-01
3.001430034637451172e-01
1.163908541202545166e-01
-1.827681213617324829e-01
2.696100063621997833e-02
7.767327129840850830e-03
3.744211494922637939e-01
3.397010266780853271e-01
5.102104544639587402e-01
6.455010175704956055e-01
3.691433966159820557e-01
5.207016468048095703e-01
1.706269234418869019e-01
-1.206895262002944946e-01
4.213029742240905762e-01
3.531798422336578369e-01
1.796195954084396362e-01
3.689931929111480713e-01
2.802126668393611908e-02
-2.413747608661651611e-01
2.491183578968048096e-02
1.163475811481475830e-01
2.188190072774887085e-02
-6.321503221988677979e-02
-2.632329165935516357e-01
3.878035023808479309e-02
4.392453730106353760e-01
4.185549318790435791e-01
1.723604351282119751e-01
-3.487044572830200195e-01
1.754265129566192627e-01
3.384175002574920654e-01
-2.259307354688644409e-01
-5.683163926005363464e-02
-8.582203090190887451e-02
-7.748215459287166595e-03
-2.253291159868240356e-01
-2.181826978921890259e-01
-2.344760596752166748e-01
3.369076922535896301e-02
3.279668390750885010e-01
2.988550662994384766e-01
-1.306977123022079468e-01
-5.063738226890563965e-01
1.495986580848693848e-01
1.021410971879959106e-01
-9.237705171108245850e-02
-4.505142569541931152e-02
-7.242117822170257568e-02
8.256120979785919189e-02
-6.463295966386795044e-02
1.104304939508438110e-02
-1.635699868202209473e-01
9.255098551511764526e-02
8.942884206771850586e-02
3.200122117996215820e-01
-1.076304987072944641e-01
2.221844345331192017e-02
-1.259031984955072403e-02
2.204682677984237671e-02
-1.676300764083862305e-01
1.008866950869560242e-01
4.379135742783546448e-02
-4.935030639171600342e-02
-4.315618798136711121e-02
1.442280560731887817e-01
-1.718861237168312073e-02
-7.003232091665267944e-02
7.877064496278762817e-02
1.302119344472885132e-01
-3.280766308307647705e-02
-8.113484829664230347e-02
-1.243610829114913940e-01
-9.275440871715545654e-02
-1.815584450960159302e-01
1.877231448888778687e-01
5.679301545023918152e-02
-1.083847954869270325e-01
1.536125969141721725e-02
1.615754812955856323e-01
5.405139923095703125e-02
4.179162904620170593e-02
8.237629383802413940e-02
2.023692615330219269e-02
-1.307916641235351562e-01
1.643944531679153442e-01
-1.678246422670781612e-03
-9.936504065990447998e-03
-2.232999503612518311e-01
-3.608879074454307556e-02
-4.575757682323455811e-02
-1.461800783872604370e-01
-2.479430474340915680e-02
7.448509335517883301e-02
-6.745351850986480713e-02
-2.970025688409805298e-02
7.589955627918243408e-02
-1.100679114460945129e-01
-3.151892721652984619e-01
-1.007280498743057251e-01
3.624737262725830078e-02
-2.524491026997566223e-02
-5.726699233055114746e-01
-4.016797542572021484e-01
-1.059501692652702332e-01
1.698688231408596039e-02
-3.441287204623222351e-02
1.499383300542831421e-01
-2.865882217884063721e-02
-1.305632144212722778e-01
-3.493973240256309509e-02
-6.163221318274736404e-03
-9.853147901594638824e-03
-5.180474519729614258e-01
-2.035987749695777893e-02
-2.135605551302433014e-02
-5.707827806472778320e-01
-1.129179745912551880e-01
-4.527963697910308838e-02
-5.025446042418479919e-02
1.819900237023830414e-02
8.816810697317123413e-02
-9.404720366001129150e-02
-4.229772463440895081e-02
-2.909490466117858887e-02
-1.241492405533790588e-01
2.318116091191768646e-02
4.169439151883125305e-02
4.342938065528869629e-01
6.368896365165710449e-02
-3.669666945934295654e-01
1.681883484125137329e-01
1.365553587675094604e-01
-2.101451531052589417e-02
-1.276943087577819824e-01
6.414007395505905151e-02
1.151556596159934998e-01
-1.321885287761688232e-01
5.371743068099021912e-02
4.714757204055786133e-02
-1.376827508211135864e-01
1.906588673591613770e-01
2.687747776508331299e-01
1.431022882461547852e-01
-1.615672558546066284e-01
3.354411721229553223e-01
2.256456762552261353e-01
1.140372827649116516e-01
-7.873129099607467651e-03
9.013077244162559509e-03
4.472070932388305664e-02
9.717145562171936035e-02
1.128353774547576904e-01
2.392829358577728271e-01
1.183559559285640717e-02
3.148400783538818359e-01
1.702239066362380981e-01
-7.318972796201705933e-02
-1.512799113988876343e-01
1.481219679117202759e-01
9.731835871934890747e-02
-4.655820131301879883e-02
-1.336667686700820923e-01
-2.152609229087829590e-01
-1.966465860605239868e-01
-7.794926315546035767e-02
-4.381959140300750732e-02
8.121095597743988037e-03
2.056726813316345215e-01
1.178134605288505554e-01
-4.744876176118850708e-02
-1.391203552484512329e-01
-1.658903360366821289e-01
2.440456449985504150e-01
1.329624503850936890e-01
6.197937577962875366e-02
1.092119235545396805e-02
1.611500605940818787e-02
-2.506145536899566650e-01
-2.915320396423339844e-01
-3.091438412666320801e-01
-1.403327584266662598e-01
3.612680137157440186e-01
-9.039708226919174194e-02
-2.522975206375122070e-01
-4.256450831890106201e-01
-2.085711359977722168e-01
4.418134689331054688e-01
1.944445818662643433e-01
6.965155154466629028e-02
1.360447257757186890e-01
1.021931767463684082e-01
8.765793591737747192e-02
-1.249737367033958435e-01
-4.250224530696868896e-01
2.191494032740592957e-02
8.200007490813732147e-03
-4.971946477890014648e-01
-8.727413415908813477e-01
-4.284796118736267090e-01
-3.218731582164764404e-01
-7.154361605644226074e-01
2.835119962692260742e-01
2.233472168445587158e-01
3.892518877983093262e-01
2.906678617000579834e-01
-4.174520373344421387e-01
-3.121445775032043457e-01
-9.251144714653491974e-03
-8.471109718084335327e-02
-6.784813851118087769e-02
3.644279241561889648e-01
-2.772286832332611084e-01
3.151212632656097412e-02
-8.162345290184020996e-01
-7.644597887992858887e-01
-1.462312787771224976e-01
7.655549794435501099e-02
-1.588878966867923737e-02
-2.689089477062225342e-01
-3.832813501358032227e-01
-6.260029673576354980e-01
-1.818270087242126465e-01
3.380891084671020508e-01
2.824881970882415771e-01
3.997153937816619873e-01
-1.132680401206016541e-01
-2.745574712753295898e-01
-2.998248040676116943e-01
-5.895280838012695312e-02
-2.650651037693023682e-01
1.521110814064741135e-02
5.533979460597038269e-02
-1.688661724328994751e-01
-7.853487879037857056e-02
-2.642483711242675781e-01
-1.267173439264297485e-01
-1.311396211385726929e-01
5.298951268196105957e-01
-5.757595226168632507e-02
-1.982822418212890625e-01
-5.729280039668083191e-02
1.988207176327705383e-02
-2.291946858167648315e-01
-9.019930660724639893e-02
-1.612409651279449463e-01
-2.030592113733291626e-01
-1.167267784476280212e-01
2.043091505765914917e-02
-2.123984992504119873e-01
1.026997417211532593e-01
-4.431352950632572174e-03
6.174811124801635742e-01
1.610274165868759155e-01
5.972288083285093307e-03
1.110504308599047363e-04
-1.683488935232162476e-01
-9.367177635431289673e-02
7.569514214992523193e-02
-2.798846960067749023e-01
-2.640889286994934082e-01
1.161391213536262512e-01
9.190745651721954346e-02
-2.821138203144073486e-01
1.899243146181106567e-01
1.278103739023208618e-01
2.587737441062927246e-01
1.063168123364448547e-01
-1.211198866367340088e-01
9.817906469106674194e-02
-1.369433403015136719e-01
3.101176209747791290e-02
6.119766831398010254e-02
-1.724836975336074829e-01
-3.461235761642456055e-02
1.591655313968658447e-01
2.944187223911285400e-01
-3.240782022476196289e-02
3.209432363510131836e-01
1.648720204830169678e-01
1.135327368974685669e-01
1.406912356615066528e-01
-3.006828017532825470e-02
3.696763142943382263e-02
-2.082444578409194946e-01
-1.007251068949699402e-02
-7.421278208494186401e-02
-4.443648830056190491e-02
-5.866557732224464417e-02
8.878777921199798584e-02
1.982126384973526001e-01
8.329617977142333984e-02
1.542176008224487305e-01
6.144944205880165100e-02
1.221072897315025330e-01
-1.744131594896316528e-01
3.580323234200477600e-02
-6.527651101350784302e-02
-1.231292560696601868e-01
6.134876981377601624e-02
9.485395997762680054e-02
-7.595915347337722778e-02
-6.782835349440574646e-03
1.059368774294853210e-01
1.238204687833786011e-01
1.203277558088302612e-01
4.104147478938102722e-02
9.122548997402191162e-02
1.406025290489196777e-01
3.184467926621437073e-02
1.525823678821325302e-02
-1.516902893781661987e-01
-8.751010149717330933e-02
7.787383347749710083e-02
-2.669362910091876984e-02
7.951957732439041138e-02
-7.573631126433610916e-03
1.060853675007820129e-01
2.549171820282936096e-02
1.172878593206405640e-01
8.110330440104007721e-03
5.978192202746868134e-03
-4.368260502815246582e-02
-9.033475071191787720e-02
-8.226591162383556366e-03
-1.021883115172386169e-01
-8.131270110607147217e-02
4.668365046381950378e-02
1.094660237431526184e-01
2.705151215195655823e-02
-4.368766210973262787e-03
6.584206968545913696e-02
-2.464414015412330627e-02
9.518502652645111084e-02
-6.007312331348657608e-03
1.088355015963315964e-02
8.937387168407440186e-02
4.039488732814788818e-02
1.111737936735153198e-01
4.250838607549667358e-02
-4.809461161494255066e-02
9.676008671522140503e-02
8.123384788632392883e-03
1.384920626878738403e-01
4.484137520194053650e-02
1.608248203992843628e-01
2.315601408481597900e-01
1.710083186626434326e-01
1.097255498170852661e-01
5.751210451126098633e-02
3.024143874645233154e-01
-6.848052889108657837e-02
4.276855885982513428e-01
1.816439926624298096e-01
-7.145618647336959839e-02
-1.614674180746078491e-02
9.751347452402114868e-02
5.707769468426704407e-02
1.222741156816482544e-01
1.400296986103057861e-01
5.355794355273246765e-02
6.291456520557403564e-02
1.634916961193084717e-01
1.963384449481964111e-01
-5.175800994038581848e-02
-3.370272740721702576e-02
3.774098455905914307e-01
1.781825274229049683e-01
-2.117825448513031006e-01
6.078141927719116211e-02
-6.869569420814514160e-03
4.003361612558364868e-02
1.276312489062547684e-02
1.259115934371948242e-01
2.806846052408218384e-02
1.245193183422088623e-01
3.263019025325775146e-02
1.947621852159500122e-01
-2.264763116836547852e-01
-1.412888616323471069e-01
1.278608441352844238e-01
1.355203539133071899e-01
-2.711254954338073730e-01
3.136059641838073730e-01
4.756246879696846008e-02
8.640548586845397949e-02
-2.008066885173320770e-02
-1.629997491836547852e-01
7.071080803871154785e-02
-1.738277077674865723e-01
3.116991221904754639e-01
-5.568534135818481445e-02
-8.346527814865112305e-02
-5.524702668190002441e-01
-4.918311536312103271e-01
6.849915534257888794e-02
1.992069929838180542e-01
-1.706830561161041260e-01
-2.380590438842773438e-01
3.627944588661193848e-01
2.509662806987762451e-01
-3.353159427642822266e-01
-2.406229972839355469e-01
-6.123871728777885437e-02
1.662625521421432495e-01
5.331707596778869629e-01
-4.575758427381515503e-02
7.943359017372131348e-02
-3.222224488854408264e-02
1.099229156970977783e-01
6.484580039978027344e-02
3.176336362957954407e-02
-9.991829097270965576e-02
7.805018685758113861e-03
-1.472228020429611206e-02
-2.055304199457168579e-01
1.786185242235660553e-02
-1.322340369224548340e-01
-1.642280668020248413e-01
5.934085845947265625e-01
3.016005158424377441e-01
4.510163366794586182e-01
-3.264085054397583008e-01
-2.562284283339977264e-02
-1.210742890834808350e-01
-2.018175572156906128e-01
3.739539161324501038e-02
3.768943995237350464e-02
1.841831021010875702e-02
-1.964292488992214203e-02
-2.369517683982849121e-01
-1.022477447986602783e-01
-5.120976828038692474e-03
2.048488110303878784e-01
3.664656877517700195e-01
4.083824902772903442e-02
-3.184611201286315918e-01
-3.832996785640716553e-01
-2.955397665500640869e-01
-2.415579110383987427e-01
1.455701328814029694e-02
1.873433440923690796e-01
5.296850204467773438e-02
-2.466190792620182037e-02
-4.060213640332221985e-02
-7.169457525014877319e-02
-5.517019703984260559e-02
1.037007495760917664e-01
2.772107720375061035e-01
-8.252517133951187134e-02
-2.018142491579055786e-01
-2.400198429822921753e-01
-2.922701239585876465e-01
-9.556593000888824463e-02
-1.627131402492523193e-01
1.707898825407028198e-01
1.126999929547309875e-01
-2.800303995609283447e-01
-1.723916977643966675e-01
2.557772211730480194e-02
-6.804323196411132812e-02
-1.216017641127109528e-02
2.015377134084701538e-01
8.546154946088790894e-02
-1.532940864562988281e-01
-2.112632989883422852e-01
1.968749053776264191e-02
1.618319302797317505e-01
-1.971296072006225586e-01
3.390965610742568970e-02
1.264493167400360107e-01
-2.293463796377182007e-01
4.350544139742851257e-02
1.069206930696964264e-02
-1.626934856176376343e-01
-1.701272279024124146e-02
3.631987869739532471e-01
5.610786080360412598e-01
-2.978188097476959229e-01
-6.079793721437454224e-02
5.184372141957283020e-02
-1.516826599836349487e-01
4.393441975116729736e-02
1.140023469924926758e-01
1.134175062179565430e-01
-6.011978536844253540e-02
3.537694737315177917e-02
-1.249365042895078659e-02
-5.773867666721343994e-02
-5.296353250741958618e-02
-2.352370768785476685e-01
4.981341958045959473e-01
-1.560478508472442627e-01
9.292601794004440308e-02
-8.316824585199356079e-02
-8.977970480918884277e-02
-5.877792090177536011e-02
3.590583801269531250e-03
-2.746694907546043396e-02
2.153966343030333519e-03
2.038957327604293823e-01
5.155692622065544128e-02
-3.649555519223213196e-02
-1.056087762117385864e-01
-1.614664494991302490e-01
-1.714970916509628296e-01
5.357845872640609741e-02
4.948697611689567566e-02
-1.772988773882389069e-02
-7.997591048479080200e-02
-8.508085459470748901e-02
6.536509841680526733e-02
6.666705757379531860e-02
9.568367898464202881e-02
2.664903402328491211e-01
8.286163210868835449e-02
5.124167352914810181e-02
-6.918676081113517284e-04
2.763722650706768036e-02
-1.391571164131164551e-01
3.013262748718261719e-01
1.410522758960723877e-01
8.406846225261688232e-02
7.876060158014297485e-02
4.255318641662597656e-02
1.938487291336059570e-01
1.126913800835609436e-01
1.391062140464782715e-01
1.900066137313842773e-01
1.745019257068634033e-01
8.597379922866821289e-02
2.190436273813247681e-01
-1.340586245059967041e-01
-2.253361791372299194e-01
2.834281623363494873e-01
1.748776286840438843e-01
2.428046464920043945e-01
2.536757290363311768e-01
1.405255347490310669e-01
5.203589797019958496e-02
-8.997083455324172974e-02
-1.931893527507781982e-01
-1.969757229089736938e-01
2.323496043682098389e-01
2.303234338760375977e-01
4.810807406902313232e-01
-1.224323436617851257e-01
-1.086208820343017578e-01
2.377183586359024048e-01
1.537497490644454956e-01
1.170426607131958008e-01
2.134801298379898071e-01
7.276070863008499146e-02
5.386219173669815063e-02
-1.300591528415679932e-01
-1.967875212430953979e-01
-2.053842693567276001e-01
2.373632788658142090e-01
2.392774224281311035e-01
4.207361638545989990e-01
-3.339150175452232361e-02
-2.937943637371063232e-01
4.953352361917495728e-02
9.821934998035430908e-02
5.991197004914283752e-02
-6.208261474967002869e-02
1.213275119662284851e-01
9.770928323268890381e-02
4.472844302654266357e-02
-1.548138707876205444e-01
-2.662449181079864502e-01
-2.757194079458713531e-02
6.008239462971687317e-02
1.731187254190444946e-01
-1.023715808987617493e-01
-2.088573426008224487e-01
2.642649412155151367e-01
-2.052662819623947144e-01
-1.748899817466735840e-01
-3.151180446147918701e-01
1.826393306255340576e-01
2.056581377983093262e-01
1.801199465990066528e-02
-1.681713163852691650e-01
-7.091084718704223633e-01
-4.027667343616485596e-01
-2.237743437290191650e-01
-2.008803337812423706e-01
-2.997230589389801025e-01
-8.194625377655029297e-02
-7.553715109825134277e-01
-4.745874702930450439e-01
-4.705898463726043701e-01
-1.282084919512271881e-02
-1.265274137258529663e-01
-7.836728543043136597e-02
1.469852495938539505e-02
2.419258505105972290e-01
2.551644742488861084e-01
-3.237054049968719482e-01
-8.131627738475799561e-02
7.989277131855487823e-03
-3.443199396133422852e-01
-1.427425444126129150e-01
-4.459931254386901855e-01
2.112363129854202271e-01
-1.045104116201400757e-02
-4.248256608843803406e-02
3.516066819429397583e-02
3.396821673959493637e-03
-6.244967132806777954e-02
3.569911792874336243e-02
1.007776930928230286e-01
4.260449856519699097e-02
3.012008965015411377e-01
1.533418744802474976e-01
9.322221577167510986e-02
-3.452193737030029297e-01
1.768576167523860931e-02
8.875481784343719482e-02
-1.076105237007141113e-01
7.249798625707626343e-02
1.606620848178863525e-01
1.834935508668422699e-02
-2.648240141570568085e-02
2.274088710546493530e-01
7.863064855337142944e-02
-1.685494482517242432e-01
2.827054560184478760e-01
1.475233137607574463e-01
-2.770425193011760712e-02
-2.126006484031677246e-01
-5.462791398167610168e-02
5.626808106899261475e-02
1.049796342849731445e-01
-2.779782377183437347e-02
-6.157669797539710999e-02
-1.106334254145622253e-01
-2.320508360862731934e-01
-1.042443588376045227e-01
-3.940058872103691101e-02
-4.217986948788166046e-03
1.153558418154716492e-01
4.793244972825050354e-02
-7.034892588853836060e-02
-6.407342106103897095e-02
9.625682234764099121e-02
1.092227101325988770e-01
-3.422047197818756104e-02
-1.166737824678421021e-01
-2.188282012939453125e-01
-1.316255033016204834e-01
-4.106727540493011475e-01
-3.471737802028656006e-01
-2.583656013011932373e-01
-1.757961660623550415e-01
-1.596647053956985474e-01
-9.631136804819107056e-02
2.872375547885894775e-01
-1.497153192758560181e-01
1.565008163452148438e-01
-8.555234526284039021e-04
9.277518838644027710e-02
1.935556717216968536e-02
2.746284753084182739e-02
-3.440823853015899658e-01
-4.493436217308044434e-01
-4.757798910140991211e-01
-2.346812486648559570e-01
-2.461240887641906738e-01
-1.436576694250106812e-01
-2.184033542871475220e-01
4.039620459079742432e-01
4.389632865786552429e-02
-7.819218188524246216e-02
-7.436753809452056885e-02
1.462644636631011963e-01
-3.880156949162483215e-02
4.384553991258144379e-03
-9.603257477283477783e-02
-3.062568306922912598e-01
-1.485395580530166626e-01
-2.041804492473602295e-01
-2.067623585462570190e-01
-9.070745110511779785e-02
-7.578767836093902588e-02
1.363601833581924438e-01
2.913106977939605713e-01
1.187578514218330383e-01
2.634563148021697998e-01
3.879953175783157349e-02
6.913807988166809082e-02
1.664180457592010498e-01
-1.067133899778127670e-02
-1.516459733247756958e-01
1.768980990163981915e-03
8.296128362417221069e-02
2.860652655363082886e-02
1.310601681470870972e-01
2.396194785833358765e-01
1.397718936204910278e-01
-1.453979164361953735e-01
-2.497959285974502563e-01
1.880789995193481445e-01
-1.832212880253791809e-02
1.626695841550827026e-01
1.705545485019683838e-01
1.712930798530578613e-01
-1.202037781476974487e-01
-3.798243356868624687e-03
3.698101639747619629e-02
-1.237576976418495178e-01
-7.377817481756210327e-02
-1.205233111977577209e-01
-1.271794438362121582e-01
3.905563428997993469e-02
-2.946867346763610840e-01
7.283835113048553467e-02
7.635661214590072632e-02
1.943745166063308716e-01
2.149151414632797241e-01
1.466787904500961304e-01
5.331793054938316345e-02
8.712240308523178101e-02
-1.124503538012504578e-01
-5.651671811938285828e-02
-8.381163701415061951e-03
-9.600908495485782623e-03
-9.465725719928741455e-02
1.926261931657791138e-02
-2.803626060485839844e-01
1.871769577264785767e-01
3.244544193148612976e-02
1.243996098637580872e-01
2.258801907300949097e-01
2.624741196632385254e-01
1.250075846910476685e-01
-8.023937046527862549e-02
-1.705096513032913208e-01
-1.316543221473693848e-01
7.104404270648956299e-02
2.869709767401218414e-02
-8.362289518117904663e-02
-2.095752656459808350e-01
-2.290089875459671021e-01
1.659758687019348145e-01
-1.980408132076263428e-01
2.318476513028144836e-02
2.778550982475280762e-01
2.811125516891479492e-01
2.825630009174346924e-01
1.933313719928264618e-02
-6.849997490644454956e-02
-2.741905450820922852e-01
-3.520641848444938660e-02
3.012124896049499512e-01
-3.960343450307846069e-02
-2.378556430339813232e-01
-2.876860834658145905e-02
7.435914129018783569e-02
-3.231105208396911621e-01
1.928806751966476440e-01
3.809408843517303467e-01
2.793277502059936523e-01
3.893103599548339844e-01
2.199058830738067627e-01
6.171536073088645935e-02
-2.731067240238189697e-01
-9.429673850536346436e-02
2.009534984827041626e-01
8.710500597953796387e-02
-1.373019516468048096e-01
-2.496463656425476074e-01
2.965043485164642334e-01
-5.253880098462104797e-02
3.399169445037841797e-01
-6.249548867344856262e-02
-8.894896134734153748e-03
-2.411278896033763885e-03
-1.618932634592056274e-01
2.194653749465942383e-01
1.138326479122042656e-03
1.645497232675552368e-01
1.288083642721176147e-01
-3.375378847122192383e-01
-7.368903160095214844e-01
-5.266232490539550781e-01
-2.529753744602203369e-01
2.109432220458984375e-01
-3.119147382676601410e-02
-5.126114487648010254e-01
6.823322921991348267e-02
1.128493025898933411e-01
-3.436510264873504639e-01
1.599665582180023193e-01
4.231431782245635986e-01
-1.363051533699035645e-01
-2.677542269229888916e-01
-3.840871155261993408e-01
2.386886328458786011e-01
5.923604220151901245e-02
-2.343709468841552734e-01
-2.437853366136550903e-01
-3.349098563194274902e-01
1.244220584630966187e-01
1.596873253583908081e-01
-3.279698267579078674e-02
2.468379884958267212e-01
2.358256280422210693e-02
6.627311557531356812e-02
2.524208128452301025e-01
-2.736195325851440430e-01
2.611741423606872559e-01
2.005795836448669434e-01
7.543154805898666382e-02
-2.938644587993621826e-01
2.444760128855705261e-02
-1.503390911966562271e-02
-8.755156397819519043e-02
7.573403418064117432e-02
-1.140416339039802551e-01
1.038870215415954590e-02
1.162153109908103943e-01
2.770234458148479462e-02
-1.643182784318923950e-01
-7.806071639060974121e-02
-4.046985805034637451e-01
2.625722587108612061e-01
2.292857617139816284e-01
6.403794139623641968e-02
1.659965813159942627e-01
-2.025064080953598022e-01
-2.446864694356918335e-01
1.167085617780685425e-01
1.268952935934066772e-01
-1.169456169009208679e-01
-3.531158268451690674e-01
1.517424732446670532e-02
-1.058324500918388367e-01
1.218771189451217651e-01
-1.820271164178848267e-01
3.903728723526000977e-01
1.697932630777359009e-01
6.454730406403541565e-03
7.265869528055191040e-02
1.213308051228523254e-01
-7.102145999670028687e-02
-6.813290715217590332e-02
9.434575587511062622e-02
-1.832194626331329346e-01
6.829789280891418457e-02
-1.426337510347366333e-01
-2.050919383764266968e-01
-1.762256212532520294e-02
2.172595858573913574e-01
3.043487966060638428e-01
-2.060670107603073120e-01
5.947053898125886917e-03
4.161307588219642639e-02
3.594259023666381836e-01
-1.400624066591262817e-01
-1.395175755023956299e-01
2.564081549644470215e-02
-9.203603863716125488e-02
3.985445797443389893e-01
3.102392517030239105e-02
-1.203374862670898438e-01
-2.263259515166282654e-02
2.407414466142654419e-01
4.446561634540557861e-01
-3.059106767177581787e-01
1.342858523130416870e-01
1.412557810544967651e-01
1.733685135841369629e-01
-5.959774181246757507e-02
-1.779229044914245605e-01
-8.416532725095748901e-02
-7.316984981298446655e-02
1.005592867732048035e-01
-8.552088588476181030e-02
-2.863921225070953369e-01
-1.289419382810592651e-01
-2.024549394845962524e-01
1.903358474373817444e-02
-3.404069840908050537e-01
3.159752786159515381e-01
1.604733318090438843e-01
1.760904043912887573e-01
2.817683108150959015e-02
-8.203715085983276367e-02
-6.467637419700622559e-02
1.487377583980560303e-01
2.520726025104522705e-01
-7.580912113189697266e-02
-2.939848899841308594e-01
-3.154328465461730957e-01
-2.476419210433959961e-01
2.220478057861328125e-01
-8.844535052776336670e-02
1.784051954746246338e-01
1.409522593021392822e-01
6.230223923921585083e-02
1.876658648252487183e-01
-2.509568035602569580e-01
-7.171618938446044922e-02
1.777596622705459595e-01
1.305793225765228271e-01
-1.551438421010971069e-01
-1.307895183563232422e-01
-2.299446761608123779e-01
1.463514268398284912e-01
2.424331456422805786e-01
-9.801608324050903320e-02
-8.278795331716537476e-02
3.619944676756858826e-02
1.457819193601608276e-01
2.550112009048461914e-01
-2.273025214672088623e-01
-9.635213762521743774e-02
1.824019700288772583e-01
2.020146250724792480e-01
-1.359324455261230469e-01
-1.014134809374809265e-01
5.547399073839187622e-02
2.369065582752227783e-01
6.879016757011413574e-02
-1.367708146572113037e-01
1.365400403738021851e-01
8.494456112384796143e-02
2.148453146219253540e-01
3.264958560466766357e-01
-1.198917180299758911e-01
-1.431076973676681519e-01
1.462122332304716110e-02
2.074168771505355835e-01
-1.893013902008533478e-02
2.079298347234725952e-02
1.066850684583187103e-02
1.537238061428070068e-01
3.687024712562561035e-01
4.475152865052223206e-02
2.178913801908493042e-01
4.123020768165588379e-01
1.253199130296707153e-01
2.383467257022857666e-01
-1.946667283773422241e-01
-3.149208426475524902e-01
1.586699485778808594e-01
2.229656577110290527e-01
-1.121919155120849609e-01
2.643245160579681396e-01
-1.906941644847393036e-02
3.443577885627746582e-01
1.052978411316871643e-01
1.898069232702255249e-01
-5.961929634213447571e-02
-7.256761658936738968e-03
1.056920737028121948e-01
2.747663855552673340e-01
-1.089496165513992310e-01
-3.590996563434600830e-01
2.181943655014038086e-01
1.812803447246551514e-01
-3.113228976726531982e-01
-1.271692663431167603e-01
-8.745745569467544556e-02
-1.289511770009994507e-01
-3.197002708911895752e-01
3.146492540836334229e-01
1.823505312204360962e-01
-5.449330061674118042e-02
2.028915584087371826e-01
3.870523869991302490e-01
-3.091270625591278076e-01
-3.549611866474151611e-01
3.062503039836883545e-01
9.186697751283645630e-02
-3.040554821491241455e-01
5.766773968935012817e-02
-1.837489157915115356e-01
-2.807661890983581543e-01
6.760264635086059570e-01
2.796149253845214844e-01
-3.951314985752105713e-01
2.247731834650039673e-01
1.123260334134101868e-02
-1.371937692165374756e-01
-2.072936296463012695e-01
-2.605359554290771484e-01
-1.820092201232910156e-01
2.895866893231868744e-02
-4.089635238051414490e-02
2.593917539343237877e-03
3.610213100910186768e-01
6.648886799812316895e-01
1.949630081653594971e-01
1.675011217594146729e-01
-2.939903140068054199e-01
-1.430152058601379395e-01
1.346077173948287964e-01
4.273348674178123474e-02
1.792013347148895264e-01
2.249355167150497437e-01
6.763323396444320679e-02
7.476269453763961792e-02
-9.556219726800918579e-02
3.761772066354751587e-03
4.349704086780548096e-01
1.665221899747848511e-01
-4.222886562347412109e-01
-2.878374755382537842e-01
-2.261904925107955933e-01
-9.791482985019683838e-02
8.621206134557723999e-02
2.415342181921005249e-01
4.734602198004722595e-02
2.411329299211502075e-01
2.780701816082000732e-01
2.954344451427459717e-01
1.488375961780548096e-01
4.882857203483581543e-03
1.276339739561080933e-01
2.794138193130493164e-01
-4.179049432277679443e-01
-5.181834697723388672e-01
-2.660634219646453857e-01
-1.458368301391601562e-01
-2.917117178440093994e-01
-4.359458684921264648e-01
-1.460447162389755249e-01
-1.867445930838584900e-02
-7.487963885068893433e-02
-3.195312619209289551e-02
1.194118037819862366e-01
8.378774672746658325e-02
4.225343763828277588e-01
5.787333846092224121e-01
-5.821331739425659180e-01
-7.245399951934814453e-01
-3.157090246677398682e-01
-2.562299072742462158e-01
-5.756948590278625488e-01
-7.573965191841125488e-01
-2.041483968496322632e-01
-1.983343809843063354e-02
-4.184224829077720642e-02
-2.556599974632263184e-01
-9.470537304878234863e-02
-1.264323759824037552e-02
3.807041645050048828e-01
1.143651455640792847e-01
-1.217719554901123047e+00
-6.754128336906433105e-01
-3.330248296260833740e-01
-1.401310265064239502e-01
-5.669651031494140625e-01
-4.074714183807373047e-01
-3.972434997558593750e-02
1.929164826869964600e-01
8.296108990907669067e-02
-1.618375927209854126e-01
2.311573326587677002e-01
1.294163614511489868e-01
1.920143514871597290e-01
-9.687762707471847534e-02
-7.907783985137939453e-01
-4.732591509819030762e-01
-3.673888146877288818e-01
-1.148359701037406921e-01
-3.202728033065795898e-01
4.833664000034332275e-02
8.801697939634323120e-02
1.705262213945388794e-01
1.997634470462799072e-01
5.146282538771629333e-02
-1.367257982492446899e-01
-7.487806677818298340e-02
-1.345326602458953857e-01
-5.269020795822143555e-02
4.198495447635650635e-01
-7.494720816612243652e-02
9.115646779537200928e-02
-2.897375263273715973e-02
-8.526074141263961792e-02
8.118234574794769287e-02
2.680206857621669769e-02
1.079687103629112244e-01
3.918880522251129150e-01
3.283010721206665039e-01
-3.464714810252189636e-02
6.145225465297698975e-02
-8.087627589702606201e-02
-6.824047118425369263e-02
4.660164415836334229e-01
2.119531929492950439e-01
3.126050233840942383e-01
-2.697244053706526756e-03
3.990196809172630310e-02
1.383175402879714966e-01
9.833085536956787109e-02
1.084371805191040039e-01
2.417965084314346313e-01
3.735052049160003662e-01
-1.186291277408599854e-01
5.027344450354576111e-02
-1.545471698045730591e-01
-4.971044510602951050e-02
6.040496751666069031e-02
2.521775662899017334e-01
1.009672880172729492e-01
-5.937583371996879578e-02
-2.236002869904041290e-02
4.554215073585510254e-02
-6.636904180049896240e-02
2.369575947523117065e-01
1.965963691473007202e-01
1.462563127279281616e-01
-2.743608057498931885e-01
6.264721602201461792e-02
-8.771361410617828369e-02
-3.019362874329090118e-02
-5.936903879046440125e-02
2.783765494823455811e-01
1.307019144296646118e-01
-8.588878065347671509e-02
-1.138085592538118362e-02
1.169147193431854248e-01
2.167930081486701965e-02
1.367222368717193604e-01
1.631737351417541504e-01
1.784669160842895508e-01
-3.108950555324554443e-01
1.401482075452804565e-01
1.300138235092163086e-01
-5.953446775674819946e-02
-5.525358915328979492e-01
4.330556094646453857e-02
1.975989490747451782e-01
-1.139115989208221436e-01
3.432982787489891052e-02
2.313912659883499146e-01
-1.845226287841796875e-01
3.669179230928421021e-02
9.948185831308364868e-02
8.090268820524215698e-02
-2.320615798234939575e-01
1.405074000358581543e-01
2.740229368209838867e-01
-2.229776792228221893e-02
-5.991950035095214844e-01
2.108228355646133423e-01
1.480339318513870239e-01
1.696170307695865631e-02
6.397550553083419800e-02
7.688502967357635498e-02
-3.932052254676818848e-01
-3.349021822214126587e-02
1.914889551699161530e-02
1.918218880891799927e-01
2.712234854698181152e-01
1.900599151849746704e-01
1.338076144456863403e-01
9.419452399015426636e-03
-4.043486416339874268e-01
-5.972808226943016052e-03
8.966547995805740356e-02
-1.667342931032180786e-01
-2.382105886936187744e-01
-2.006537169218063354e-01
-3.310623466968536377e-01
-2.313107848167419434e-01
-3.252312839031219482e-01
-1.281587481498718262e-01
-3.038648068904876709e-01
1.384915262460708618e-01
1.572404354810714722e-01
1.925313621759414673e-01
-9.406509250402450562e-02
3.354832828044891357e-01
-5.542999133467674255e-02
8.771496266126632690e-02
3.482382297515869141e-01
1.435681432485580444e-01
-8.477408438920974731e-02
-1.195449307560920715e-01
3.170785307884216309e-02
1.762083321809768677e-01
8.203655481338500977e-02
-2.095405012369155884e-02
-3.736624494194984436e-02
2.846043109893798828e-01
-4.988169074058532715e-01
9.544269740581512451e-02
4.938193410634994507e-02
8.979212492704391479e-02
1.862903088331222534e-01
1.237277239561080933e-01
-5.711720138788223267e-02
-8.391441404819488525e-02
4.684536904096603394e-02
-1.487621665000915527e-01
9.726325422525405884e-02
1.293651945888996124e-02
1.192875578999519348e-01
-3.418125212192535400e-02
-4.717791974544525146e-01
1.144285723567008972e-01
6.319572776556015015e-02
2.068691700696945190e-01
1.330802589654922485e-01
5.429629236459732056e-02
-1.499781310558319092e-01
-2.160739004611968994e-01
3.768318798393011093e-03
1.501675993204116821e-01
9.077051281929016113e-02
1.343077719211578369e-01
3.186013491358608007e-04
-3.662605285644531250e-01
-8.356820791959762573e-02
2.245005592703819275e-02
2.441268265247344971e-01
3.252010643482208252e-01
2.502957582473754883e-01
7.047034800052642822e-02
1.241533607244491577e-01
-2.042716145515441895e-01
-4.078611731529235840e-02
1.116254627704620361e-01
1.653596460819244385e-01
6.047015264630317688e-02
4.178475588560104370e-02
1.603242903947830200e-01
3.716910630464553833e-02
1.090457886457443237e-01
4.234783351421356201e-01
2.406762540340423584e-01
1.629206836223602295e-01
1.233912818133831024e-02
-4.163035377860069275e-02
-1.461762189865112305e-01
7.596851885318756104e-02
-5.599693208932876587e-02
5.326007679104804993e-02
9.948708862066268921e-02
-7.436788082122802734e-02
-1.614772975444793701e-01
7.086529582738876343e-02
1.976494342088699341e-01
1.648392826318740845e-01
8.198001235723495483e-02
1.733022928237915039e-02
9.888093173503875732e-02
-4.551018588244915009e-03
-5.818256363272666931e-02
2.371353283524513245e-02
3.675633668899536133e-02
1.261288821697235107e-01
1.707158386707305908e-01
-1.764846444129943848e-01
-1.273680478334426880e-01
2.892218064516782761e-03
1.877312958240509033e-01
-1.934608668088912964e-01
-2.279632240533828735e-01
-4.075822234153747559e-02
1.585165113210678101e-01
6.416321545839309692e-02
4.171024262905120850e-02
1.599658876657485962e-01
-6.828068196773529053e-02
5.905677750706672668e-02
-2.238363772630691528e-02
-3.063969127833843231e-02
4.626430105417966843e-03
-2.541726231575012207e-01
7.407316565513610840e-02
-4.222683608531951904e-01
-5.121238231658935547e-01
-1.713528782129287720e-01
8.143393695354461670e-02
1.030432526022195816e-02
1.177036091685295105e-01
2.466648519039154053e-01
1.114245355129241943e-01
-1.796627789735794067e-02
2.132380381226539612e-03
1.160408109426498413e-01
2.468391954898834229e-01
-2.451601475477218628e-01
2.005728036165237427e-01
-3.661321699619293213e-01
-3.494248092174530029e-01
-7.890119403600692749e-02
1.846565902233123779e-01
1.357912719249725342e-01
1.062361225485801697e-01
2.077846378087997437e-01
7.792037725448608398e-02
7.864964753389358521e-02
2.709008194506168365e-02
2.194255590438842773e-03
5.778457969427108765e-02
2.127865562215447426e-03
3.747394084930419922e-01
-2.086395025253295898e-01
-2.152675688266754150e-01
1.736302860081195831e-02
1.365786641836166382e-01
1.178652271628379822e-01
1.101317182183265686e-01
1.594655662775039673e-01
-1.560218930244445801e-01
-5.044692382216453552e-02
-7.141731679439544678e-02
1.595749109983444214e-01
1.585282087326049805e-01
1.260517686605453491e-01
3.359819948673248291e-01
-2.144119590520858765e-01
-3.693379163742065430e-01
-2.615637518465518951e-02
1.538673788309097290e-01
1.613119989633560181e-01
-1.441714316606521606e-01
-3.707975149154663086e-02
7.450884580612182617e-02
-2.222976833581924438e-01
-1.041447222232818604e-01
-8.604688942432403564e-02
-1.166559308767318726e-01
2.132192440330982208e-02
5.880085751414299011e-02
-2.790828645229339600e-01
-1.971540451049804688e-01
-2.996066585183143616e-02
2.286616265773773193e-01
1.215616688132286072e-01
-1.415147352963685989e-02
5.837175995111465454e-02
1.193126365542411804e-01
-9.425316005945205688e-02
-2.877862155437469482e-01
-3.595500290393829346e-01
-1.293056458234786987e-01
5.222084373235702515e-02
-2.465545684099197388e-01
-1.072357222437858582e-01
1.170716136693954468e-01
-2.123043090105056763e-01
4.037839546799659729e-02
8.029255084693431854e-03
-6.226208060979843140e-02
1.483414918184280396e-01
1.164408475160598755e-01
-2.990789711475372314e-01
-2.745964825153350830e-01
-3.761173188686370850e-01
-6.740076839923858643e-02
-1.205039694905281067e-01
-4.510310590267181396e-01
-2.429036200046539307e-01
9.705115854740142822e-02
-3.435754776000976562e-01
-2.356679588556289673e-01
-6.583090126514434814e-02
2.620791196823120117e-01
2.041733711957931519e-01
5.843573436141014099e-02
4.283848404884338379e-02
1.301083154976367950e-02
-1.110306242480874062e-03
4.005554318428039551e-01
-5.811939239501953125e-01
-5.850155949592590332e-01
-1.465073376893997192e-01
-5.824710428714752197e-02
1.013629361987113953e-01
1.252173781394958496e-01
2.571973800659179688e-01
1.533233374357223511e-01
1.383716613054275513e-01
-1.816007047891616821e-01
-1.393432319164276123e-01
-3.411875292658805847e-02
-1.443421542644500732e-01
-1.222555618733167648e-02
5.105355381965637207e-01
-3.542566299438476562e-01
5.012122914195060730e-02
6.680181249976158142e-03
2.191047742962837219e-02
4.654590040445327759e-02
-1.293366104364395142e-01
7.018114905804395676e-03
-1.193097159266471863e-01
-8.282135426998138428e-02
-2.016478478908538818e-01
-1.595674008131027222e-01
1.371668726205825806e-01
3.123311996459960938e-01
3.767390549182891846e-01
-8.524528704583644867e-03
9.521534666419029236e-04
4.744422063231468201e-02
-1.309558153152465820e-01
1.328772678971290588e-02
-5.439570918679237366e-02
-8.164361119270324707e-03
-7.152289152145385742e-02
2.231348305940628052e-02
-5.190799385309219360e-02
-1.552697569131851196e-01
-5.437040701508522034e-02
3.246936500072479248e-01
-4.793794155120849609e-01
-7.945221662521362305e-02
2.017760574817657471e-01
2.701035737991333008e-01
-2.413098216056823730e-01
1.105563789606094360e-01
-1.393214799463748932e-02
-2.716597914695739746e-02
5.644834414124488831e-02
-1.174325421452522278e-01
3.427629172801971436e-02
1.234514042735099792e-01
3.580089658498764038e-02
1.280772835016250610e-01
-1.132785379886627197e-01
-2.280316054821014404e-01
-7.568469643592834473e-02
4.467164352536201477e-02
-1.355558633804321289e-01
2.640709467232227325e-02
-2.112143486738204956e-01
-5.860922485589981079e-02
1.912643015384674072e-01
3.944851085543632507e-02
-2.664727624505758286e-03
1.023803427815437317e-01
2.707407176494598389e-01
-3.894393146038055420e-02
1.672630906105041504e-01
-7.039664685726165771e-02
-1.513731926679611206e-01
-4.413097724318504333e-02
-7.833556830883026123e-02
7.862496189773082733e-03
9.453644603490829468e-02
8.367408812046051025e-02
1.077722758054733276e-01
2.351697087287902832e-01
1.532702986150979996e-02
9.133497625589370728e-02
2.261449545621871948e-01
1.589278429746627808e-01
-5.917011499404907227e-01
-8.216667920351028442e-02
-7.676690816879272461e-02
-7.401315495371818542e-03
-1.768245175480842590e-02
-3.682921826839447021e-02
3.113228641450405121e-02
1.380335390567779541e-01
9.500034153461456299e-02
1.595571339130401611e-01
5.368277430534362793e-02
-1.349610160104930401e-03
3.555381298065185547e-02
3.464711457490921021e-02
-2.643672525882720947e-01
2.165437638759613037e-01
-1.390651315450668335e-01
3.967436961829662323e-03
1.057267654687166214e-02
6.734348088502883911e-02
5.968844518065452576e-02
4.247608780860900879e-02
-7.311984896659851074e-03
2.164838463068008423e-01
-3.656603768467903137e-02
1.424845606088638306e-01
1.441447287797927856e-01
-2.834306843578815460e-02
-1.608108878135681152e-01
2.264826595783233643e-01
-1.698402762413024902e-01
-1.165012642741203308e-01
-7.236110512167215347e-03
7.082558423280715942e-02
7.049624621868133545e-02
1.112596541643142700e-01
-2.156454697251319885e-02
5.552944913506507874e-02
2.224435843527317047e-02
-9.367858618497848511e-02
-4.293267801403999329e-02
-1.275527775287628174e-01
-7.449302822351455688e-02
1.367110162973403931e-01
-2.775482237339019775e-01
-4.219238460063934326e-02
1.791959814727306366e-02
-4.923367500305175781e-02
1.527197360992431641e-01
1.948689073324203491e-01
2.595335477963089943e-03
-1.508661955595016479e-01
-4.110154882073402405e-02
4.843034967780113220e-02
-2.749585360288619995e-02
2.482662349939346313e-01
5.726949870586395264e-02
2.110347002744674683e-01
-1.598744094371795654e-01
-2.422287911176681519e-01
-6.211608648300170898e-02
-5.414057523012161255e-02
6.708246469497680664e-02
7.534023374319076538e-02
2.836619131267070770e-02
-8.290360867977142334e-02
-5.343576520681381226e-02
8.220579475164413452e-02
1.918402500450611115e-02
2.915500402450561523e-01
-1.287902146577835083e-01
2.944745421409606934e-01
1.315009146928787231e-01
-1.054634079337120056e-01
-3.939028456807136536e-02
5.577638372778892517e-02
-7.893281430006027222e-02
6.696667522192001343e-02
-7.913246750831604004e-02
-2.719081044197082520e-01
-3.566919267177581787e-02
1.698006242513656616e-01
8.353901654481887817e-02
-5.980157479643821716e-02
-1.622774451971054077e-01
2.871685624122619629e-01
3.677230477333068848e-01
4.110805317759513855e-02
-6.077673286199569702e-02
-1.166889071464538574e-01
-2.205341011285781860e-01
-5.318457633256912231e-02
-7.130856066942214966e-02
-1.062309816479682922e-01
1.447787433862686157e-01
1.464046239852905273e-01
1.320192515850067139e-01
-1.048232465982437134e-01
1.068899407982826233e-01
2.629286050796508789e-01
1.820430308580398560e-01
-1.194586679339408875e-01
-1.387035399675369263e-01
-1.703495681285858154e-01
-2.213429957628250122e-01
-2.598100602626800537e-01
-1.755659431219100952e-01
-1.231735348701477051e-01
-4.536710977554321289e-01
1.411927938461303711e-01
2.840139567852020264e-01
4.031651839613914490e-02
-6.902737617492675781e-01
-7.971946001052856445e-01
-2.645619586110115051e-02
3.935747146606445312e-01
3.343919515609741211e-01
-3.263428211212158203e-01
3.665306270122528076e-01
2.903634309768676758e-01
2.267160639166831970e-02
5.396314263343811035e-01
1.889408230781555176e-01
2.941532731056213379e-01
4.887564852833747864e-02
-4.275866448879241943e-01
-1.575556248426437378e-01
-6.585507988929748535e-01
1.545923650264739990e-01
4.519008398056030273e-01
9.412138164043426514e-02
-1.413925141096115112e-01
3.991053625941276550e-02
-2.861995715647935867e-03
-6.796400249004364014e-02
1.772460639476776123e-01
4.492681324481964111e-01
-2.745661325752735138e-02
1.220276057720184326e-01
-2.779189050197601318e-01
1.657907068729400635e-01
-3.314468562602996826e-01
3.170575201511383057e-01
2.782528102397918701e-01
-2.401417046785354614e-01
1.307971775531768799e-01
-5.857139453291893005e-02
-1.025204584002494812e-01
1.400102078914642334e-01
-9.440403431653976440e-02
2.482017874717712402e-01
3.502404987812042236e-01
6.825324147939682007e-02
-1.874066591262817383e-01
-1.940547972917556763e-01
-1.393323838710784912e-01
1.150393933057785034e-01
-3.200368285179138184e-01
-5.985299944877624512e-01
-1.476695947349071503e-02
-9.528769296593964100e-04
-2.548168003559112549e-01
7.449677586555480957e-02
-3.148530125617980957e-01
-4.187715947628021240e-01
1.678317040205001831e-01
-2.426686696708202362e-02
-1.832642555236816406e-01
-2.217931896448135376e-01
-6.353870779275894165e-02
-1.083154678344726562e-01
-6.769900321960449219e-01
-7.380658388137817383e-01
-2.050164528191089630e-02
-1.072603929787874222e-02
-1.365365982055664062e-01
-8.047730475664138794e-02
-5.114207267761230469e-01
-8.851317167282104492e-01
-1.546966433525085449e-01
3.876001760363578796e-02
1.557735502719879150e-01
3.705176115036010742e-01
2.685463987290859222e-02
-3.356208279728889465e-02
-5.113856196403503418e-01
-5.141232013702392578e-01
9.557447582483291626e-02
3.567634150385856628e-02
8.810700476169586182e-02
7.785639166831970215e-02
-2.916079163551330566e-01
-6.160213947296142578e-01
-2.280901558697223663e-02
2.899219468235969543e-02
5.022706985473632812e-01
-6.862108409404754639e-02
-1.810098439455032349e-01
-1.744910143315792084e-02
-1.993300914764404297e-01
-1.570457369089126587e-01
5.303652212023735046e-02
-6.806421279907226562e-02
-4.681271687150001526e-02
-2.784977108240127563e-02
1.017581075429916382e-01
-4.261546432971954346e-01
-1.345660388469696045e-01
-1.304619461297988892e-01
-1.134832873940467834e-01
-2.126299291849136353e-01
-3.350891545414924622e-02
1.012745946645736694e-01
-3.439833968877792358e-02
1.312864571809768677e-02
1.407132297754287720e-01
-1.441133022308349609e-01
-1.919394880533218384e-01
-7.312576472759246826e-02
6.280762702226638794e-02
-3.267058432102203369e-01
6.532783806324005127e-02
-9.105625748634338379e-02
-1.584574431180953979e-01
4.075120016932487488e-02
8.563269674777984619e-02
1.920237243175506592e-01
7.469124346971511841e-02
2.287012636661529541e-01
5.514207482337951660e-02
-1.070941165089607239e-01
5.670552607625722885e-03
1.366521324962377548e-02
1.836648136377334595e-01
-2.981886826455593109e-02
1.601209044456481934e-01
-3.884193673729896545e-02
6.269317585974931717e-03
1.300278604030609131e-01
-1.486392319202423096e-01
9.598057717084884644e-02
6.210150569677352905e-02
1.786750853061676025e-01
-5.922349914908409119e-02
-2.923123538494110107e-02
-3.511143382638692856e-03
3.874422609806060791e-02
1.309024989604949951e-01
1.606525927782058716e-01
9.639135003089904785e-02
1.912977173924446106e-02
4.154692217707633972e-02
1.366429682821035385e-02
-1.792252212762832642e-01
-2.093146592378616333e-01
4.723339527845382690e-02
5.000345408916473389e-03
8.012363687157630920e-04
-1.223481819033622742e-02
-6.158015690743923187e-03
2.782452851533889771e-02
5.703469738364219666e-02
1.452130377292633057e-01
-2.196351811289787292e-02
-2.019099704921245575e-02
1.159766986966133118e-01
1.331409364938735962e-01
1.305912341922521591e-02
-1.545067280530929565e-01
1.105207279324531555e-01
1.259366422891616821e-01
6.278336793184280396e-02
5.446592718362808228e-02
1.056724041700363159e-01
5.792530626058578491e-02
9.996594488620758057e-02
2.582045495510101318e-01
3.531717509031295776e-02
3.515101671218872070e-01
4.003284499049186707e-02
3.724913299083709717e-01
3.118309974670410156e-01
1.361743062734603882e-01
3.145166337490081787e-01
-1.435618996620178223e-01
1.561057716608047485e-01
3.030055202543735504e-02
1.948494613170623779e-01
5.519751086831092834e-02
8.488713949918746948e-02
3.417531549930572510e-01
3.428100049495697021e-01
3.633332550525665283e-01
6.825806945562362671e-02
5.563423633575439453e-01
6.215498447418212891e-01
6.599895656108856201e-02
4.859212338924407959e-01
8.351939171552658081e-02
5.739650502800941467e-02
4.247187823057174683e-02
5.754350125789642334e-02
-1.253595054149627686e-01
-1.252833902835845947e-01
2.555390000343322754e-01
1.461523175239562988e-01
-6.301041692495346069e-02
3.283515572547912598e-02
-3.537504076957702637e-01
-4.395687878131866455e-01
-7.622851729393005371e-01
-1.457187235355377197e-01
1.445065718144178391e-02
-9.213007055222988129e-03
-7.842292636632919312e-02
1.550258416682481766e-02
4.109323397278785706e-02
4.380080476403236389e-02
-1.987347304821014404e-01
-8.019512295722961426e-01
2.706902325153350830e-01
1.034015864133834839e-01
-5.365759506821632385e-02
-5.145062208175659180e-01
1.779717020690441132e-02
3.239606618881225586e-01
-1.550025641918182373e-01
1.118447072803974152e-02
7.781948894262313843e-02
-1.300774663686752319e-01
4.353132098913192749e-02
-1.705719344317913055e-02
1.644739806652069092e-01
3.859429657459259033e-01
7.289788126945495605e-02
1.987765729427337646e-01
-9.536782652139663696e-02
-1.469260603189468384e-01
5.883869901299476624e-02
-2.740126475691795349e-02
-2.459993120282888412e-03
-2.056159824132919312e-02
-1.501811742782592773e-01
-1.930047571659088135e-01
1.728664338588714600e-01
2.079038769006729126e-01
-6.172671169042587280e-02
1.930141150951385498e-01
2.895312756299972534e-02
1.635690480470657349e-01
-2.788696438074111938e-02
-4.866579174995422363e-02
1.045659929513931274e-01
2.106597572565078735e-01
-4.832695052027702332e-02
-2.989319264888763428e-01
-3.540804088115692139e-01
-3.248756527900695801e-01
-7.959050685167312622e-02
1.971684545278549194e-01
-4.160723090171813965e-02
3.573308140039443970e-02
8.294760435819625854e-02
1.219914034008979797e-01
1.119754910469055176e-01
2.294013202190399170e-01
-2.730860188603401184e-02
5.331441387534141541e-02
-5.169447138905525208e-02
-3.649569451808929443e-01
-4.213871359825134277e-01
-4.683525264263153076e-01
7.960368879139423370e-03
4.607217013835906982e-02
-1.615494340658187866e-01
-1.096624284982681274e-01
2.009490281343460083e-01
2.881953120231628418e-01
-2.092889510095119476e-02
-8.367739617824554443e-03
-7.973303645849227905e-02
-1.143106631934642792e-02
1.183099113404750824e-02
1.048694476485252380e-01
-1.420378237962722778e-01
-1.288005262613296509e-01
1.041207090020179749e-01
7.394789904356002808e-02
-4.577532038092613220e-02
-6.043598800897598267e-02
1.687543839216232300e-01
1.011954769492149353e-01
-9.138610959053039551e-02
7.859868556261062622e-02
-1.600867360830307007e-01
2.723997645080089569e-02
1.155337039381265640e-02
5.258492007851600647e-02
-1.186749339103698730e-01
-1.080124899744987488e-01
1.145306676626205444e-01
6.421627476811408997e-03
-7.285877317190170288e-02
6.432095170021057129e-02
6.093882769346237183e-02
2.672849893569946289e-01
-4.174841940402984619e-02
-2.342793941497802734e-01
4.339812323451042175e-03
5.428465828299522400e-02
-3.839844465255737305e-02
1.148476302623748779e-01
-2.058918960392475128e-02
5.907419603317975998e-03
8.269953727722167969e-02
-1.473762989044189453e-01
-6.442361325025558472e-02
7.834763824939727783e-02
2.443588711321353912e-02
3.468219935894012451e-02
1.207531839609146118e-01
-2.889187335968017578e-01
1.016268879175186157e-02
6.702437251806259155e-02
-5.742092058062553406e-02
1.789306551218032837e-01
8.026213943958282471e-02
7.285797595977783203e-02
2.652747929096221924e-01
-1.279661804437637329e-02
-4.749628901481628418e-02
5.333901569247245789e-02
-9.736838750541210175e-03
-9.014279395341873169e-02
1.741491816937923431e-02
-3.424667716026306152e-01
-6.478073447942733765e-02
-2.900245040655136108e-02
-5.695393308997154236e-02
2.552778832614421844e-02
2.562685497105121613e-02
1.081803888082504272e-01
2.215545922517776489e-01
-7.670582085847854614e-02
-1.808154881000518799e-01
4.703442007303237915e-02
-9.142189472913742065e-02
5.913963541388511658e-03
-7.987594604492187500e-02
-1.671784073114395142e-01
-6.908785086125135422e-03
-6.665376573801040649e-02
-4.747615754604339600e-02
8.305323123931884766e-02
1.836711317300796509e-01
3.366642892360687256e-01
3.047394752502441406e-01
6.211572140455245972e-02
-2.460876703262329102e-01
-4.422778263688087463e-02
-3.169108927249908447e-01
-9.258913248777389526e-02
-2.331856936216354370e-01
-1.467636376619338989e-01
1.413927525281906128e-01
2.993457578122615814e-02
8.831359446048736572e-03
8.362536877393722534e-02
1.390625536441802979e-01
3.269777297973632812e-01
2.658580243587493896e-01
9.268330037593841553e-02
-2.241803407669067383e-01
2.440148033201694489e-02
-8.121789246797561646e-02
-1.950996071100234985e-01
-4.386639967560768127e-02
3.283236548304557800e-02
3.628186136484146118e-02
-2.345000654458999634e-01
-5.915508419275283813e-02
-3.339104354381561279e-02
-9.566172212362289429e-02
1.420059204101562500e-01
1.074091345071792603e-01
2.704780399799346924e-01
-2.033826559782028198e-01
8.922611363232135773e-03
-1.383218169212341309e-01
-1.936247348785400391e-01
-2.771740853786468506e-01
-2.889062762260437012e-01
1.372847706079483032e-01
1.506279855966567993e-01
2.763595879077911377e-01
-1.316298991441726685e-01
3.115481697022914886e-02
1.241180449724197388e-01
-6.054767221212387085e-02
2.963349819183349609e-01
-8.021960407495498657e-02
2.085037380456924438e-01
-1.015530303120613098e-01
-7.179303467273712158e-02
3.632886111736297607e-01
-3.369565904140472412e-01
-6.562071442604064941e-01
-6.094807982444763184e-01
-1.015273556113243103e-01
3.867680132389068604e-01
4.113279283046722412e-01
5.484728813171386719e-01
5.296696424484252930e-01
2.078267186880111694e-01
6.479682028293609619e-02
-5.675047039985656738e-01
-9.885429590940475464e-02
1.659287884831428528e-02
1.761505007743835449e-01
1.686069153947755694e-04
-1.196784675121307373e-01
4.056027624756097794e-03
-1.923938393592834473e-01
-9.381400048732757568e-02
-1.531168073415756226e-01
-1.851112991571426392e-01
-1.222802922129631042e-01
3.177239000797271729e-02
1.403467208147048950e-01
3.338424265384674072e-01
1.260086894035339355e-01
3.924344480037689209e-01
2.507966160774230957e-01
-1.965898275375366211e-01
2.931309342384338379e-01
-1.097544133663177490e-01
-1.962221264839172363e-01
-1.260450631380081177e-01
-1.782126426696777344e-01
-3.404830992221832275e-01
-4.905566945672035217e-02
-1.128865554928779602e-01
-7.344143092632293701e-02
3.015245497226715088e-01
4.212560504674911499e-02
4.644030928611755371e-01
-4.961892589926719666e-02
-1.668172478675842285e-01
2.983472645282745361e-01
1.243849471211433411e-01
-2.163672298192977905e-01
-2.857825346291065216e-02
6.111761927604675293e-02
1.548520177602767944e-01
1.361896395683288574e-01
-2.385109290480613708e-02
-4.585125297307968140e-02
3.050106167793273926e-01
2.557452023029327393e-01
9.919285029172897339e-02
-1.169850155711174011e-01
1.387409567832946777e-01
3.409819602966308594e-01
1.261009275913238525e-01
4.810038954019546509e-02
1.864074617624282837e-01
1.047486811876296997e-01
8.675988763570785522e-02
3.703677356243133545e-01
1.181794330477714539e-01
8.540341258049011230e-02
6.949037313461303711e-02
-3.987995535135269165e-02
-2.404482215642929077e-01
-4.751803874969482422e-01
-1.349735260009765625e-01
1.574078500270843506e-01
-3.186844114679843187e-04
-7.235763967037200928e-02
2.025247216224670410e-01
-1.620188355445861816e-02
7.560663670301437378e-02
2.134297490119934082e-01
8.206275850534439087e-02
5.079206079244613647e-02
-1.854509264230728149e-01
-7.472885400056838989e-02
-5.989076495170593262e-01
-1.149742752313613892e-01
8.722471445798873901e-02
-1.332163810729980469e-01
8.064430207014083862e-02
2.710728719830513000e-02
3.793129324913024902e-02
-2.514351904392242432e-02
-1.152677014470100403e-01
9.796194732189178467e-02
-8.751847594976425171e-02
-5.336181819438934326e-02
-2.289128154516220093e-01
-1.082241535186767578e-01
-4.072831571102142334e-01
1.471207439899444580e-01
7.194838672876358032e-02
-1.897728885523974895e-03
5.564341694116592407e-02
-7.312960922718048096e-02
2.307051094248890877e-03
-8.830790966749191284e-02
-4.780377447605133057e-02
3.888539224863052368e-02
-1.059279665350914001e-01
5.374665930867195129e-02
-3.639119444414973259e-03
9.646795690059661865e-02
3.560625910758972168e-01
-1.130468547344207764e-01
-8.148408681154251099e-02
2.201890647411346436e-01
6.744176894426345825e-02
-1.518113464117050171e-01
-7.862285710871219635e-03
-1.798311471939086914e-01
-1.189033463597297668e-01
-3.544089943170547485e-02
-2.038307338953018188e-01
6.724486500024795532e-02
8.632481098175048828e-02
-4.680053144693374634e-02
-2.640043618157505989e-03
-6.764302253723144531e-01
-3.812139630317687988e-01
-1.810266170650720596e-03
-1.114989295601844788e-01
-9.455277025699615479e-02
-1.267529185861349106e-02
-2.286780476570129395e-01
-2.907329499721527100e-01
-1.099059707485139370e-03
-3.461452126502990723e-01
-1.542618125677108765e-01
6.995125114917755127e-02
-1.331944167613983154e-01
-5.392715930938720703e-01
-1.907644420862197876e-01
-3.941347897052764893e-01
2.070158421993255615e-01
-1.715400516986846924e-01
-6.390404701232910156e-02
1.180983111262321472e-01
-4.279314354062080383e-02
-1.375372111797332764e-01
7.491261698305606842e-03
-2.173932492733001709e-01
-2.328767329454421997e-01
1.053354069590568542e-01
-1.241781413555145264e-01
-4.069015085697174072e-01
5.003989934921264648e-01
-4.071357846260070801e-01
9.520599991083145142e-02
-2.031966000795364380e-01
2.104974538087844849e-01
1.725096702575683594e-01
9.341262280941009521e-02
-1.091885566711425781e-02
1.706729270517826080e-02
-4.026117920875549316e-02
-1.962843984365463257e-01
8.682632446289062500e-02
-2.213316112756729126e-01
-2.015979588031768799e-01
5.758957862854003906e-01
-4.962182641029357910e-01
7.341518253087997437e-02
-3.718185424804687500e-01
5.155210196971893311e-02
-8.169355243444442749e-02
-8.104137331247329712e-02
-9.571817517280578613e-02
-1.542033106088638306e-01
-5.449482798576354980e-02
-1.381862759590148926e-01
-3.825797140598297119e-02
-4.781312644481658936e-01
1.129113212227821350e-01
5.697330236434936523e-01
-5.324106216430664062e-01
1.994677931070327759e-01
-4.103754181414842606e-03
3.429775834083557129e-01
-1.289031058549880981e-01
-1.657069176435470581e-01
-2.293250262737274170e-01
-1.668082028627395630e-01
4.815437644720077515e-02
2.410277724266052246e-01
-1.354438662528991699e-01
-6.769079566001892090e-01
-1.476725339889526367e-01
-2.989717125892639160e-01
-7.917142510414123535e-01
-5.266793966293334961e-01
-3.101863861083984375e-01
-1.875492036342620850e-01
9.775997698307037354e-02
-2.578184008598327637e-01
-9.873177111148834229e-02
3.758680075407028198e-02
-1.819395720958709717e-01
-7.889798283576965332e-01
-5.216070413589477539e-01
-1.848032772541046143e-01
-2.493862956762313843e-01
3.634015321731567383e-01
-2.536543309688568115e-01
-8.358666300773620605e-01
-5.047104358673095703e-01
-9.751175343990325928e-02
-2.198134958744049072e-01
-3.439171612262725830e-01
-2.944131195545196533e-01
-2.078172415494918823e-01
-2.766484022140502930e-01
-4.963541924953460693e-01
-4.576558470726013184e-01
5.315813794732093811e-02
2.679486870765686035e-01
4.032721519470214844e-01
-2.263258397579193115e-01
-4.671400487422943115e-01
-2.592378258705139160e-01
-2.383730858564376831e-01
-2.916179038584232330e-02
4.553538560867309570e-02
7.064422219991683960e-02
-7.058486342430114746e-02
-5.192521810531616211e-01
-4.553308486938476562e-01
-2.299499809741973877e-01
6.663163006305694580e-02
4.376549273729324341e-02
2.914763391017913818e-01
-3.614781796932220459e-02
-1.183109655976295471e-01
-4.882003366947174072e-02
-4.941904172301292419e-02
1.176009699702262878e-01
1.073645651340484619e-01
-4.768967628479003906e-02
6.249799579381942749e-02
-2.325560897588729858e-01
-5.486450344324111938e-02
5.830445885658264160e-02
1.617234759032726288e-02
1.740437150001525879e-01
2.388945817947387695e-01
-8.871044218540191650e-02
1.356904506683349609e-01
-3.510501235723495483e-02
1.168303489685058594e-01
-4.971113801002502441e-02
-7.342418283224105835e-02
6.468408554792404175e-02
1.010441482067108154e-01
1.251313835382461548e-01
-1.793218702077865601e-01
1.467516124248504639e-01
1.309571862220764160e-01
2.011683136224746704e-01
1.753273978829383850e-02
-1.755871176719665527e-01
1.487245857715606689e-01
1.070452257990837097e-01
1.757292263209819794e-02
-1.638140082359313965e-01
-4.057384431362152100e-01
-1.099879443645477295e-01
5.507753044366836548e-02
3.101977705955505371e-02
-1.886879205703735352e-01
-8.951772004365921021e-02
-9.971325844526290894e-02
-1.059087440371513367e-01
5.574374794960021973e-01
-2.320477217435836792e-01
1.875146478414535522e-01
5.728239193558692932e-02
5.920962989330291748e-02
1.093016117811203003e-01
-4.338415712118148804e-02
7.030225545167922974e-02
1.465732138603925705e-02
-3.974222578108310699e-03
-2.005847841501235962e-01
-8.254653960466384888e-02
-4.314417392015457153e-02
7.437646389007568359e-02
4.073432981967926025e-01
-2.841239869594573975e-01
1.619911044836044312e-01
1.912569254636764526e-01
2.636157870292663574e-01
7.017909735441207886e-02
-1.391963958740234375e-01
1.495539844036102295e-01
8.867515251040458679e-03
-8.583500981330871582e-03
-1.597037911415100098e-01
-4.921292886137962341e-03
-9.854367375373840332e-02
9.136117994785308838e-02
1.994009166955947876e-01
-5.697465538978576660e-01
-5.085709691047668457e-02
1.376542896032333374e-01
4.908822104334831238e-02
7.184319198131561279e-02
-1.921357065439224243e-01
4.515616968274116516e-02
-4.829832538962364197e-02
-1.705268584191799164e-02
-1.766371876001358032e-01
1.086239218711853027e-01
-1.264191567897796631e-01
-2.604347094893455505e-02
-2.685269713401794434e-01
-6.029949188232421875e-01
3.060936927795410156e-01
2.200175821781158447e-01
2.661502659320831299e-01
1.829665601253509521e-01
-8.612141758203506470e-02
-3.629178181290626526e-02
1.023603044450283051e-02
2.656425535678863525e-01
-1.738993637263774872e-02
4.400521889328956604e-02
-2.131110243499279022e-02
-2.959005907177925110e-02
-8.674399554729461670e-02
-1.335646361112594604e-01
3.015785217285156250e-01
2.817444801330566406e-01
3.040869534015655518e-01
1.480476111173629761e-01
-4.875578358769416809e-02
-9.653132408857345581e-02
6.121166422963142395e-02
2.590140104293823242e-01
1.359921246767044067e-01
1.260506808757781982e-01
1.638163328170776367e-01
-1.989457309246063232e-01
-1.090257335454225540e-02
-1.138314977288246155e-01
1.591189391911029816e-02
1.894035339355468750e-01
1.225684806704521179e-01
3.679822757840156555e-02
-2.229408323764801025e-01
-1.034045070409774780e-01
1.363059282302856445e-01
1.977815926074981689e-01
-2.004303038120269775e-02
1.636938005685806274e-02
4.745322838425636292e-02
-2.138087451457977295e-01
-3.173839151859283447e-01
-1.792581528425216675e-01
-1.121920496225357056e-01
1.892054826021194458e-01
1.276962310075759888e-01
8.158594369888305664e-02
-1.241907626390457153e-01
-9.214935451745986938e-02
6.283426284790039062e-02
1.733135133981704712e-01
1.800220161676406860e-01
-6.819362193346023560e-02
-3.105795383453369141e-02
-4.521535038948059082e-01
-1.670149415731430054e-01
-6.379987299442291260e-02
-3.759464323520660400e-01
7.092154771089553833e-02
2.655223309993743896e-01
3.848057985305786133e-01
-1.021873205900192261e-01
-8.686099201440811157e-02
8.657368272542953491e-02
1.028367802500724792e-01
-2.835414111614227295e-01
-2.538299858570098877e-01
-3.808848559856414795e-01
-5.614386796951293945e-01
3.377261459827423096e-01
3.631816804409027100e-01
2.835216373205184937e-02
1.754032522439956665e-01
4.845158457756042480e-01
2.944983839988708496e-01
-4.047922492027282715e-01
-5.952944755554199219e-01
2.815061211585998535e-01
4.604098796844482422e-01
1.012011542916297913e-01
1.618197374045848846e-02
-1.166559383273124695e-01
3.136045634746551514e-01
-3.572444617748260498e-01
3.828081488609313965e-01
2.567112147808074951e-01
3.549254536628723145e-01
-1.408289074897766113e-01
-3.208118677139282227e-02
-2.737459540367126465e-01
-2.724347412586212158e-01
-1.217376962304115295e-01
-8.560200780630111694e-02
2.531941831111907959e-01
-1.373514160513877869e-02
-1.807494908571243286e-01
-1.969386488199234009e-01
-8.186349868774414062e-01
3.188134431838989258e-01
1.178554445505142212e-02
-1.000639125704765320e-01
-2.848997339606285095e-02
-1.131973322480916977e-02
6.765313446521759033e-02
1.962271928787231445e-01
5.065651237964630127e-02
-4.683614522218704224e-02
1.332527212798595428e-02
-1.234514755196869373e-03
-1.253662407398223877e-01
-4.058499336242675781e-01
-5.455887317657470703e-01
1.739463210105895996e-02
5.061387643218040466e-02
-1.403880417346954346e-01
-1.616403758525848389e-01
1.180415004491806030e-01
4.403928667306900024e-02
1.005887240171432495e-01
1.561785861849784851e-02
-3.300110250711441040e-02
4.482163488864898682e-02
-5.720880255103111267e-02
-2.472665719687938690e-02
-9.833876788616180420e-02
-3.732822239398956299e-01
-3.523051142692565918e-01
-2.752024121582508087e-02
1.099839285016059875e-01
-3.584113717079162598e-01
-6.099455431103706360e-02
-1.948675960302352905e-01
8.869404345750808716e-02
3.125480934977531433e-02
2.505465596914291382e-02
2.105755805969238281e-01
4.955927655100822449e-02
-3.389356285333633423e-02
-2.174284607172012329e-01
-3.142262995243072510e-01
-4.304758906364440918e-01
6.656102091073989868e-02
-2.264980077743530273e-01
-6.539303064346313477e-01
-3.352706134319305420e-01
-6.220404058694839478e-02
6.589030474424362183e-02
-6.458279490470886230e-02
-9.303329512476921082e-03
4.220203682780265808e-02
1.961138546466827393e-01
3.114038147032260895e-02
-1.375372409820556641e-01
-3.141504824161529541e-01
-3.631655573844909668e-01
-2.144734710454940796e-01
-1.887808442115783691e-01
-4.966029524803161621e-01
-1.113346591591835022e-02
-1.818332821130752563e-02
1.508949548006057739e-01
1.341663207858800888e-02
8.755136281251907349e-03
4.895807057619094849e-02
2.233339250087738037e-01
-6.602655351161956787e-02
-1.891749203205108643e-01
-8.420873433351516724e-02
-1.638316549360752106e-02
1.175754666328430176e-01
-1.658203154802322388e-01
-2.505500316619873047e-01
-1.916287243366241455e-01
1.215867325663566589e-01
2.106284797191619873e-01
1.274977475404739380e-01
1.409742385149002075e-01
1.551743149757385254e-01
2.625040337443351746e-02
-9.206952899694442749e-02
-2.427706681191921234e-02
-3.650799393653869629e-02
4.393385052680969238e-01
1.869407743215560913e-01
-5.814211443066596985e-02
-4.990351572632789612e-02
-5.532579123973846436e-02
1.692774891853332520e-01
1.951587051153182983e-01
-2.826912887394428253e-02
4.883436113595962524e-02
9.201679378747940063e-02
1.042878702282905579e-01
4.516436532139778137e-02
1.192479953169822693e-02
3.137716278433799744e-02
4.842271506786346436e-01
1.654735803604125977e-01
-5.636580288410186768e-02
3.673855587840080261e-02
4.278985783457756042e-02
1.233198121190071106e-01
2.426468767225742340e-02
-1.301794685423374176e-02
-7.390007376670837402e-02
3.675350919365882874e-02
-1.111252815462648869e-03
7.995140552520751953e-02
-3.742546960711479187e-02
1.894461736083030701e-02
4.084161520004272461e-01
1.553560346364974976e-01
-7.859519124031066895e-02
-1.233934536576271057e-01
4.789169877767562866e-02
2.737981677055358887e-01
2.093527093529701233e-02
-1.768571585416793823e-01
-2.557165920734405518e-01
2.047361582517623901e-01
1.762900054454803467e-01
2.662119269371032715e-01
1.482210606336593628e-01
1.936585456132888794e-01
2.356686443090438843e-01
-1.112040039151906967e-02
-1.285145245492458344e-02
-4.939486272633075714e-03
2.289234726049471647e-05
2.525919079780578613e-01
-3.819879144430160522e-02
-3.657645583152770996e-01
-4.298447370529174805e-01
3.294839859008789062e-01
1.745427399873733521e-01
2.043793648481369019e-01
5.321916937828063965e-01
1.907002180814743042e-01
1.217033937573432922e-01
1.444927304983139038e-01
2.697815597057342529e-01
3.633706271648406982e-02
-7.787829637527465820e-02
2.818778753280639648e-01
1.328021138906478882e-01
-3.788600862026214600e-01
-3.119726777076721191e-01
2.299030423164367676e-01
2.770233452320098877e-01
3.497743606567382812e-02
2.563182711601257324e-01
-5.053371191024780273e-02
-1.054432094097137451e-01
8.342991024255752563e-02
-2.204476110637187958e-02
-1.878023743629455566e-01
-2.575017809867858887e-01
-8.591843768954277039e-03
-1.070354059338569641e-01
-2.725158333778381348e-01
-2.260796129703521729e-01
3.019839823246002197e-01
4.581592082977294922e-01
1.641574054956436157e-01
3.283892571926116943e-01
8.956502079963684082e-01
1.358631551265716553e-01
-1.253378242254257202e-01
-4.770541787147521973e-01
-5.606347322463989258e-02
4.164243936538696289e-01
3.216750919818878174e-01
5.068749785423278809e-01
4.729036688804626465e-01
1.851092875003814697e-01
-4.282066524028778076e-01
-7.164580821990966797e-01
-1.349459886550903320e-01
-1.315854340791702271e-01
2.612417340278625488e-01
8.027278631925582886e-02
-4.025696218013763428e-01
-3.788196444511413574e-01
3.143852576613426208e-02
3.030193969607353210e-02
2.110818177461624146e-01
2.682498693466186523e-01
1.502628326416015625e-01
5.249682813882827759e-02
-2.852360904216766357e-01
-5.567234754562377930e-01
-2.837995588779449463e-01
-1.150628477334976196e-01
-4.503142833709716797e-01
-1.071304380893707275e-01
1.447937190532684326e-01
-1.039377599954605103e-01
6.232675909996032715e-02
3.054130971431732178e-01
2.863421142101287842e-01
1.916037946939468384e-01
7.432424277067184448e-02
1.438367366790771484e-01
-2.464157789945602417e-01
-4.072846844792366028e-02
-4.684627428650856018e-02
-9.408586621284484863e-01
-4.084653258323669434e-01
2.768925130367279053e-01
2.698797285556793213e-01
3.228786587715148926e-02
-5.116697400808334351e-02
2.222062945365905762e-01
1.833391040563583374e-01
-4.387399181723594666e-02
2.494152449071407318e-02
3.498818725347518921e-02
-1.262848675251007080e-01
1.241390258073806763e-01
-1.894660480320453644e-02
-5.328961014747619629e-01
-5.450997352600097656e-01
3.495104908943176270e-01
5.342716574668884277e-01
-2.594234049320220947e-02
-7.611198723316192627e-02
-5.122258141636848450e-02
7.565180957317352295e-02
1.566287688910961151e-02
-2.325837016105651855e-01
-5.832920968532562256e-02
-3.339999914169311523e-01
1.856207549571990967e-01
-3.575973957777023315e-02
-4.370905756950378418e-01
-2.871978282928466797e-01
5.643397569656372070e-02
2.750309407711029053e-01
-6.462582200765609741e-02
1.576252654194831848e-02
-2.352990768849849701e-02
-1.086110919713973999e-01
4.540211707353591919e-02
-5.697153508663177490e-02
-1.755032837390899658e-01
-2.327713966369628906e-01
1.810396760702133179e-01
2.359221689403057098e-02
-5.562887191772460938e-01
-8.313305675983428955e-02
7.426704466342926025e-02
2.028472274541854858e-01
-1.285750120878219604e-01
-2.341673709452152252e-02
9.732989221811294556e-02
-4.164827242493629456e-02
-6.291145086288452148e-02
-1.036858707666397095e-01
-2.380524724721908569e-01
-2.067708969116210938e-01
1.655604988336563110e-01
1.641699462197721004e-03
-6.186792999505996704e-02
2.059869021177291870e-01
5.250257626175880432e-02
2.696507424116134644e-02
-1.528436988592147827e-01
-3.991840407252311707e-02
1.397827863693237305e-01
5.274414643645286560e-02
2.746259607374668121e-02
-6.476807594299316406e-02
-2.864316999912261963e-01
-2.930692434310913086e-01
-6.365675479173660278e-02
3.125951439142227173e-02
2.997999489307403564e-01
1.182575225830078125e-01
-3.745013102889060974e-02
2.996108029037714005e-03
-1.527652293443679810e-01
5.405459553003311157e-02
1.455605030059814453e-01
-4.189339280128479004e-02
-4.902270063757896423e-02
-6.244254857301712036e-02
-3.994971513748168945e-02
-2.738168537616729736e-01
1.657055616378784180e-01
-1.469458360224962234e-02
2.841121852397918701e-01
-1.447813510894775391e-01
-1.903495639562606812e-01
-2.258919924497604370e-02
-1.083583906292915344e-01
2.319740206003189087e-01
1.989408731460571289e-01
3.830074518918991089e-02
-1.511508878320455551e-02
-9.498394094407558441e-03
3.166036307811737061e-02
-3.303185105323791504e-01
-5.612207949161529541e-02
-8.480624109506607056e-02
-2.354559153318405151e-01
3.574384450912475586e-01
1.938559263944625854e-01
-3.771893680095672607e-02
1.987546533346176147e-01
8.032033592462539673e-02
6.983267515897750854e-02
-8.637567050755023956e-03
-1.269792579114437103e-02
2.265364676713943481e-02
7.548135519027709961e-02
-2.259294986724853516e-01
-7.536140084266662598e-02
1.828553974628448486e-01
-9.458496421575546265e-02
3.232847154140472412e-01
2.003523558378219604e-01
-1.704648584127426147e-01
1.308813598006963730e-02
8.737608790397644043e-02
1.961552500724792480e-01
1.484024226665496826e-01
-9.872932732105255127e-02
-3.039010055363178253e-02
1.679697781801223755e-01
-1.327250003814697266e-01
-1.544833928346633911e-01
7.521771639585494995e-02
3.301941156387329102e-01
2.640131115913391113e-01
2.142754942178726196e-02
-3.389099836349487305e-01
-1.155595630407333374e-01
-1.505833771079778671e-02
1.411254405975341797e-01
-9.693159162998199463e-02
-1.393816024065017700e-01
8.639679104089736938e-02
-3.771396877709776163e-04
-3.686540573835372925e-02
-1.564045101404190063e-01
-1.768067330121994019e-01
-2.118942141532897949e-02
7.541288733482360840e-01
-1.723554134368896484e-01
-3.750632330775260925e-02
5.207046121358871460e-02
6.487249583005905151e-02
-1.142384186387062073e-01
-1.749154478311538696e-01
-1.178282126784324646e-01
-3.508010413497686386e-03
5.301286652684211731e-02
2.490510344505310059e-01
4.449608735740184784e-03
9.211203455924987793e-02
6.000891327857971191e-01
-3.870615065097808838e-01
8.633879572153091431e-02
-1.649113595485687256e-01
-2.877311408519744873e-01
1.925395578145980835e-01
1.065860409289598465e-02
-1.898222863674163818e-01
-1.661665290594100952e-01
1.716891825199127197e-01
2.232956141233444214e-01
-4.757631719112396240e-01
-6.540012955665588379e-01
7.397878766059875488e-01
-2.406720221042633057e-01
-1.982578933238983154e-01
2.148310393095016479e-01
3.454082608222961426e-01
7.022567391395568848e-01
7.130878511816263199e-03
9.810005873441696167e-02
8.339016884565353394e-02
-1.214248985052108765e-01
4.132451117038726807e-02
-1.038484051823616028e-01
4.813756346702575684e-01
7.538076639175415039e-01
4.513234496116638184e-01
1.791305243968963623e-01
8.631680160760879517e-02
3.259142637252807617e-01
1.397170424461364746e-01
1.443492174148559570e-01
-1.240400746464729309e-01
-5.824099294841289520e-03
-8.589013665914535522e-02
-7.238914072513580322e-02
-1.905912011861801147e-01
-9.902375936508178711e-02
6.150426715612411499e-02
3.762645423412322998e-01
5.181292295455932617e-01
1.206625476479530334e-01
1.942206360399723053e-02
-6.799612659960985184e-03
1.678221076726913452e-01
2.867141067981719971e-01
-3.655112907290458679e-02
-7.032915204763412476e-02
-8.157633244991302490e-02
1.277365237474441528e-01
-1.489430014044046402e-02
-1.105109080672264099e-01
1.705817282199859619e-01
2.459697574377059937e-01
1.556033194065093994e-01
-3.496514633297920227e-02
-1.546917110681533813e-01
-2.475187182426452637e-01
-9.117662906646728516e-03
3.578269779682159424e-01
1.590457856655120850e-01
7.778045535087585449e-02
6.347716599702835083e-02
9.542188048362731934e-02
-3.274346888065338135e-02
1.012912094593048096e-01
2.077361941337585449e-01
7.936034351587295532e-02
1.082975715398788452e-01
1.207825168967247009e-01
-2.469573765993118286e-01
-3.115571141242980957e-01
-5.148509517312049866e-02
2.604041397571563721e-01
-3.050495684146881104e-02
-2.255510985851287842e-01
5.788765382021665573e-03
1.553848981857299805e-01
5.964284390211105347e-02
4.723081830888986588e-03
2.146740108728408813e-01
-5.635240301489830017e-02
-1.856335401535034180e-01
7.363881915807723999e-02
3.431747257709503174e-01
-2.884237468242645264e-01
-2.285927720367908478e-02
-4.903611913323402405e-02
-3.522999212145805359e-02
-1.290650516748428345e-01
-1.140150278806686401e-01
-1.280477195978164673e-01
4.544194787740707397e-03
-4.120901972055435181e-02
-5.423806607723236084e-02
-7.716451585292816162e-02
-2.069002985954284668e-01
-9.512355923652648926e-02
7.095126062631607056e-02
5.204277485609054565e-02
1.763299256563186646e-01
-3.044727724045515060e-03
9.066253900527954102e-03
-3.166017308831214905e-02
-1.423625499010086060e-01
-1.678699254989624023e-01
-6.102582812309265137e-02
9.732044488191604614e-02
-9.374818950891494751e-02
-4.829263314604759216e-02
-1.137763112783432007e-01
-4.170385003089904785e-02
-2.087367326021194458e-01
2.198987454175949097e-02
1.866119503974914551e-01
-4.054021835327148438e-02
-1.331194043159484863e-01
-7.682044059038162231e-02
-7.041808962821960449e-02
3.154267743229866028e-02
8.599185943603515625e-02
2.112132497131824493e-02
4.413284768816083670e-04
-1.552666258066892624e-02
2.111595124006271362e-02
-1.936125941574573517e-02
-4.239358007907867432e-02
2.276869714260101318e-01
1.091312766075134277e-01
3.770268708467483521e-02
-2.389347739517688751e-02
8.977398276329040527e-02
3.191328421235084534e-02
1.643744856119155884e-02
1.221897155046463013e-01
-8.733285963535308838e-02
-7.126456499099731445e-02
2.298406697809696198e-02
2.466056793928146362e-01
1.735662482678890228e-02
-2.112826406955718994e-01
-1.122729554772377014e-01
4.056419432163238525e-02
-1.761760264635086060e-01
-1.143814180977642536e-03
1.236872524023056030e-01
1.375632733106613159e-01
5.448161438107490540e-02
-1.407444775104522705e-01
-1.900478750467300415e-01
-2.091513574123382568e-01
1.300971806049346924e-01
2.638794779777526855e-01
-8.951217681169509888e-02
-8.048531413078308105e-02
-2.026604712009429932e-01
5.918181687593460083e-02
-1.133604198694229126e-01
1.721198298037052155e-02
4.921230673789978027e-02
9.030801057815551758e-02
5.393825843930244446e-02
-1.344851553440093994e-01
-1.156728342175483704e-01
-2.256216257810592651e-01
-2.067301794886589050e-02
-1.215023323893547058e-01
-1.248574331402778625e-01
-2.133382111787796021e-01
-3.908580839633941650e-01
-8.596986532211303711e-02
-1.960349678993225098e-01
1.024407800287008286e-02
-9.666216373443603516e-02
-1.465797144919633865e-02
-4.792516306042671204e-02
-1.335385143756866455e-01
-1.521361432969570160e-02
-2.626364529132843018e-01
9.165919572114944458e-02
-3.980266749858856201e-01
-1.027539521455764771e-01
-1.515588760375976562e-01
-2.673437595367431641e-01
5.750529468059539795e-03
-7.325346767902374268e-02
-5.401677489280700684e-01
-6.127293035387992859e-02
1.505558043718338013e-01
1.768768578767776489e-02
5.495687574148178101e-02
-2.191201150417327881e-01
-3.175587654113769531e-01
1.363205909729003906e-01
-3.530693352222442627e-01
-5.389752388000488281e-01
4.208553433418273926e-01
3.287544250488281250e-01
-1.852634698152542114e-01
