2.193674296140670776e-01
4.847432300448417664e-02
1.210392490029335022e-01
-1.654922813177108765e-01
-4.172018170356750488e-02
1.920000463724136353e-01
7.787916064262390137e-02
-9.571202099323272705e-02
1.527507305145263672e-01
5.890566110610961914e-02
-1.722302436828613281e-01
1.349464356899261475e-01
-1.108905375003814697e-01
-4.489797949790954590e-01
-3.404841199517250061e-02
5.099306106567382812e-01
-2.414799295365810394e-03
5.456013604998588562e-02
1.666087657213211060e-01
1.113673076033592224e-01
2.658693864941596985e-02
6.346070766448974609e-02
1.470649987459182739e-01
7.290983945131301880e-02
-3.723628446459770203e-02
-2.509736120700836182e-01
4.033347219228744507e-02
-1.244818978011608124e-02
-1.656264960765838623e-01
1.979191899299621582e-01
8.180404454469680786e-02
-6.537963747978210449e-01
-5.466464161872863770e-01
3.666113615036010742e-01
2.126888930797576904e-01
-2.200137227773666382e-01
-1.838588267564773560e-01
4.544866457581520081e-02
6.623267382383346558e-02
1.044965237379074097e-01
-6.751020997762680054e-02
1.053020358085632324e-01
-2.592558860778808594e-01
-3.500992804765701294e-02
3.750570863485336304e-02
9.985265880823135376e-02
2.886150479316711426e-01
-2.074876278638839722e-01
1.151693835854530334e-01
-8.010353893041610718e-02
-1.496176272630691528e-01
-8.586801290512084961e-01
1.519119143486022949e-01
-2.327899262309074402e-02
-2.460841089487075806e-01
1.162642464041709900e-01
-2.257284075021743774e-01
-2.653172314167022705e-01
-8.812032938003540039e-01
-2.151514962315559387e-02
-2.719280868768692017e-02
1.946526467800140381e-01
2.761645019054412842e-01
-8.264443278312683105e-02
-5.722419023513793945e-01
-1.005255132913589478e-01
8.803184330463409424e-02
-1.366561949253082275e-01
-5.853271484375000000e-01
6.265562493354082108e-03
-9.696176648139953613e-02
-4.198298752307891846e-01
-3.659653365612030029e-01
9.310882091522216797e-01
-6.216048598289489746e-01
1.124286931008100510e-02
-3.882831037044525146e-01
-7.778871655464172363e-01
-4.899972081184387207e-01
3.958916664123535156e-02
4.881003499031066895e-01
4.243575930595397949e-01
-4.191201180219650269e-02
-5.513969063758850098e-01
-6.664767861366271973e-02
8.137775212526321411e-02
1.395047362893819809e-02
-7.466308772563934326e-02
-6.141569465398788452e-02
-3.093015849590301514e-01
-1.620120555162429810e-01
-3.780160844326019287e-02
5.830086395144462585e-02
5.823111534118652344e-01
-4.250949323177337646e-01
5.839024782180786133e-01
1.210739389061927795e-01
-1.819977611303329468e-01
2.532651126384735107e-01
-9.508169293403625488e-01
-4.851368665695190430e-01
1.900153011083602905e-01
-6.465913355350494385e-02
-7.870933413505554199e-02
1.217775121331214905e-01
-2.567746341228485107e-01
-5.414039492607116699e-01
2.688621282577514648e-01
2.134910821914672852e-01
-6.885329484939575195e-01
-1.945407092571258545e-01
-4.986625015735626221e-01
-2.218600660562515259e-01
-6.181379035115242004e-02
1.334998309612274170e-01
-1.054616808891296387e+00
-8.733230233192443848e-01
-5.751964077353477478e-02
4.410454034805297852e-01
-9.389109909534454346e-02
3.445186018943786621e-01
2.376432120800018311e-01
-3.092224337160587311e-02
2.704454958438873291e-01
-9.124299883842468262e-02
8.081270754337310791e-02
-7.782014608383178711e-01
3.332097232341766357e-01
-5.668709278106689453e-01
5.432470515370368958e-02
-2.520745694637298584e-01
2.406310476362705231e-02
-3.706371039152145386e-02
1.439423859119415283e-01
4.385538026690483093e-02
-2.461241483688354492e-01
2.249750941991806030e-01
5.579617992043495178e-02
1.818978339433670044e-01
1.280835866928100586e-01
1.094284746795892715e-02
-1.661235839128494263e-01
7.141517102718353271e-02
3.452973961830139160e-01
-3.237583935260772705e-01
-1.222819760441780090e-01
4.622146859765052795e-02
9.125507622957229614e-02
9.928039461374282837e-02
-1.102049052715301514e-01
-4.970069825649261475e-01
-1.158530414104461670e-01
-6.249424219131469727e-01
-2.537149004638195038e-02
1.024287566542625427e-01
1.228474378585815430e-01
-1.776388473808765411e-02
2.468557059764862061e-01
1.897953301668167114e-01
-6.960639357566833496e-01
-1.936825960874557495e-01
-5.362902879714965820e-01
-5.087311863899230957e-01
2.456977665424346924e-01
-3.249281346797943115e-01
1.358709763735532761e-02
-3.455195575952529907e-02
1.712517738342285156e-01
1.965147070586681366e-02
-5.721858739852905273e-01
-3.484757244586944580e-01
2.926697209477424622e-02
1.363600492477416992e-01
1.638343781232833862e-01
-1.391886472702026367e-01
-2.835994362831115723e-01
8.938327431678771973e-02
6.778793409466743469e-03
2.957599163055419922e-01
-3.818094134330749512e-01
2.076563239097595215e-02
1.174231246113777161e-01
-2.430168539285659790e-01
3.743857517838478088e-02
8.091173321008682251e-02
-4.199262261390686035e-01
1.140199750661849976e-01
1.370773464441299438e-01
2.751940786838531494e-01
-9.866894036531448364e-02
-2.783581316471099854e-01
2.382689341902732849e-02
2.077331393957138062e-01
2.225100062787532806e-02
-5.165496258996427059e-04
1.085072159767150879e-01
4.769425094127655029e-02
-5.494817346334457397e-02
-3.784551322460174561e-01
1.235397383570671082e-01
1.138805225491523743e-01
-2.896355092525482178e-01
5.447530746459960938e-02
1.130068227648735046e-01
-1.887857019901275635e-01
4.900500774383544922e-01
-9.502460062503814697e-02
-1.387882083654403687e-01
2.367788553237915039e-02
-5.174010992050170898e-01
1.254423111677169800e-01
-4.202545583248138428e-01
8.493724744766950607e-04
1.062350720167160034e-01
7.850036025047302246e-02
1.017768457531929016e-01
-2.248684018850326538e-01
-7.966808676719665527e-01
-1.556561235338449478e-02
-6.581431627273559570e-01
1.077945344150066376e-03
-3.782151639461517334e-01
-6.957079172134399414e-01
-2.110804170370101929e-01
2.105397135019302368e-01
-5.278093814849853516e-01
-6.118419021368026733e-02
-4.236181974411010742e-01
-1.604674309492111206e-01
1.671659797430038452e-01
-1.105226855725049973e-02
-3.625763952732086182e-02
-2.436328828334808350e-01
5.624421685934066772e-02
3.034953773021697998e-01
-1.697958588600158691e+00
2.242087721824645996e-01
1.276842802762985229e-01
-2.989835441112518311e-01
-1.079247519373893738e-02
9.101982414722442627e-02
3.779644519090652466e-02
-8.686883002519607544e-02
1.642191559076309204e-01
-1.032286435365676880e-01
8.924709260463714600e-02
-2.605446875095367432e-01
1.438120454549789429e-01
2.908143997192382812e-01
1.326706111431121826e-01
2.479871213436126709e-01
2.428620010614395142e-01
-1.011672377586364746e+00
4.422441497445106506e-02
-5.339504480361938477e-01
2.632542550563812256e-01
-2.910266816616058350e-01
1.197476033121347427e-02
1.114058271050453186e-01
5.461103469133377075e-02
-1.164460107684135437e-01
-6.942403316497802734e-01
-2.218041103333234787e-03
-1.434453725814819336e-01
-3.032491169869899750e-02
8.323518559336662292e-03
-1.456572562456130981e-01
2.215472795069217682e-02
3.722729906439781189e-02
5.435870960354804993e-02
-1.216205134987831116e-01
-7.479926347732543945e-01
1.224133819341659546e-01
-3.937473595142364502e-01
1.781550198793411255e-01
-2.940677106380462646e-01
1.436175554990768433e-01
-1.363346725702285767e-01
-7.510758638381958008e-01
7.015263289213180542e-02
-7.120859622955322266e-01
-4.298216700553894043e-01
1.152370646595954895e-01
9.019006788730621338e-02
8.818353712558746338e-02
-3.790516406297683716e-02
1.352713108062744141e-01
-2.829765975475311279e-01
-5.367683619260787964e-02
-2.744036912918090820e-01
-1.304895579814910889e-01
1.640996187925338745e-01
-5.653908848762512207e-02
-6.132893264293670654e-02
6.733980774879455566e-02
1.830890476703643799e-01
1.731948107481002808e-01
-3.862346336245536804e-02
-8.406285643577575684e-01
4.377598166465759277e-01
1.719855219125747681e-01
1.553420093841850758e-03
-8.866014331579208374e-02
4.685477539896965027e-02
4.380339756608009338e-02
8.949066698551177979e-02
9.196143597364425659e-02
-4.289135336875915527e-03
-1.024632751941680908e-01
1.362646520137786865e-01
-5.773356556892395020e-02
4.905108362436294556e-02
6.352451443672180176e-02
2.094383090734481812e-01
9.176287800073623657e-02
-2.171605378389358521e-01
-6.252481937408447266e-01
1.307908445596694946e-01
-4.907701015472412109e-01
-2.027247399091720581e-01
-7.074420899152755737e-02
-5.355587005615234375e-01
-8.701280355453491211e-01
-4.377033114433288574e-01
2.836573868989944458e-02
-3.509415779262781143e-03
-1.041900217533111572e-01
1.907505691051483154e-01
5.206169486045837402e-01
6.993921101093292236e-02
1.986031830310821533e-01
-1.032824158668518066e+00
-1.501501798629760742e-01
-7.136596250347793102e-04
3.454544395208358765e-02
2.430252134799957275e-01
2.935518026351928711e-01
9.921040385961532593e-03
-9.461941123008728027e-01
2.016004920005798340e-01
-1.122241377830505371e+00
-5.526412650942802429e-02
7.144400477409362793e-01
-1.254108548164367676e-01
-2.198730558156967163e-01
7.771771401166915894e-02
-7.683334499597549438e-02
1.540285497903823853e-01
-1.224314093589782715e+00
-3.238613009452819824e-01
2.042564749717712402e-01
7.540184259414672852e-02
-5.543342232704162598e-02
7.657814770936965942e-02
1.987562477588653564e-01
7.617404460906982422e-01
3.391582965850830078e-01
7.235997319221496582e-01
-4.995304048061370850e-01
-9.657344222068786621e-01
-7.420034408569335938e-01
2.165550589561462402e-01
8.215941786766052246e-01
5.328356027603149414e-01
1.628957502543926239e-02
2.402089238166809082e-01
6.492565870285034180e-01
4.722455516457557678e-02
2.784663438796997070e-02
-2.074910253286361694e-01
4.966990351676940918e-01
2.179154604673385620e-01
-5.834144353866577148e-02
-1.336164116859436035e+00
9.564437717199325562e-02
2.611003220081329346e-01
-7.797629833221435547e-01
-2.985837459564208984e-01
1.940377056598663330e-01
-1.212234124541282654e-01
7.250206172466278076e-02
-5.519837141036987305e-01
3.134772777557373047e-01
8.265447616577148438e-02
1.267113685607910156e-01
2.793599106371402740e-02
-1.899239793419837952e-02
5.489953607320785522e-02
7.959493994712829590e-02
2.956720069050788879e-03
-2.143888026475906372e-01
-1.552219241857528687e-01
-2.251318842172622681e-01
-1.361369900405406952e-02
-2.338545173406600952e-01
8.301517367362976074e-02
-1.772356964647769928e-02
-5.411273837089538574e-01
-8.620662242174148560e-02
-3.903212249279022217e-01
-2.764254212379455566e-01
1.989497430622577667e-02
-3.745115920901298523e-02
1.603314578533172607e-01
5.575840175151824951e-02
-4.227104783058166504e-02
3.400291800498962402e-01
1.832950301468372345e-02
2.810738384723663330e-01
-1.284198760986328125e-01
9.439647197723388672e-02
9.442403167486190796e-02
8.704970777034759521e-02
-1.656272858381271362e-01
1.699817478656768799e-01
-5.729871988296508789e-01
-4.293324053287506104e-01
2.484040707349777222e-02
-3.493687510490417480e-01
7.634335756301879883e-02
4.259567558765411377e-01
-1.376530379056930542e-01
2.356378361582756042e-02
1.679623126983642578e-01
8.955293893814086914e-02
2.945237159729003906e-01
-3.088584542274475098e-01
-6.718298196792602539e-01
1.355638504028320312e-01
1.656330227851867676e-01
3.124002516269683838e-01
3.421507775783538818e-01
2.714838832616806030e-02
-1.771841794252395630e-01
-5.905787348747253418e-01
1.714996844530105591e-01
9.007237851619720459e-02
5.788389220833778381e-02
-3.651408851146697998e-01
1.024220511317253113e-01
-1.986176241189241409e-03
-1.570438891649246216e-01
-3.149468302726745605e-01
-1.505792737007141113e-01
-2.211605012416839600e-01
4.514263942837715149e-02
2.858591079711914062e-01
1.039281208068132401e-02
-6.473089456558227539e-01
-4.445489943027496338e-01
-8.628878742456436157e-02
-3.236988186836242676e-01
6.886029988527297974e-02
-2.784013748168945312e-01
2.074187248945236206e-01
1.387476455420255661e-02
-5.929871797561645508e-01
-3.888803720474243164e-01
3.184160888195037842e-01
-9.189092367887496948e-02
9.056288003921508789e-02
1.870045363903045654e-01
2.171738147735595703e-01
-8.296462297439575195e-01
-4.761589765548706055e-01
-1.481246855109930038e-02
-1.172858238220214844e+00
-1.295973062515258789e-01
-6.734896302223205566e-01
1.372867077589035034e-02
-1.117568135261535645e+00
-1.151574105024337769e-01
5.119436979293823242e-01
1.659387797117233276e-01
-1.939526200294494629e-01
-7.413008809089660645e-01
-5.482798069715499878e-02
-4.337258338928222656e-01
-2.496223747730255127e-01
1.672596186399459839e-01
1.576948910951614380e-01
3.182238638401031494e-01
8.646540343761444092e-02
-6.200752854347229004e-01
-8.636339902877807617e-01
-1.198721885681152344e+00
-1.327286809682846069e-01
-1.009119033813476562e+00
1.718395799398422241e-01
2.715008556842803955e-01
-4.018426835536956787e-01
-7.032794952392578125e-01
-4.469362497329711914e-01
5.906637012958526611e-02
-7.093540579080581665e-02
8.761943131685256958e-02
-3.335375189781188965e-01
1.807478368282318115e-01
-5.803952366113662720e-02
1.729032695293426514e-01
5.490238964557647705e-02
-6.134408116340637207e-01
2.005188912153244019e-01
-1.241543173789978027e+00
7.244088649749755859e-01
6.448440551757812500e-01
1.329367607831954956e-01
1.929711103439331055e-01
1.939140707254409790e-01
-1.522876143455505371e+00
-3.452348709106445312e-01
1.443755161017179489e-02
-3.177526593208312988e-02
2.462795972824096680e-01
2.943316996097564697e-01
9.149104356765747070e-02
5.687076598405838013e-02
-4.590318500995635986e-01
2.533696889877319336e-01
9.053725749254226685e-02
2.379839718341827393e-01
2.416023910045623779e-01
-4.500045478343963623e-01
-1.955249346792697906e-02
1.290651112794876099e-01
4.760355055332183838e-01
1.216851361095905304e-02
1.543183624744415283e-01
4.834132492542266846e-01
-5.951223373413085938e-01
-4.844699501991271973e-01
1.448433250188827515e-01
-1.101986393332481384e-01
8.786975592374801636e-02
-6.966390609741210938e-01
2.757335901260375977e-01
-4.642677307128906250e-01
2.408233433961868286e-01
5.014969035983085632e-02
-2.535861134529113770e-01
-4.420127570629119873e-01
-2.726941704750061035e-01
2.316175550222396851e-01
8.976511657238006592e-02
4.541073739528656006e-01
-2.815558314323425293e-01
5.732700973749160767e-02
-6.413040161132812500e-01
-3.502479791641235352e-01
-6.203345060348510742e-01
6.957372277975082397e-02
-4.235512912273406982e-01
2.721855044364929199e-01
-5.658407211303710938e-01
-9.654259681701660156e-01
-6.058417558670043945e-01
1.534610241651535034e-01
-1.141061335802078247e-01
-9.470967054367065430e-01
8.225038647651672363e-02
6.309533119201660156e-02
1.711518168449401855e-01
-4.947496354579925537e-01
-2.323027104139328003e-01
-7.452706247568130493e-02
-1.609740257263183594e-01
2.477540224790573120e-01
-1.079061031341552734e-01
1.681950241327285767e-01
-3.308499157428741455e-01
4.812849462032318115e-01
-1.248286068439483643e-01
1.913209557533264160e-01
2.266839593648910522e-01
1.546206176280975342e-01
-1.124176196753978729e-02
-1.098325476050376892e-01
-8.270226716995239258e-01
-2.144705355167388916e-01
-1.502586901187896729e-01
1.916095912456512451e-01
3.449136018753051758e-01
1.776260882616043091e-01
2.181709259748458862e-01
-5.529996752738952637e-01
-2.689563632011413574e-01
2.393287122249603271e-01
-4.537493363022804260e-02
1.679713726043701172e-01
1.346725523471832275e-01
-4.569220356643199921e-03
-4.796558022499084473e-01
-5.089382529258728027e-01
3.667480349540710449e-01
-5.056836083531379700e-02
1.351559162139892578e-01
-2.267057597637176514e-01
-1.194821000099182129e-01
-2.594542205333709717e-01
-3.445479273796081543e-01
-2.784136831760406494e-01
1.918851435184478760e-01
-5.839851498603820801e-01
3.232961893081665039e-01
-2.850363552570343018e-01
5.777845531702041626e-02
-5.609340071678161621e-01
1.931102424860000610e-01
2.431299537420272827e-01
4.725018888711929321e-02
1.529378443956375122e-01
-8.040493130683898926e-01
-1.190703734755516052e-01
-7.782183885574340820e-01
5.008492618799209595e-02
-2.297041064593940973e-04
-8.444294333457946777e-02
-2.716473639011383057e-01
-3.359780013561248779e-01
7.833552360534667969e-02
-6.243526935577392578e-01
-8.139081001281738281e-01
-4.667912125587463379e-01
9.972437471151351929e-02
-1.234479904174804688e+00
2.637820839881896973e-01
-5.742374658584594727e-01
-1.965828686952590942e-01
2.810902893543243408e-01
-2.573097050189971924e-01
1.361397951841354370e-01
-1.025253534317016602e+00
-9.959352612495422363e-01
-3.249750733375549316e-01
-4.026132524013519287e-01
2.245217859745025635e-01
-2.680863142013549805e-01
-4.911286532878875732e-01
-8.357664346694946289e-01
-4.402211308479309082e-01
