-6.020678877830505371e-01
-1.006375193595886230e+00
8.000193238258361816e-01
2.040062993764877319e-01
1.326055079698562622e-01
-2.478448748588562012e-01
-8.493586778640747070e-01
1.006475567817687988e+00
1.393127739429473877e-01
5.782807245850563049e-02
3.113492205739021301e-02
-6.382467746734619141e-01
5.629382133483886719e-01
1.971206814050674438e-01
1.381409317255020142e-01
-3.760124742984771729e-01
-5.331908464431762695e-01
9.059538245201110840e-01
8.776714652776718140e-02
-7.005843520164489746e-02
-8.671964406967163086e-01
-4.354098141193389893e-01
8.445926904678344727e-01
5.839583277702331543e-01
-1.257248818874359131e-01
-2.655811309814453125e-01
8.719484806060791016e-01
-2.302558533847332001e-02
-1.305614858865737915e-01
-1.213791891932487488e-01
4.613312184810638428e-01
1.137757658958435059e+00
-6.641151309013366699e-01
-2.527420520782470703e-01
-4.387240409851074219e-01
9.684501290321350098e-01
5.814251899719238281e-01
-1.043081283569335938e+00
-4.176737666130065918e-01
-5.630540847778320312e-02
-3.459083288908004761e-02
3.186337947845458984e-01
-9.614910185337066650e-02
-2.344774007797241211e-01
5.535416305065155029e-02
-8.398413658142089844e-01
-1.594678126275539398e-02
-6.450261473655700684e-01
3.206218779087066650e-01
3.196093142032623291e-01
-2.601756751537322998e-01
-3.631638288497924805e-01
-5.267998576164245605e-01
-4.065179228782653809e-01
-5.740417242050170898e-01
-5.080674216151237488e-02
-1.763154119253158569e-01
-7.709360122680664062e-01
-1.071991682052612305e+00
-7.763163447380065918e-01
1.236473023891448975e-01
-2.327837981283664703e-02
-1.743345409631729126e-01
-6.305956840515136719e-01
-7.680327296257019043e-01
2.501683831214904785e-01
1.291774958372116089e-01
-1.151654124259948730e-02
-3.662863969802856445e-01
-3.834410309791564941e-01
1.540547758340835571e-01
3.998598754405975342e-01
4.006606712937355042e-02
-3.006640970706939697e-01
-3.517964780330657959e-01
-3.014090657234191895e-01
4.143356382846832275e-01
4.825525283813476562e-01
3.614527583122253418e-01
3.480268418788909912e-01
-3.658365011215209961e-01
-2.650480568408966064e-01
-1.313233524560928345e-01
-2.034721374511718750e-01
4.603021144866943359e-01
5.423638224601745605e-01
-4.325708746910095215e-01
-6.340082883834838867e-01
-6.053362488746643066e-01
-4.354634284973144531e-01
3.792139589786529541e-01
4.580843448638916016e-01
-1.295083574950695038e-02
6.072596646845340729e-03
3.227039426565170288e-02
-3.272203505039215088e-01
3.974170386791229248e-01
-9.552029520273208618e-02
-2.877464592456817627e-01
3.120116293430328369e-01
4.645357131958007812e-01
1.969762146472930908e-01
1.152593493461608887e-01
-2.743242681026458740e-02
2.685851156711578369e-01
-1.183629259467124939e-01
1.193353608250617981e-01
2.834071516990661621e-01
-7.942574471235275269e-02
2.310876697301864624e-01
3.021707236766815186e-01
1.280944496393203735e-01
-1.361016482114791870e-01
3.582327961921691895e-01
-1.204320862889289856e-01
2.249065339565277100e-01
4.746429324150085449e-01
1.834934800863265991e-01
2.884806990623474121e-01
1.754303723573684692e-01
8.931451477110385895e-03
1.990867853164672852e-01
-3.577660769224166870e-02
1.539059877395629883e-01
4.321812093257904053e-01
-8.130001425743103027e-01
-4.262703955173492432e-01
5.313624143600463867e-01
-2.802644111216068268e-02
1.638866811990737915e-01
-6.931660175323486328e-01
2.737533450126647949e-01
-2.840102910995483398e-01
-3.431052565574645996e-01
-2.930807173252105713e-01
3.707282841205596924e-01
5.271506905555725098e-01
-4.672333598136901855e-01
-3.237500786781311035e-01
-1.927027255296707153e-01
6.492279171943664551e-01
2.230366468429565430e-01
1.842835098505020142e-01
-1.826386451721191406e-01
-3.741944432258605957e-01
4.490990340709686279e-01
-8.105463534593582153e-02
3.484313488006591797e-01
7.071456313133239746e-01
2.600449919700622559e-01
