-2.291855365037918091e-01
-1.114374622702598572e-01
4.009710848331451416e-01
2.662869095802307129e-01
-1.439049094915390015e-01
-2.070084773004055023e-02
1.559510678052902222e-01
1.843635588884353638e-01
2.033019065856933594e-01
-8.225349336862564087e-02
1.009903922677040100e-01
2.130338996648788452e-01
4.144741222262382507e-02
1.130126640200614929e-01
1.273412257432937622e-01
1.522001624107360840e-01
2.100174576044082642e-01
-1.585492193698883057e-01
-2.408696711063385010e-02
1.014904081821441650e-01
-8.128612488508224487e-02
1.147224567830562592e-02
3.497118502855300903e-02
-2.825431711971759796e-02
2.161970287561416626e-01
5.965632200241088867e-02
-4.230576753616333008e-01
-2.041286677122116089e-01
-2.016010135412216187e-01
-1.287177652120590210e-01
9.672620892524719238e-02
-4.674234613776206970e-02
-1.349797546863555908e-01
-1.267758607864379883e-01
2.600385546684265137e-01
1.810093410313129425e-02
-1.991212815046310425e-01
-2.301030606031417847e-02
5.236464366316795349e-02
1.244494020938873291e-01
-1.758342087268829346e-01
-2.256979942321777344e-01
-1.405228301882743835e-02
1.108590960502624512e-01
4.319549351930618286e-02
-1.728134900331497192e-01
-6.017104163765907288e-02
-2.330747842788696289e-01
-8.362627774477005005e-02
-1.052602455019950867e-01
4.986137896776199341e-02
2.336883097887039185e-01
-2.381163239479064941e-01
-1.674789004027843475e-02
1.740779876708984375e-01
1.399788856506347656e-01
-1.509340386837720871e-02
-8.901987224817276001e-02
-5.353660508990287781e-02
3.554275929927825928e-01
-1.450400426983833313e-02
-5.949633941054344177e-02
1.370842475444078445e-02
-1.615235954523086548e-01
6.369884312152862549e-02
-1.118441298604011536e-01
-2.170684188604354858e-01
-1.144377142190933228e-01
9.586969763040542603e-02
8.549257367849349976e-02
-2.353127002716064453e-01
9.881922975182533264e-03
1.184996124356985092e-02
-5.094892531633377075e-02
-7.567304372787475586e-02
8.782546967267990112e-03
-5.852568149566650391e-02
-1.643839925527572632e-01
-1.598021686077117920e-01
1.129103451967239380e-02
-4.941944032907485962e-03
2.223836816847324371e-02
1.028624773025512695e-01
-9.986587613821029663e-02
1.729073524475097656e-01
8.322183787822723389e-02
-1.317753940820693970e-01
1.827546581625938416e-02
1.015682816505432129e-01
5.259907245635986328e-02
1.534503232687711716e-02
1.030475273728370667e-02
-1.575157642364501953e-01
6.663432717323303223e-02
1.222342532128095627e-02
6.745038926601409912e-02
6.573388725519180298e-02
2.599572949111461639e-02
9.635987691581249237e-03
9.158990532159805298e-02
-1.379362791776657104e-01
-1.651826351881027222e-01
-3.459581360220909119e-02
-1.906262896955013275e-02
8.108613640069961548e-02
-6.295607984066009521e-02
-4.857281967997550964e-02
-2.176518552005290985e-02
-1.128902137279510498e-01
1.227755397558212280e-01
-8.617252856492996216e-02
2.771558053791522980e-02
1.076946333050727844e-01
-3.189579769968986511e-02
6.903752684593200684e-02
-7.180695980787277222e-02
4.582227766513824463e-02
-2.581996470689773560e-02
-2.375118881464004517e-01
-4.061329364776611328e-02
4.295455291867256165e-02
-5.158494412899017334e-02
9.391411393880844116e-02
3.391232574358582497e-03
8.014485239982604980e-02
5.641131848096847534e-02
-1.241846159100532532e-01
1.691382229328155518e-01
1.139183118939399719e-01
1.801311522722244263e-01
6.685534864664077759e-02
6.691569928079843521e-03
1.932275444269180298e-01
-2.906534820795059204e-02
-3.131351247429847717e-02
5.977893993258476257e-02
2.323761582374572754e-02
2.367151230573654175e-01
-1.166272014379501343e-01
-1.015445124357938766e-02
9.062505513429641724e-02
2.207556925714015961e-02
-2.187879197299480438e-02
-5.136622115969657898e-02
-1.514072567224502563e-01
-1.546764820814132690e-01
9.587879478931427002e-02
-3.220144286751747131e-02
-3.608573973178863525e-02
6.122048199176788330e-02
7.389046251773834229e-02
5.070610716938972473e-02
-6.833168119192123413e-02
6.586340256035327911e-03
5.461886525154113770e-02
-5.473762005567550659e-02
-2.577249333262443542e-02
4.754846170544624329e-02
2.155957743525505066e-02
-5.803367868065834045e-02
1.857062987983226776e-02
6.604015082120895386e-02
-7.106381654739379883e-02
-5.920511856675148010e-02
-5.556202679872512817e-02
5.047402228228747845e-04
-1.451220829039812088e-02
5.962777510285377502e-02
5.835094302892684937e-02
-7.592310011386871338e-02
-9.849130176007747650e-03
-7.372614741325378418e-02
1.706818304955959320e-02
2.419491484761238098e-02
7.263123989105224609e-02
3.857160359621047974e-02
4.632256552577018738e-02
-8.051990717649459839e-02
-4.410168528556823730e-02
-7.707222551107406616e-02
2.375043556094169617e-02
3.113984595984220505e-03
6.346414238214492798e-02
-6.785558909177780151e-02
-9.531700983643531799e-03
-5.269853398203849792e-02
3.072178224101662636e-04
-3.173971921205520630e-02
7.809711992740631104e-02
-5.894156172871589661e-02
-7.137240469455718994e-02
-6.309559941291809082e-02
-3.051215969026088715e-02
-4.120170325040817261e-02
-6.655164808034896851e-02
-1.306543219834566116e-02
-8.947667665779590607e-03
1.504280883818864822e-02
1.443207962438464165e-03
-3.117767348885536194e-02
-7.515694946050643921e-02
1.796059310436248779e-02
3.253808617591857910e-02
-4.596122726798057556e-02
-4.492628946900367737e-02
-2.356688783038407564e-04
3.498449176549911499e-02
-4.610210284590721130e-02
-5.921847652643918991e-03
9.652191773056983948e-03
-2.268157899379730225e-02
-6.356175243854522705e-02
3.070813976228237152e-02
3.037614747881889343e-03
-7.997087389230728149e-02
6.819744408130645752e-02
3.317582607269287109e-02
-1.771952211856842041e-02
-8.159802109003067017e-02
-6.450524181127548218e-02
-2.004859969019889832e-02
-4.625752568244934082e-03
-6.040238961577415466e-02
1.532212831079959869e-02
4.696654900908470154e-02
-2.655972354114055634e-02
-4.959557950496673584e-02
-4.698344692587852478e-02
-2.961534820497035980e-02
3.652109578251838684e-02
1.880595646798610687e-02
-3.428392112255096436e-02
-1.204180344939231873e-02
3.559190407395362854e-02
6.408786773681640625e-02
7.822501659393310547e-02
-4.505665972828865051e-02
-4.141086339950561523e-02
5.743834003806114197e-02
-3.895109891891479492e-02
4.772191867232322693e-02
5.232634022831916809e-02
-2.795980870723724365e-02
2.369444444775581360e-02
4.766460508108139038e-02
1.627464964985847473e-02
-3.662412613630294800e-02
-1.780246943235397339e-02
6.836172193288803101e-02
2.921657077968120575e-02
-6.587664783000946045e-02
-1.470520813018083572e-02
-6.667722761631011963e-02
-6.996530294418334961e-02
2.244680747389793396e-02
-4.797890782356262207e-02
-2.834373153746128082e-02
-4.198138136416673660e-03
-6.772612780332565308e-02
-7.546537369489669800e-02
1.751515083014965057e-02
1.577012427151203156e-02
-8.128109574317932129e-02
-7.692452520132064819e-02
-8.017989993095397949e-02
2.157024852931499481e-02
-1.163298729807138443e-02
-6.840956211090087891e-02
-1.137465145438909531e-02
-1.014990359544754028e-02
3.790632262825965881e-02
7.922235131263732910e-02
-4.458532854914665222e-02
-3.429759666323661804e-02
-5.691707879304885864e-02
-1.845300011336803436e-02
-6.982471048831939697e-02
1.950086653232574463e-02
-7.521528005599975586e-02
-6.809836626052856445e-02
1.164698787033557892e-02
6.359191238880157471e-02
-7.565913349390029907e-02
-3.110313601791858673e-02
-4.963992908596992493e-02
3.095449507236480713e-02
2.777690626680850983e-02
-4.479079321026802063e-02
-1.683447510004043579e-02
4.313873127102851868e-02
3.308414667844772339e-02
-5.207706242799758911e-02
7.705523818731307983e-02
-1.372059993445873260e-02
3.554822131991386414e-02
1.723223924636840820e-02
-5.168702919036149979e-03
-4.025993403047323227e-03
1.157532446086406708e-03
4.168701544404029846e-02
3.435653820633888245e-02
6.435072422027587891e-02
2.218634933233261108e-01
2.899842560291290283e-01
2.104766666889190674e-01
-9.315200150012969971e-02
-1.537053585052490234e-01
-9.952202439308166504e-02
9.685601294040679932e-02
3.257959485054016113e-01
1.078202840290032327e-04
-7.149067521095275879e-02
-1.008362174034118652e-01
-1.787453591823577881e-01
-7.650465518236160278e-02
2.497430332005023956e-02
-1.405551880598068237e-01
-5.606554076075553894e-02
-2.549904584884643555e-01
-3.008039295673370361e-01
-1.016320846974849701e-02
4.665129631757736206e-02
-1.635193824768066406e-01
-1.661120802164077759e-01
-3.011331856250762939e-01
5.803153663873672485e-02
-1.098802387714385986e-01
-7.151398807764053345e-02
3.871611058712005615e-01
1.927441507577896118e-01
8.608963340520858765e-02
1.036894917488098145e-01
2.351866662502288818e-01
3.960520625114440918e-01
2.079410403966903687e-01
-1.211860701441764832e-01
7.283630967140197754e-02
3.710225597023963928e-02
1.461077760905027390e-02
-1.283209025859832764e-01
2.174575179815292358e-01
-4.480590671300888062e-02
-8.342612534761428833e-02
-3.629254102706909180e-01
-1.724796146154403687e-01
-1.050375103950500488e-01
-3.579870983958244324e-02
2.875120006501674652e-02
-1.946096569299697876e-01
6.360888481140136719e-02
5.035731196403503418e-01
2.194778472185134888e-01
3.420656621456146240e-01
5.264053866267204285e-02
-7.075951993465423584e-02
5.718227848410606384e-02
-1.029377803206443787e-01
3.269631862640380859e-01
-7.884879410266876221e-02
2.617673389613628387e-02
-6.080831214785575867e-02
1.266909018158912659e-02
-1.055378168821334839e-01
-2.011342942714691162e-01
-1.002967059612274170e-01
1.914509385824203491e-02
-4.366498813033103943e-02
4.802992567420005798e-02
8.519677072763442993e-02
4.083004593849182129e-02
-2.635966241359710693e-02
-1.273435354232788086e-01
-3.587882220745086670e-01
-1.979200690984725952e-01
-1.215724796056747437e-01
-1.796834319829940796e-01
1.985509991645812988e-01
1.973962187767028809e-01
1.722526997327804565e-01
1.216488182544708252e-01
-5.436430498957633972e-02
1.124897003173828125e-01
1.712476909160614014e-01
1.667763739824295044e-01
1.949480921030044556e-01
-4.588477686047554016e-02
-7.150875031948089600e-02
6.632163375616073608e-02
-4.535761196166276932e-03
1.593487560749053955e-01
-5.792085081338882446e-03
5.029398947954177856e-02
5.119387432932853699e-02
2.790151722729206085e-02
2.342044375836849213e-02
5.139019712805747986e-02
-3.190669789910316467e-02
1.924734413623809814e-01
-1.990642100572586060e-01
1.534578204154968262e-02
-1.057706922292709351e-01
9.420820861123502254e-04
2.059707976877689362e-02
-2.433230914175510406e-02
1.373104900121688843e-01
-5.105940625071525574e-02
5.402511730790138245e-02
-3.794030100107192993e-02
-5.465799197554588318e-02
2.375883609056472778e-02
-1.421520486474037170e-02
-6.181347742676734924e-02
-1.100871190428733826e-01
-7.063502818346023560e-02
8.748575299978256226e-02
4.946746304631233215e-02
-7.711723446846008301e-02
-4.544869437813758850e-02
-9.950957447290420532e-02
-2.354881726205348969e-02
1.485006660223007202e-01
-1.590321362018585205e-01
-1.581855490803718567e-02
-1.930643059313297272e-02
4.525836184620857239e-02
-1.611634492874145508e-01
9.236384183168411255e-02
1.651827543973922729e-01
1.275671124458312988e-01
2.664495706558227539e-01
2.297661267220973969e-02
-5.995753686875104904e-03
3.752467781305313110e-02
1.222337260842323303e-01
2.461226731538772583e-01
1.235761567950248718e-01
1.600575745105743408e-01
1.615770757198333740e-01
9.548421204090118408e-02
7.298292964696884155e-02
-1.677781157195568085e-02
1.459846459329128265e-02
1.439395360648632050e-02
1.339133176952600479e-02
-9.055788815021514893e-02
-4.440396651625633240e-02
2.747552469372749329e-02
-2.291243057698011398e-03
-8.021418005228042603e-02
2.791348658502101898e-02
-2.144709974527359009e-01
-4.280823469161987305e-02
1.091483682394027710e-01
2.602857723832130432e-02
3.618863523006439209e-01
-2.783701717853546143e-01
-1.115699931979179382e-01
3.153034951537847519e-03
2.357324957847595215e-01
2.641360042616724968e-03
-1.796577312052249908e-02
-1.291858106851577759e-01
-1.940883137285709381e-02
2.929644100368022919e-02
8.325158059597015381e-02
-1.031785383820533752e-01
-9.277649223804473877e-02
8.395834267139434814e-02
-4.828354716300964355e-02
-2.021692544221878052e-01
-6.018707994371652603e-03
-7.531803101301193237e-02
-1.035364270210266113e-01
1.077712401747703552e-01
-2.312164157629013062e-01
-2.591479755938053131e-02
-1.166488602757453918e-01
-2.384063750505447388e-01
-3.018716871738433838e-01
-4.433180019259452820e-02
-1.433589756488800049e-01
-1.814683079719543457e-01
-1.054866462945938110e-01
2.086966931819915771e-01
2.309434413909912109e-01
-8.865656703710556030e-02
-6.744494196027517319e-03
7.335442304611206055e-02
-1.117182895541191101e-02
8.604491502046585083e-02
2.323835156857967377e-03
-7.462961971759796143e-02
2.173327803611755371e-01
-2.815306000411510468e-02
-8.998412638902664185e-02
1.422939300537109375e-01
-2.470528781414031982e-01
-1.168536767363548279e-01
-3.533372282981872559e-02
-2.493821084499359131e-01
1.972268223762512207e-01
3.237593472003936768e-01
3.103191256523132324e-01
4.619384109973907471e-01
1.928364038467407227e-01
7.139251381158828735e-02
5.008554458618164062e-02
-3.422399759292602539e-01
8.332512527704238892e-02
2.402947694063186646e-01
-3.740536049008369446e-02
-4.597680270671844482e-02
-1.496398001909255981e-01
2.518731653690338135e-01
2.960645258426666260e-01
-1.701260209083557129e-01
-1.708016991615295410e-01
-2.611703276634216309e-01
-2.376238703727722168e-01
2.682840228080749512e-01
-3.297770321369171143e-01
-1.758251935243606567e-01
-4.424333572387695312e-01
-3.040089905261993408e-01
1.944463104009628296e-01
-5.547535791993141174e-02
-1.571743637323379517e-01
-1.920602172613143921e-01
1.248191390186548233e-02
-1.434958279132843018e-01
-2.193887904286384583e-02
-8.366103470325469971e-02
4.688085243105888367e-02
1.860730201005935669e-01
-2.356801927089691162e-02
-5.918412283062934875e-02
-8.371411263942718506e-02
6.862934678792953491e-02
9.776107966899871826e-02
-8.895394951105117798e-02
9.706367552280426025e-02
2.789901010692119598e-02
4.759281128644943237e-02
-2.549276314675807953e-02
-7.891491055488586426e-02
6.525531411170959473e-02
2.353725396096706390e-02
-2.776460908353328705e-02
-7.416539639234542847e-02
1.042370777577161789e-02
-2.858293950557708740e-01
-2.230708003044128418e-01
-1.136325225234031677e-01
7.981540635228157043e-03
-1.337938457727432251e-01
-4.238080233335494995e-02
-1.858496069908142090e-01
-1.508270949125289917e-01
2.471741475164890289e-02
1.704420745372772217e-01
3.399820998311042786e-02
-7.398535311222076416e-02
-1.075984537601470947e-01
1.189916580915451050e-02
-5.656662955880165100e-02
4.867986310273408890e-03
1.881726831197738647e-01
-8.742775768041610718e-02
-5.904671922326087952e-02
5.866968631744384766e-02
-1.044837310910224915e-01
6.134422123432159424e-02
-6.041285023093223572e-02
7.843060791492462158e-02
-7.583657652139663696e-02
4.986813757568597794e-03
-9.178695827722549438e-02
-1.155278384685516357e-01
-1.689952611923217773e-01
-8.746364153921604156e-03
5.001435428857803345e-02
-1.244629099965095520e-01
9.179894626140594482e-02
7.177004218101501465e-02
-3.160855174064636230e-02
-7.807273417711257935e-02
-1.690533570945262909e-02
1.997317075729370117e-01
7.952589541673660278e-02
-4.058304708451032639e-03
1.632291972637176514e-01
1.439757794141769409e-01
3.550786897540092468e-02
1.581598520278930664e-01
3.566684946417808533e-02
-6.501040607690811157e-02
5.170342698693275452e-02
9.480790048837661743e-02
1.055979579687118530e-01
-6.326774507761001587e-02
-9.950093179941177368e-02
-1.866143792867660522e-01
6.322351098060607910e-02
8.556523323059082031e-01
1.028270423412322998e-01
8.883194625377655029e-02
6.602681428194046021e-02
1.034677699208259583e-01
1.298478841781616211e-01
-8.312983065843582153e-02
-6.367936730384826660e-02
-8.486694097518920898e-02
1.283933967351913452e-01
8.808523416519165039e-02
-9.265488386154174805e-02
8.846312761306762695e-03
-3.161907568573951721e-02
1.872890889644622803e-01
1.231432631611824036e-01
-2.681896090507507324e-02
-1.696014776825904846e-03
-4.338421672582626343e-02
1.091416645795106888e-02
3.848054409027099609e-01
9.016443789005279541e-02
1.816650032997131348e-01
7.743476331233978271e-02
4.993891343474388123e-03
-1.577009409666061401e-01
-1.255432027392089367e-03
3.178944811224937439e-02
2.715963721275329590e-01
-1.293028295040130615e-01
-5.058223009109497070e-02
-1.522042136639356613e-02
2.078409120440483093e-02
1.396999657154083252e-01
-1.612555682659149170e-01
1.876305043697357178e-01
7.881164550781250000e-02
9.081466495990753174e-02
2.023536711931228638e-01
-6.047054380178451538e-02
4.606302827596664429e-02
8.758541941642761230e-02
2.079900354146957397e-01
-4.198537394404411316e-02
1.061711907386779785e-01
1.460184454917907715e-01
5.192348267883062363e-03
-1.635113507509231567e-01
2.258740961551666260e-01
3.149737417697906494e-01
-3.445725440979003906e-01
-3.909120801836252213e-03
-1.369620859622955322e-01
5.498363822698593140e-02
-5.705042555928230286e-02
-2.778440341353416443e-02
4.095786809921264648e-02
6.819409877061843872e-02
7.889415323734283447e-02
-2.059075385332107544e-01
-5.545572936534881592e-02
1.484131515026092529e-01
5.283891409635543823e-02
1.236986219882965088e-01
2.712104097008705139e-02
-9.478204697370529175e-02
-9.183809161186218262e-04
2.544319629669189453e-02
-8.761893212795257568e-02
5.994892492890357971e-02
-1.184056252241134644e-01
-7.689218223094940186e-02
-1.240491941571235657e-01
-1.171976998448371887e-01
-3.146197199821472168e-01
-6.054746359586715698e-02
-1.337909996509552002e-01
-2.320199310779571533e-01
-1.510596871376037598e-01
-1.696350276470184326e-01
-1.776907145977020264e-01
-7.105538249015808105e-02
-8.945566415786743164e-02
-4.539584368467330933e-02
-1.834818124771118164e-01
-4.870118200778961182e-02
-9.323120862245559692e-02
-6.483154743909835815e-02
-2.706674337387084961e-01
-1.323464233428239822e-02
-7.865080609917640686e-03
-7.559726387262344360e-02
8.802940696477890015e-02
1.522144954651594162e-02
-5.008562654256820679e-02
-7.223683409392833710e-03
-3.201759234070777893e-02
6.624459475278854370e-02
-1.237686201930046082e-01
-1.023250669240951538e-01
-1.200095191597938538e-02
-3.605856001377105713e-02
-5.820462107658386230e-02
-6.358277797698974609e-02
-4.708709195256233215e-02
5.933565553277730942e-03
3.939153999090194702e-02
4.849174246191978455e-02
-3.227165713906288147e-02
-3.098941966891288757e-02
-2.755979076027870178e-02
9.398164600133895874e-02
-1.556505355983972549e-02
4.659910872578620911e-02
-3.835602104663848877e-02
2.254309132695198059e-02
6.642797589302062988e-02
1.223663762211799622e-01
1.946197003126144409e-01
8.918067067861557007e-02
5.725308507680892944e-02
6.188637390732765198e-02
-6.059540808200836182e-02
-2.685670852661132812e-01
-3.622267022728919983e-02
1.832260042428970337e-01
9.338001161813735962e-02
4.770623147487640381e-02
-3.760506957769393921e-02
-2.074688225984573364e-01
-1.109643056988716125e-01
1.064396724104881287e-01
1.939456313848495483e-01
-1.242508739233016968e-01
-5.008554831147193909e-02
-2.118622064590454102e-01
9.461137652397155762e-02
6.454650778323411942e-03
-6.165123078972101212e-03
-1.237584576010704041e-01
-1.083988621830940247e-01
-1.762022525072097778e-01
-5.288245528936386108e-02
-6.613444536924362183e-03
-2.186037041246891022e-02
5.854373797774314880e-02
-4.291068762540817261e-02
3.522147536277770996e-01
3.005870059132575989e-02
-1.922387182712554932e-01
-2.821841277182102203e-02
-2.905103564262390137e-01
2.148936837911605835e-01
2.216491289436817169e-02
-5.537395179271697998e-02
-7.322257012128829956e-02
-1.293573230504989624e-01
2.820413410663604736e-01
1.161997299641370773e-02
-1.352925300598144531e-01
6.639440357685089111e-02
1.572817936539649963e-02
8.130634576082229614e-02
-1.672819107770919800e-01
1.657834975048899651e-03
-1.207652390003204346e-01
-1.715658158063888550e-01
-2.332260608673095703e-01
-2.661382257938385010e-01
1.601571589708328247e-01
-1.084212213754653931e-01
-8.739234763197600842e-04
-2.110025733709335327e-01
1.943976245820522308e-02
8.294045180082321167e-02
1.986182294785976410e-03
-1.279129385948181152e-01
-1.299463212490081787e-01
-1.253675967454910278e-01
5.570005625486373901e-02
-1.097573265433311462e-01
-2.195921838283538818e-01
9.664983302354812622e-02
-1.246463134884834290e-01
3.546617180109024048e-02
7.466780394315719604e-02
-5.774657800793647766e-02
-7.718370109796524048e-02
-5.880957841873168945e-02
1.749762594699859619e-01
5.200704932212829590e-02
3.299857303500175476e-02
2.076832577586174011e-02
9.897529333829879761e-02
2.459706813097000122e-01
6.649804860353469849e-02
2.218913733959197998e-01
-7.357529550790786743e-02
-2.362041361629962921e-02
-9.608580917119979858e-02
-1.784365177154541016e-01
-1.424315422773361206e-01
-6.146038416773080826e-03
5.542475730180740356e-02
3.828810453414916992e-01
3.255886137485504150e-01
1.974924653768539429e-01
-3.575524780899286270e-03
-1.707406044006347656e-01
-4.524046182632446289e-02
1.448106020689010620e-01
-1.833071112632751465e-01
-1.680767238140106201e-01
-2.357319891452789307e-01
-2.969028353691101074e-01
5.652045458555221558e-02
7.771158218383789062e-02
4.749570786952972412e-01
3.265806008130311966e-03
-1.837468445301055908e-01
-6.512986868619918823e-02
1.530513912439346313e-01
3.529535979032516479e-02
-5.982562154531478882e-02
2.249636873602867126e-02
1.469126641750335693e-01
-1.211881786584854126e-01
1.071419045329093933e-01
-1.631905436515808105e-01
3.421776369214057922e-02
1.000457778573036194e-01
7.592322677373886108e-02
-7.413402199745178223e-02
-1.588737517595291138e-01
-1.700660735368728638e-01
-9.081643074750900269e-02
-1.794887706637382507e-02
-4.391296207904815674e-02
-1.844091266393661499e-01
1.745960414409637451e-01
9.363305568695068359e-02
2.198813408613204956e-01
1.772841215133666992e-01
-6.047533452510833740e-02
3.466203808784484863e-02
4.576090350747108459e-02
8.122565224766731262e-03
-4.398120567202568054e-02
-8.262050151824951172e-02
7.654048386029899120e-04
-1.083997935056686401e-01
-1.320063918828964233e-01
7.946418225765228271e-02
-2.580356784164905548e-02
-4.952400177717208862e-02
-1.190539151430130005e-01
-2.777636237442493439e-02
2.958647608757019043e-01
6.969628483057022095e-02
4.870970174670219421e-02
-8.796859532594680786e-02
-7.748639583587646484e-02
2.335874438285827637e-01
-2.394514158368110657e-02
6.785619258880615234e-02
1.293468475341796875e-01
5.952978390268981457e-04
9.501129388809204102e-02
-2.790239155292510986e-01
-2.102148234844207764e-01
-5.271780490875244141e-02
-2.927751839160919189e-02
6.492201238870620728e-02
-1.128761097788810730e-01
-1.775085777044296265e-01
-1.009793579578399658e-01
-8.445017039775848389e-02
-5.479181930422782898e-02
6.795416772365570068e-02
1.301964223384857178e-01
2.663166522979736328e-01
2.061806470155715942e-01
6.959787756204605103e-02
-1.103723421692848206e-01
-9.114038199186325073e-02
8.249287307262420654e-02
1.175250113010406494e-01
5.204294249415397644e-02
-6.411158293485641479e-02
1.931455545127391815e-02
3.114636801183223724e-02
8.768933266401290894e-02
7.771820574998855591e-02
-7.209771871566772461e-02
-8.500906825065612793e-02
-5.702695343643426895e-03
1.424883753061294556e-01
-5.145008563995361328e-01
-4.637164995074272156e-02
-9.993718564510345459e-02
-1.176479458808898926e-01
9.647385217249393463e-03
-2.563063204288482666e-01
-1.714429818093776703e-02
8.906460553407669067e-02
-1.682418771088123322e-02
3.189896792173385620e-02
-1.441805064678192139e-01
-2.867332994937896729e-01
4.003114998340606689e-02
-8.661773800849914551e-02
1.421357244253158569e-01
-1.345189660787582397e-01
-3.731253147125244141e-01
4.588006809353828430e-02
3.524104133248329163e-02
9.205272793769836426e-02
-3.026952147483825684e-01
-2.283950150012969971e-01
1.459797751158475876e-02
-1.049848496913909912e-01
1.706995419226586819e-03
1.601320803165435791e-01
-1.799244731664657593e-01
-7.496631890535354614e-02
-1.272241920232772827e-01
-5.718916654586791992e-02
2.786691784858703613e-01
-1.599811576306819916e-02
-1.510005630552768707e-02
-2.699559368193149567e-02
3.682670369744300842e-02
-3.426691889762878418e-02
-6.312360055744647980e-03
-2.831924892961978912e-02
-1.091235596686601639e-02
6.106458604335784912e-02
7.820887118577957153e-02
-6.167540326714515686e-02
-4.508635401725769043e-02
-1.454353332519531250e-01
-4.263134673237800598e-03
-3.515366837382316589e-02
-2.384569644927978516e-01
-7.585606724023818970e-02
2.987857162952423096e-02
-1.541934162378311157e-01
4.999472573399543762e-02
2.648578882217407227e-01
3.065436482429504395e-01
-2.110110372304916382e-01
-4.586895555257797241e-02
2.868141280487179756e-03
1.390444934368133545e-01
-3.746458888053894043e-02
1.314831078052520752e-01
1.710457652807235718e-01
2.346299774944782257e-02
3.497070670127868652e-01
-1.348058581352233887e-01
-9.316014125943183899e-03
2.250119298696517944e-01
-5.263778194785118103e-02
2.698923945426940918e-01
-2.548770979046821594e-02
-2.663919627666473389e-01
-2.225624769926071167e-02
1.755090430378913879e-02
1.620199084281921387e-01
-2.982567995786666870e-02
-7.292908430099487305e-02
-2.323370054364204407e-02
1.326381266117095947e-01
1.027132570743560791e-01
1.623219549655914307e-01
1.458250582218170166e-01
-1.252645403146743774e-01
-7.035778462886810303e-02
9.411806613206863403e-02
-3.290876373648643494e-02
1.179603114724159241e-01
2.455130219459533691e-01
-1.507845371961593628e-01
2.921447157859802246e-02
5.984063725918531418e-03
-5.741564556956291199e-02
5.286273080855607986e-03
3.671409934759140015e-02
-4.785812273621559143e-02
2.566273696720600128e-02
6.993927527219057083e-03
8.184846490621566772e-03
2.117789350450038910e-02
-7.564333826303482056e-02
-2.206435054540634155e-02
2.040916532278060913e-01
7.301428169012069702e-02
2.375886030495166779e-02
-7.617655675858259201e-03
2.563338577747344971e-01
1.172104030847549438e-01
6.320756673812866211e-02
-1.321562565863132477e-02
-1.087413206696510315e-01
-2.921306341886520386e-02
3.917527571320533752e-02
-7.586297392845153809e-02
1.108998954296112061e-01
5.428799986839294434e-02
-1.121682580560445786e-02
7.623685151338577271e-02
-1.415734887123107910e-01
-5.468002706766128540e-02
6.108465418219566345e-02
5.302726477384567261e-02
6.684993952512741089e-02
-8.463849127292633057e-02
2.194637805223464966e-02
-9.357160888612270355e-03
1.068304702639579773e-01
6.165719404816627502e-02
1.426747255027294159e-02
-1.715773902833461761e-02
8.525859564542770386e-02
1.293600648641586304e-01
-2.394297719001770020e-02
-1.600427925586700439e-01
1.422825753688812256e-01
1.397674381732940674e-01
8.809975534677505493e-02
2.082309871912002563e-01
3.031219169497489929e-02
1.736964099109172821e-03
-7.084105908870697021e-02
7.261406630277633667e-02
-3.861851990222930908e-02
-1.025696247816085815e-01
4.195017367601394653e-02
-6.350120902061462402e-02
2.345023304224014282e-02
5.513637512922286987e-02
-9.357938170433044434e-02
1.155793890357017517e-01
8.967610448598861694e-02
1.525819599628448486e-01
7.577954232692718506e-02
-1.421433389186859131e-01
8.845277130603790283e-02
1.818169653415679932e-01
-1.357942074537277222e-02
6.062475964426994324e-02
-9.175008162856101990e-03
3.065081313252449036e-02
-4.632096365094184875e-02
5.554605275392532349e-02
3.808067739009857178e-02
-5.653635412454605103e-02
1.734056323766708374e-02
-1.628891676664352417e-01
4.068148846272379160e-04
-3.908393085002899170e-01
-6.319081783294677734e-02
-1.998987048864364624e-02
-2.350688725709915161e-01
-5.695530027151107788e-02
-3.221575617790222168e-01
-1.937148720026016235e-02
-2.030648589134216309e-01
-3.959046006202697754e-01
-4.860998094081878662e-01
5.447566136717796326e-02
5.975915864109992981e-02
1.883736252784729004e-01
-4.813611134886741638e-02
9.883952885866165161e-02
-4.332284256815910339e-02
-1.369090676307678223e-01
2.720769494771957397e-02
-5.838813260197639465e-02
4.083496984094381332e-03
-1.406908035278320312e-01
1.187827438116073608e-01
1.058859471231698990e-02
-1.174774467945098877e-01
3.883775323629379272e-02
1.463886201381683350e-01
1.594059169292449951e-01
-1.292486935853958130e-01
-1.291431486606597900e-01
8.853532373905181885e-02
2.829219698905944824e-01
-5.762727465480566025e-03
-2.742384187877178192e-02
7.932845503091812134e-03
3.404463529586791992e-01
2.487315088510513306e-01
3.875571787357330322e-01
9.420944750308990479e-02
-5.066046863794326782e-02
-1.817335188388824463e-01
1.866495981812477112e-02
-2.861329726874828339e-02
4.289501160383224487e-02
-3.393948450684547424e-02
-4.209823906421661377e-03
-4.890222474932670593e-02
-5.251381173729896545e-02
9.916327893733978271e-02
1.306363148614764214e-03
-1.890957057476043701e-01
-8.711054921150207520e-02
-1.349285393953323364e-01
-3.141693398356437683e-02
-5.810159444808959961e-02
3.168598189949989319e-02
-2.346328087151050568e-02
-8.045458048582077026e-02
2.068015038967132568e-01
1.020120307803153992e-01
1.877139955759048462e-01
1.438741385936737061e-01
-7.731075584888458252e-02
1.089915446937084198e-02
9.261355549097061157e-02
-4.804119095206260681e-02
-2.497356981039047241e-01
-2.396286725997924805e-01
6.941419094800949097e-02
-2.930658124387264252e-02
-3.021826781332492828e-02
-1.858152151107788086e-01
5.605652183294296265e-02
-7.602591812610626221e-02
-7.366815954446792603e-02
-1.138424873352050781e-02
-1.145542189478874207e-01
-1.126801967620849609e-01
-2.471247315406799316e-02
-5.301607772707939148e-02
-1.320431474596261978e-02
-2.392555214464664459e-02
2.468582428991794586e-02
-4.303017631173133850e-02
-1.508423835039138794e-01
6.187932938337326050e-02
6.821072846651077271e-02
4.862703010439872742e-02
-3.413141006603837013e-03
3.009182773530483246e-02
1.066299825906753540e-01
-1.592025905847549438e-02
1.076711043715476990e-01
1.574249565601348877e-01
2.387614548206329346e-01
1.326443403959274292e-01
9.688537567853927612e-02
9.077173657715320587e-03
1.020106524229049683e-01
2.192876040935516357e-01
8.485835045576095581e-02
-4.006981477141380310e-02
-2.833774685859680176e-02
6.361463107168674469e-03
1.066400334239006042e-01
6.295221298933029175e-02
-1.753625646233558655e-02
2.024434953927993774e-01
-5.664476007223129272e-02
-1.240206435322761536e-01
-2.606016099452972412e-01
-9.717418812215328217e-03
1.943343281745910645e-01
1.419418454170227051e-01
2.494344711303710938e-01
1.994877457618713379e-01
-2.166821658611297607e-01
-1.738504469394683838e-01
1.938065588474273682e-01
1.845769584178924561e-01
1.753428280353546143e-01
-1.199412643909454346e-01
-9.722559899091720581e-02
5.271611735224723816e-02
1.019421443343162537e-01
1.704435348510742188e-01
1.716731786727905273e-01
5.788701772689819336e-02
7.357094436883926392e-02
1.072552204132080078e-01
4.208476096391677856e-02
2.363028936088085175e-02
9.063343703746795654e-02
-4.214467480778694153e-02
4.955234378576278687e-02
-8.332023769617080688e-02
-1.442712843418121338e-01
4.712463822215795517e-03
8.257109671831130981e-02
-9.357250481843948364e-02
-1.669398099184036255e-01
-5.656211972236633301e-01
-2.524970769882202148e-01
4.003398492932319641e-02
1.332559883594512939e-01
1.032870188355445862e-01
-1.533276289701461792e-01
-2.698217332363128662e-01
-1.094557568430900574e-01
3.571185097098350525e-02
2.420353144407272339e-02
-6.092837452888488770e-02
-2.261911481618881226e-01
3.283168189227581024e-03
1.454115658998489380e-01
-4.561112448573112488e-02
-4.512728191912174225e-03
-1.239208728075027466e-01
2.719277739524841309e-01
2.973609566688537598e-01
-1.995377391576766968e-01
-1.169471964240074158e-01
-1.168921664357185364e-01
3.993828594684600830e-01
1.611328572034835815e-01
-3.135925158858299255e-02
-4.692734479904174805e-01
-3.953581750392913818e-01
3.226349055767059326e-01
1.718162745237350464e-01
1.559080779552459717e-01
-2.405880987644195557e-01
-1.654023528099060059e-01
4.167180955410003662e-01
-9.367879480123519897e-03
-7.618694752454757690e-02
1.354395318776369095e-02
-9.845066815614700317e-02
2.030737549066543579e-01
1.050193905830383301e-01
-2.472659945487976074e-01
7.997202128171920776e-02
-2.821640297770500183e-02
9.819554537534713745e-02
8.311040699481964111e-02
-9.439127147197723389e-02
-9.560365229845046997e-02
5.482923611998558044e-02
-2.502109110355377197e-01
-8.115601539611816406e-02
1.070841103792190552e-01
3.800508081912994385e-01
2.565944790840148926e-01
1.644150316715240479e-01
-1.339242756366729736e-01
-3.097355552017688751e-02
-1.555425822734832764e-01
2.239974215626716614e-02
2.629404067993164062e-01
-1.268250793218612671e-01
-5.127335712313652039e-02
1.295076012611389160e-01
3.818271681666374207e-02
1.035660281777381897e-01
-1.622936427593231201e-01
-8.353404700756072998e-02
-6.727766711264848709e-03
1.650000363588333130e-01
6.321118772029876709e-02
-3.964915871620178223e-03
-1.894950270652770996e-01
6.207921355962753296e-02
2.519395947456359863e-01
-9.137030690908432007e-02
-5.792559590190649033e-03
1.272669993340969086e-02
5.587143078446388245e-02
9.522969275712966919e-02
1.048445608466863632e-02
9.083524346351623535e-02
4.084154218435287476e-02
7.528550922870635986e-02
-6.740033626556396484e-02
9.311828762292861938e-02
-2.036554180085659027e-02
-4.107166826725006104e-02
5.009198188781738281e-02
-3.776468709111213684e-02
5.397187545895576477e-02
5.560018122196197510e-02
-8.230113983154296875e-02
-1.246460825204849243e-01
-1.126591712236404419e-01
3.399332612752914429e-02
7.947314530611038208e-02
-1.896296888589859009e-01
-4.318580776453018188e-02
-3.257571905851364136e-02
8.969986438751220703e-02
-7.509839255362749100e-03
-3.447082638740539551e-02
1.606186106801033020e-02
-2.535592913627624512e-01
2.044590115547180176e-01
-9.013613685965538025e-03
-1.922661066055297852e-01
-1.890731602907180786e-01
-1.285918205976486206e-01
2.626258432865142822e-01
1.453504562377929688e-01
-1.552023142576217651e-01
1.710866950452327728e-02
7.786194235086441040e-02
1.115188151597976685e-01
-2.971736714243888855e-02
-8.767281472682952881e-02
-4.972707480192184448e-02
1.156617850065231323e-01
-1.156868692487478256e-02
6.301978975534439087e-02
-1.866076723672449589e-03
8.073054999113082886e-02
1.302958428859710693e-01
2.276078909635543823e-01
3.983760625123977661e-02
-1.914213895797729492e-01
6.148310378193855286e-02
1.222758740186691284e-01
5.896312370896339417e-02
-7.496476173400878906e-02
6.914786994457244873e-02
-1.722382754087448120e-01
1.148806232959032059e-02
-3.780880477279424667e-03
-2.006870321929454803e-02
-6.617555767297744751e-02
-2.228437513113021851e-01
-3.807923942804336548e-02
-1.042719557881355286e-01
1.093608438968658447e-01
-1.269157230854034424e-02
-6.756918877363204956e-02
-1.482840180397033691e-01
1.380821038037538528e-02
-6.452498584985733032e-02
-9.132639504969120026e-03
9.814888983964920044e-02
-4.261828213930130005e-02
3.015398979187011719e-01
-3.440479561686515808e-02
-2.695576846599578857e-01
-4.541036188602447510e-01
-2.958729863166809082e-01
-4.040698707103729248e-02
1.669608950614929199e-01
1.770062297582626343e-01
-2.366700917482376099e-01
-1.439784169197082520e-01
-2.647988498210906982e-01
1.211635693907737732e-01
1.043987497687339783e-01
-4.004970937967300415e-02
3.530317172408103943e-02
-1.257851868867874146e-01
-1.698615252971649170e-01
1.495239138603210449e-02
1.288875564932823181e-02
-7.386916130781173706e-02
-1.357810795307159424e-01
-9.275008738040924072e-02
7.098171114921569824e-02
1.199251636862754822e-01
-1.613220423460006714e-01
3.437335137277841568e-03
2.013830840587615967e-01
2.288223952054977417e-01
2.961159124970436096e-02
1.388208717107772827e-01
4.551364853978157043e-02
3.020118176937103271e-01
2.605311870574951172e-01
2.496373802423477173e-01
3.199779195711016655e-03
1.095650121569633484e-01
3.617034479975700378e-02
2.011282294988632202e-01
-1.433811932802200317e-01
-2.571997344493865967e-01
-1.256918609142303467e-01
-6.361280381679534912e-02
5.142005532979965210e-02
-2.676329389214515686e-02
-2.499354183673858643e-01
-3.188687264919281006e-01
1.845674216747283936e-02
-9.357010573148727417e-02
1.273865550756454468e-01
-6.885223835706710815e-02
-2.986432909965515137e-01
-1.326293796300888062e-01
-1.188719365745782852e-02
2.254026085138320923e-01
3.125900328159332275e-01
-4.492533504962921143e-01
-1.557589918375015259e-01
4.319624602794647217e-02
8.844861388206481934e-02
3.810597658157348633e-01
-1.242493465542793274e-01
-1.171151474118232727e-01
-9.019276499748229980e-02
-1.805023550987243652e-01
-9.215754270553588867e-02
5.483801960945129395e-01
2.101523876190185547e-01
-2.269362062215805054e-01
-5.568368434906005859e-01
-3.344708979129791260e-01
5.295703411102294922e-01
3.922085165977478027e-01
-7.963923737406730652e-03
-2.652584910392761230e-01
-2.048559039831161499e-01
1.229533925652503967e-02
5.051760002970695496e-02
8.467158675193786621e-02
1.346190720796585083e-01
1.885102987289428711e-01
2.483314573764801025e-01
9.807547181844711304e-02
1.525716930627822876e-01
2.370402067899703979e-01
2.429043501615524292e-01
-9.702537208795547485e-03
3.563482314348220825e-02
1.732925325632095337e-01
6.793395429849624634e-02
1.173059344291687012e-01
1.544656008481979370e-01
1.894397437572479248e-01
9.369248896837234497e-02
3.675843402743339539e-02
6.530293822288513184e-02
-2.881312370300292969e-02
1.427138000726699829e-01
1.336853057146072388e-01
1.196589171886444092e-01
2.124072164297103882e-01
-1.449531875550746918e-02
6.681517511606216431e-02
7.361605763435363770e-02
-1.783127486705780029e-01
-5.177817121148109436e-02
-1.677162759006023407e-02
1.250095665454864502e-01
8.322846144437789917e-02
5.242538079619407654e-02
-5.831667780876159668e-02
1.210304126143455505e-01
1.394827812910079956e-01
5.507641285657882690e-02
-8.519506454467773438e-02
-1.359184831380844116e-01
-8.188416063785552979e-02
1.238070987164974213e-02
-3.367613628506660461e-02
-1.439409255981445312e-01
-8.668431080877780914e-03
-9.945973753929138184e-02
-2.531676739454269409e-02
-4.158082604408264160e-02
-1.783992648124694824e-01
1.850906461477279663e-01
8.724696817807853222e-04
1.418462544679641724e-01
-1.206628084182739258e-01
1.992604434490203857e-01
-5.962379649281501770e-02
9.566260874271392822e-02
2.201390564441680908e-01
2.544756829738616943e-01
1.479085981845855713e-01
1.388046294450759888e-01
-7.302216440439224243e-02
6.710282713174819946e-02
1.692110300064086914e-01
9.003746509552001953e-02
1.181992217898368835e-01
-1.572122424840927124e-02
7.391724735498428345e-02
1.069696098566055298e-01
6.441449373960494995e-02
-1.993848383426666260e-02
-1.079592034220695496e-01
1.815300248563289642e-02
-1.236512959003448486e-01
1.844742298126220703e-01
1.439723521471023560e-01
2.984675467014312744e-01
-5.209337919950485229e-02
1.772555708885192871e-01
-1.914556324481964111e-01
1.578159630298614502e-02
-8.611825108528137207e-02
-5.380511283874511719e-02
7.758351415395736694e-02
-3.515174984931945801e-02
-5.967155843973159790e-02
-1.473242491483688354e-01
-1.249542310833930969e-01
-6.951726227998733521e-02
-1.091164126992225647e-01
-2.727884352207183838e-01
4.283111914992332458e-02
-1.609410643577575684e-01
-1.683490164577960968e-02
2.306652367115020752e-01
-1.766352057456970215e-01
1.359142512083053589e-01
-1.790483593940734863e-01
-9.962392598390579224e-02
3.631508052349090576e-01
-2.143363654613494873e-01
1.247064024209976196e-01
-8.289633691310882568e-02
-1.528697907924652100e-01
1.812990158796310425e-01
1.372961699962615967e-01
2.171849459409713745e-02
-1.066501215100288391e-01
-1.599178016185760498e-01
1.309639494866132736e-02
3.976222127676010132e-03
-2.690031938254833221e-02
-2.833624780178070068e-01
-4.947383422404527664e-03
1.462274044752120972e-01
9.479441493749618530e-02
-1.672242209315299988e-02
-1.614244580268859863e-01
5.234250426292419434e-02
-3.037403710186481476e-02
-1.358159631490707397e-01
-7.613797485828399658e-02
6.960961222648620605e-02
2.495255470275878906e-01
-1.511004418134689331e-01
-1.509509086608886719e-01
-8.508302271366119385e-02
-6.243972107768058777e-02
-1.457013785839080811e-01
1.003939658403396606e-02
8.788825571537017822e-02
9.480435401201248169e-02
1.381864547729492188e-01
6.766913831233978271e-02
8.377151936292648315e-02
-1.170690450817346573e-02
-3.037357516586780548e-02
2.403143793344497681e-01
-1.430474966764450073e-01
-8.764278143644332886e-03
4.868113994598388672e-02
-1.506106257438659668e-01
4.195322990417480469e-01
2.462073564529418945e-01
-2.069650590419769287e-01
-1.596754640340805054e-01
-4.046092927455902100e-01
1.629152745008468628e-01
1.241134777665138245e-01
-1.433239430189132690e-01
-5.729338154196739197e-02
-1.528245862573385239e-02
-6.226146221160888672e-02
-1.389163881540298462e-01
-5.249924212694168091e-02
1.749923452734947205e-02
-4.654942546039819717e-03
7.823421061038970947e-02
1.001182477921247482e-02
-2.581852860748767853e-02
-1.247445270419120789e-01
1.683834567666053772e-02
5.479500815272331238e-02
-9.921243786811828613e-02
-4.576404392719268799e-02
-1.064658164978027344e-01
-1.374450922012329102e-01
-4.338284954428672791e-02
1.477892845869064331e-01
-1.068742871284484863e-01
2.347536385059356689e-03
-2.945153973996639252e-02
-8.196560293436050415e-02
5.847441777586936951e-02
-2.275638654828071594e-02
9.303755126893520355e-03
-1.124546155333518982e-01
8.528025448322296143e-02
1.339316368103027344e-01
1.396858543157577515e-01
-7.560792844742536545e-03
-1.810321025550365448e-02
6.180581077933311462e-02
1.706225872039794922e-01
7.271750271320343018e-02
1.297912839800119400e-02
-1.116709224879741669e-02
-8.982992172241210938e-02
-9.915965609252452850e-03
-5.161600187420845032e-03
-4.812332801520824432e-03
8.936629444360733032e-02
-4.086335748434066772e-02
-9.237837791442871094e-02
-4.734792932868003845e-02
1.873869216069579124e-03
2.666008770465850830e-01
2.213608622550964355e-01
9.605424851179122925e-02
1.083786189556121826e-01
1.016803383827209473e-01
1.581187397241592407e-01
-8.230364322662353516e-02
1.808418892323970795e-02
9.538862854242324829e-02
-7.459425181150436401e-02
1.010631546378135681e-01
-1.769149452447891235e-01
-4.209958016872406006e-02
-2.673367783427238464e-02
-3.986455872654914856e-02
6.010442599654197693e-02
-5.756933987140655518e-02
-6.808706372976303101e-02
-8.534780889749526978e-02
1.746363006532192230e-02
3.687260206788778305e-03
2.603431642055511475e-01
-9.016072005033493042e-02
2.248809300363063812e-02
-1.347409486770629883e-01
6.200899183750152588e-02
3.742023110389709473e-01
2.996290661394596100e-02
-1.632875204086303711e-02
1.605522334575653076e-01
2.686801925301551819e-02
-1.802794076502323151e-02
2.080634236335754395e-02
9.604339301586151123e-02
1.641866713762283325e-01
-2.941497368738055229e-03
9.977414458990097046e-02
-5.717377644032239914e-03
-1.603513211011886597e-01
-1.358683854341506958e-01
7.228922098875045776e-02
-2.366549707949161530e-02
-2.646303921937942505e-02
-2.078493358567357063e-03
-1.532812416553497314e-01
-1.175689473748207092e-01
-6.458221375942230225e-02
-1.220673248171806335e-01
3.046737611293792725e-02
2.002885937690734863e-01
4.501554369926452637e-02
-5.609654784202575684e-01
-4.017878770828247070e-01
-1.144418343901634216e-01
-2.585248053073883057e-01
8.108309656381607056e-02
-1.572082564234733582e-02
6.657191365957260132e-02
-1.352081894874572754e-01
-1.314518600702285767e-01
1.090148314833641052e-01
9.539501741528511047e-03
-6.408722698688507080e-02
-1.102594733238220215e-01
-1.149795204401016235e-01
-8.968473225831985474e-02
5.134347826242446899e-02
-2.490008622407913208e-02
1.917060166597366333e-01
1.374692767858505249e-01
-7.555872946977615356e-02
1.598113924264907837e-01
1.705346256494522095e-02
1.646171510219573975e-01
-5.953701585531234741e-02
-1.356154680252075195e-01
-1.239533536136150360e-02
3.433975279331207275e-01
1.873061060905456543e-01
1.621044874191284180e-01
-3.091817721724510193e-02
1.705496571958065033e-02
-1.172745525836944580e-01
-3.745415210723876953e-01
1.593536324799060822e-02
3.621086478233337402e-01
-7.888612151145935059e-02
-1.192340627312660217e-01
-2.673619985580444336e-01
-1.218317896127700806e-01
-1.131085380911827087e-01
-1.001231819391250610e-01
5.022956803441047668e-02
7.398750633001327515e-02
-1.605802215635776520e-02
-7.434604316949844360e-02
-1.110967155545949936e-02
2.217917442321777344e-01
4.830203056335449219e-01
2.032424509525299072e-01
-1.538735777139663696e-01
2.936660051345825195e-01
3.715873360633850098e-01
5.324206352233886719e-01
1.378435492515563965e-01
1.093577966094017029e-01
3.724054992198944092e-02
6.384059041738510132e-02
-4.078376665711402893e-02
-1.537133008241653442e-01
2.794890291988849640e-02
2.816139906644821167e-02
-4.690984264016151428e-02
1.279159635305404663e-01
-1.075320839881896973e-01
2.892814762890338898e-02
2.508286572992801666e-02
8.732988685369491577e-02
1.600273549556732178e-01
5.560976266860961914e-02
2.796905301511287689e-02
-1.403075456619262695e-01
-6.390427798032760620e-02
-3.771224524825811386e-03
7.963386923074722290e-02
-1.201380416750907898e-01
-5.532293394207954407e-02
-9.479081258177757263e-03
-1.676323264837265015e-01
1.071018874645233154e-01
-2.293809652328491211e-01
-9.188892692327499390e-02
4.664114490151405334e-02
6.490133702754974365e-02
-3.135799244046211243e-02
-4.297392442822456360e-02
-2.411772496998310089e-02
6.756518781185150146e-02
1.949273496866226196e-01
1.415566802024841309e-01
-1.335716694593429565e-01
8.146943151950836182e-02
1.057081073522567749e-01
1.584857888519763947e-02
5.811648070812225342e-02
6.926819682121276855e-02
1.283682286739349365e-01
1.079916208982467651e-01
1.368981450796127319e-01
2.500136494636535645e-01
-6.815025955438613892e-02
-3.035716116428375244e-01
-1.806310713291168213e-01
-4.332036674022674561e-01
-2.112018316984176636e-01
-8.663836866617202759e-02
-1.211225017905235291e-01
7.416570186614990234e-02
2.365256547927856445e-01
-4.781166091561317444e-02
1.558094322681427002e-01
-2.499218657612800598e-02
8.536415547132492065e-02
-5.645019933581352234e-02
-4.369933903217315674e-02
2.751635015010833740e-02
-2.210058830678462982e-02
1.162196397781372070e-01
2.968647703528404236e-02
9.935142099857330322e-02
-4.133164510130882263e-02
5.129374936223030090e-02
5.275727249681949615e-03
2.026567794382572174e-02
5.046174302697181702e-02
5.840406194329261780e-02
2.727923914790153503e-02
-1.544087082147598267e-01
-1.827104836702346802e-01
-2.008512914180755615e-01
-1.179477944970130920e-01
-4.995278641581535339e-02
1.424309015274047852e-01
1.323538720607757568e-01
-3.489406406879425049e-02
2.617200836539268494e-02
9.235651791095733643e-02
1.405117064714431763e-01
3.102746792137622833e-02
-4.462489485740661621e-02
6.517849117517471313e-02
6.087820604443550110e-02
3.852535784244537354e-02
-2.641228139400482178e-01
-1.868223212659358978e-02
5.255664139986038208e-02
9.471399337053298950e-02
-7.193170487880706787e-02
-1.059831455349922180e-01
4.513974860310554504e-02
-1.275954842567443848e-01
-2.607629299163818359e-01
-3.510430455207824707e-01
-1.631616801023483276e-01
1.248020026832818985e-02
7.527953386306762695e-02
1.016813442111015320e-01
1.732138246297836304e-01
-4.739693552255630493e-02
-9.282902628183364868e-02
-3.215049952268600464e-02
-9.444327652454376221e-02
3.920006379485130310e-02
8.461637794971466064e-02
-7.774659991264343262e-02
-5.369798094034194946e-02
-2.279008179903030396e-01
5.902153626084327698e-02
-2.022360637784004211e-02
-8.994448930025100708e-02
1.841041743755340576e-01
-1.297264993190765381e-01
-1.191695109009742737e-01
-1.475175172090530396e-01
1.570530422031879425e-02
5.476691946387290955e-02
1.240156441926956177e-01
-1.894334852695465088e-01
9.237962216138839722e-02
1.884644478559494019e-01
5.619273334741592407e-02
-1.744916886091232300e-01
-7.915462553501129150e-02
3.912816941738128662e-01
-2.750810086727142334e-01
1.557146478444337845e-02
-1.811789125204086304e-01
1.129575371742248535e-01
3.406730592250823975e-01
3.194563984870910645e-01
-1.185248792171478271e-02
-1.824787706136703491e-01
-1.010328531265258789e-01
-1.461526006460189819e-01
3.729110658168792725e-01
-8.561777323484420776e-02
-9.324131160974502563e-02
2.119497023522853851e-02
-3.579879105091094971e-01
1.693081855773925781e-01
-1.432812362909317017e-01
2.071967720985412598e-01
8.281834423542022705e-03
-1.524035781621932983e-01
-1.154308766126632690e-01
9.764105081558227539e-03
2.196914516389369965e-02
1.178747490048408508e-01
-3.995702601969242096e-03
2.875653095543384552e-02
-1.189895793795585632e-01
-4.012718424201011658e-02
-7.554274797439575195e-02
1.279263496398925781e-01
3.001967072486877441e-01
-3.001938341185450554e-03
7.613193709403276443e-03
-3.133550053462386131e-03
-1.100050508975982666e-01
8.210372179746627808e-02
3.482408449053764343e-02
2.649480104446411133e-02
3.021248243749141693e-02
1.490636467933654785e-01
-6.407464295625686646e-02
1.828090250492095947e-01
8.282734453678131104e-02
1.024230122566223145e-01
6.661769747734069824e-02
-1.364646553993225098e-01
-1.067457571625709534e-01
-5.134862661361694336e-02
6.319946050643920898e-02
9.275592863559722900e-02
2.606731355190277100e-01
-3.076978027820587158e-02
-1.169850081205368042e-01
1.325993984937667847e-01
-1.734734512865543365e-02
4.842715337872505188e-02
-6.144986301660537720e-02
-5.087541788816452026e-02
1.692367494106292725e-01
1.077808737754821777e-01
9.320162236690521240e-03
1.335626002401113510e-02
-5.317753180861473083e-02
9.150272607803344727e-02
1.531563550233840942e-01
1.790092885494232178e-02
-2.357086092233657837e-01
-2.558971643447875977e-01
-3.547697961330413818e-01
-7.260533422231674194e-02
-1.149785611778497696e-02
-1.939364522695541382e-01
-2.011971473693847656e-01
1.817726790904998779e-01
9.287182986736297607e-02
-2.361552789807319641e-02
-1.058215945959091187e-01
-1.457780748605728149e-01
1.588320434093475342e-01
2.638073563575744629e-01
3.353127837181091309e-01
2.315611764788627625e-02
1.558827012777328491e-01
1.241975948214530945e-01
-5.597921833395957947e-02
2.557192444801330566e-01
1.114731803536415100e-01
2.700287289917469025e-02
-7.488644868135452271e-02
1.134247481822967529e-01
1.520227193832397461e-01
7.868514209985733032e-02
-9.039063006639480591e-02
-7.510662078857421875e-02
-1.731795258820056915e-02
2.587628923356533051e-02
1.751416176557540894e-01
7.443271577358245850e-02
-3.094865679740905762e-01
-1.115366294980049133e-01
1.346086561679840088e-01
2.514609694480895996e-01
2.894017659127712250e-02
-1.614758372306823730e-02
-2.402241155505180359e-02
8.571676164865493774e-02
-5.367038398981094360e-02
1.146655231714248657e-01
-1.715665310621261597e-02
-2.140451222658157349e-02
-1.644399575889110565e-02
1.038125753402709961e-01
-9.545578062534332275e-02
2.720683813095092773e-02
2.680978272110223770e-03
1.080998480319976807e-01
2.341519445180892944e-01
3.284670114517211914e-01
3.322609364986419678e-01
2.454734444618225098e-01
5.551152676343917847e-02
-3.608491644263267517e-02
3.254226222634315491e-02
2.877183556556701660e-01
4.275975376367568970e-02
8.382689207792282104e-02
-2.707956545054912567e-02
1.795384585857391357e-01
1.025030985474586487e-01
1.506208907812833786e-03
6.099520623683929443e-02
-1.453533023595809937e-01
2.604091465473175049e-01
7.921507582068443298e-03
2.556506916880607605e-02
1.387433707714080811e-01
-1.676674932241439819e-01
2.476888000965118408e-01
1.640225499868392944e-01
2.407929114997386932e-02
1.239698659628629684e-02
1.130670532584190369e-01
5.217847228050231934e-01
1.668836474418640137e-01
6.477183103561401367e-02
7.880599796772003174e-02
-3.149133026599884033e-01
-5.481476336717605591e-02
1.219265535473823547e-01
1.264271289110183716e-01
7.964787632226943970e-02
-1.421949416399002075e-01
4.780169576406478882e-02
1.373833715915679932e-01
-1.736964881420135498e-01
-1.713387817144393921e-01
-7.063082605600357056e-02
7.618843764066696167e-02
-2.821378707885742188e-01
-6.920447945594787598e-02
-1.839728280901908875e-02
-1.486408151686191559e-02
1.612334400415420532e-01
1.347809880971908569e-01
1.560969203710556030e-01
2.415384948253631592e-01
-1.417404413223266602e-01
2.096256017684936523e-01
-5.027276650071144104e-02
-2.225424647331237793e-01
-8.725875616073608398e-02
-1.534823626279830933e-01
1.085663912817835808e-03
1.355986595153808594e-01
5.421645566821098328e-02
8.589208871126174927e-02
-1.958619654178619385e-01
4.373906180262565613e-03
1.799369752407073975e-01
3.427574038505554199e-02
2.409093268215656281e-02
1.140846535563468933e-01
1.646418683230876923e-02
1.008152291178703308e-01
8.751123398542404175e-02
1.003890410065650940e-01
1.094035990536212921e-02
5.861821398138999939e-02
-4.540489986538887024e-03
2.845265157520771027e-02
-8.537925034761428833e-02
-7.555595785379409790e-02
1.913627833127975464e-01
-1.558806896209716797e-01
-1.202031224966049194e-02
-2.161968052387237549e-01
1.023071631789207458e-01
-1.055995002388954163e-01
-3.438847139477729797e-02
-1.931286454200744629e-01
-1.441197544336318970e-01
7.703515887260437012e-02
-1.432275027036666870e-01
-3.081914782524108887e-02
6.730042863637208939e-03
-4.692355543375015259e-02
1.309324651956558228e-01
5.587802454829216003e-02
1.258017569780349731e-01
7.018642872571945190e-02
9.837515652179718018e-03
-1.000341121107339859e-02
-4.507322236895561218e-02
-3.362471237778663635e-02
9.228995442390441895e-02
-6.139839440584182739e-02
1.412658095359802246e-01
-7.996660470962524414e-02
-1.780633777379989624e-01
-1.089142411947250366e-01
-1.246790662407875061e-01
4.198881238698959351e-02
1.115740612149238586e-01
-6.295708566904067993e-02
1.376542914658784866e-02
6.643768399953842163e-02
-1.627207249402999878e-01
-8.712920546531677246e-02
1.323395669460296631e-01
2.313385903835296631e-02
1.110159754753112793e-01
-1.078103482723236084e-01
1.782563030719757080e-01
4.935247078537940979e-02
-2.541997283697128296e-02
-6.537832319736480713e-02
5.965736135840415955e-02
-5.577970761805772781e-03
-7.777945697307586670e-02
-5.325768142938613892e-02
-5.881222710013389587e-02
-7.785104960203170776e-02
-6.666995584964752197e-02
-2.678793966770172119e-01
-7.697347551584243774e-02
-1.276572048664093018e-01
1.949400901794433594e-01
-4.485481604933738708e-02
-2.638262324035167694e-02
2.201475799083709717e-01
-5.066765844821929932e-02
-1.581157147884368896e-01
-7.647239416837692261e-02
-9.906338900327682495e-02
-5.772324744611978531e-03
5.136572569608688354e-02
1.066609770059585571e-01
1.525786798447370529e-02
1.902467384934425354e-02
-9.518133848905563354e-02
-6.633676588535308838e-03
-9.236212819814682007e-03
1.045981273055076599e-01
2.379093468189239502e-01
-1.390727460384368896e-01
7.817094027996063232e-02
-2.387520074844360352e-01
-1.103324219584465027e-01
-2.507579326629638672e-01
1.926658898591995239e-01
2.638391852378845215e-01
-1.411011219024658203e-01
4.257910698652267456e-02
2.362942881882190704e-02
-4.141192510724067688e-02
1.287243980914354324e-02
-1.941289454698562622e-01
3.320764750242233276e-02
-1.316147893667221069e-01
-1.746842861175537109e-01
9.492430835962295532e-02
9.685004502534866333e-02
-7.279805094003677368e-02
-1.514911502599716187e-01
2.950959466397762299e-02
1.533916145563125610e-01
3.429303318262100220e-02
-1.187490969896316528e-01
-1.587891876697540283e-01
2.304879873991012573e-01
2.506465315818786621e-01
-1.455763727426528931e-01
1.298664510250091553e-01
9.851045906543731689e-02
3.204568326473236084e-01
4.175789356231689453e-01
1.416973918676376343e-01
4.086883366107940674e-01
4.235320985317230225e-01
1.722635030746459961e-01
-1.197062805294990540e-01
6.857714056968688965e-02
1.495103240013122559e-01
1.261068135499954224e-01
-5.120662227272987366e-02
-1.425332725048065186e-01
-4.941196739673614502e-02
1.255279034376144409e-01
-7.221426069736480713e-02
-1.003788411617279053e-01
-1.740342378616333008e-01
-3.032745420932769775e-01
-1.134344935417175293e-01
-2.156165428459644318e-02
-2.122551202774047852e-01
-9.355121850967407227e-02
-2.105912268161773682e-01
-2.946658432483673096e-01
-3.397379070520401001e-02
-1.433699429035186768e-01
2.588761150836944580e-01
-1.725128740072250366e-01
1.478927303105592728e-02
-4.204744473099708557e-02
4.761871881783008575e-03
2.359763830900192261e-01
1.284310668706893921e-01
6.379879266023635864e-02
-1.457006186246871948e-01
3.130011260509490967e-02
-8.002179861068725586e-02
7.304538786411285400e-02
8.337701857089996338e-02
1.632275991141796112e-02
-1.862248219549655914e-02
-3.882117941975593567e-02
-8.612377941608428955e-02
1.728903353214263916e-01
-4.765135701745748520e-03
9.898880124092102051e-02
-3.340546041727066040e-02
8.522165566682815552e-02
2.711619995534420013e-02
1.633689403533935547e-01
2.921559289097785950e-02
-7.157208770513534546e-02
-1.559203118085861206e-01
-1.065160036087036133e-01
-2.084203362464904785e-01
-1.468754261732101440e-01
-1.838703751564025879e-01
-1.791376471519470215e-01
1.782158948481082916e-02
1.245278120040893555e-01
1.787859760224819183e-02
-9.359832853078842163e-02
-4.706696793437004089e-02
3.849961608648300171e-02
4.206089302897453308e-03
2.102410048246383667e-01
-1.304596513509750366e-01
5.161387473344802856e-02
2.772551476955413818e-01
2.357015945017337799e-02
2.212537229061126709e-01
-1.747214049100875854e-01
-1.703518480062484741e-01
1.763468086719512939e-01
-6.102675199508666992e-02
2.250332534313201904e-01
-5.226281657814979553e-02
1.578762233257293701e-01
1.305299103260040283e-01
1.815631799399852753e-02
1.338270902633666992e-01
1.314916163682937622e-01
2.576402425765991211e-01
2.909413725137710571e-02
-2.490361332893371582e-01
6.103061139583587646e-02
-6.896132230758666992e-02
2.759378254413604736e-01
1.446421146392822266e-01
-1.331320255994796753e-01
9.184581786394119263e-02
-1.861332729458808899e-02
1.965343356132507324e-01
1.746563911437988281e-01
1.837671548128128052e-01
-7.079516351222991943e-02
-7.792390137910842896e-02
-2.507161721587181091e-02
-1.805498264729976654e-02
1.101986095309257507e-01
2.004594206809997559e-01
-7.098873704671859741e-02
-5.455891788005828857e-02
4.213197529315948486e-02
-4.051540046930313110e-02
3.846258297562599182e-02
3.745163604617118835e-02
-5.052868276834487915e-02
6.937122344970703125e-02
-1.629022508859634399e-02
-7.073093205690383911e-02
-1.809345744550228119e-02
-7.067606598138809204e-02
-2.845494262874126434e-02
4.703754093497991562e-03
-5.917691066861152649e-02
2.071467414498329163e-02
-6.711980700492858887e-02
-4.149973019957542419e-02
8.520779199898242950e-03
-5.942437797784805298e-03
1.265147351659834385e-03
-3.578843176364898682e-02
2.974572405219078064e-02
7.417012006044387817e-02
-3.429045528173446655e-02
-2.995136007666587830e-02
4.612698033452033997e-02
6.047384440898895264e-02
-5.641293153166770935e-02
6.455737352371215820e-02
-2.665581367909908295e-02
2.775286510586738586e-02
-3.309062495827674866e-02
-8.338224887847900391e-02
-3.568143025040626526e-02
-3.698239801451563835e-03
6.462949514389038086e-02
3.480092855170369148e-03
-2.865558490157127380e-02
6.810733466409146786e-04
-2.895150706171989441e-02
-2.003937214612960815e-02
-1.856647804379463196e-02
7.090862840414047241e-02
6.116247922182083130e-02
-5.265389010310173035e-02
-2.544724941253662109e-02
1.097550988197326660e-02
-7.866057753562927246e-02
8.593588136136531830e-03
3.826901689171791077e-02
-5.009650066494941711e-02
-3.593505546450614929e-02
1.793038472533226013e-02
7.460135500878095627e-03
-4.504104703664779663e-02
-2.587334625422954559e-02
3.066412732005119324e-02
-7.325826585292816162e-02
-7.605342566967010498e-02
5.107390228658914566e-03
-4.463211074471473694e-02
-3.977208584547042847e-02
6.500580906867980957e-02
-7.627154886722564697e-02
-7.155476510524749756e-02
4.921942949295043945e-02
-1.829518191516399384e-02
-5.310034751892089844e-02
-4.223207384347915649e-02
5.604838952422142029e-02
-8.218938857316970825e-02
-1.634332910180091858e-02
-1.102597638964653015e-02
2.625936456024646759e-02
-5.552933737635612488e-02
3.067580796778202057e-02
3.835219889879226685e-02
7.433100044727325439e-02
5.513921007513999939e-02
-5.152544379234313965e-02
-2.341831661760807037e-02
1.612532697618007660e-02
6.108258664608001709e-02
-7.124078273773193359e-02
2.422140538692474365e-02
-6.119078397750854492e-02
8.023760467767715454e-02
-8.312281966209411621e-02
1.469939015805721283e-02
-1.599693857133388519e-02
4.750080406665802002e-02
-4.546332359313964844e-02
-6.125605106353759766e-02
7.023507263511419296e-03
-3.472452238202095032e-02
-3.469726070761680603e-02
-8.610414224676787853e-04
6.212012469768524170e-02
6.875133514404296875e-02
3.259102627635002136e-02
4.496049135923385620e-02
-7.013243436813354492e-02
-6.405892223119735718e-02
-5.629884079098701477e-02
5.257648602128028870e-02
-8.597045205533504486e-03
-3.011571243405342102e-02
2.658310532569885254e-02
-7.493832707405090332e-02
1.411159173585474491e-03
-7.353207468986511230e-02
-5.498388409614562988e-02
-4.772672802209854126e-02
-1.857761293649673462e-02
5.751854926347732544e-02
-5.145226046442985535e-02
-7.480575144290924072e-02
-3.367914631962776184e-02
-6.142259016633033752e-02
-4.062380269169807434e-02
-3.510062023997306824e-02
-7.933846861124038696e-02
1.095811929553747177e-02
-1.259674225002527237e-02
-5.621820315718650818e-02
-2.126908674836158752e-02
5.049992818385362625e-03
-5.357766058295965195e-03
2.733842283487319946e-02
-7.225597649812698364e-02
5.198209360241889954e-02
-7.920952886343002319e-02
4.191555082798004150e-02
-6.801734212785959244e-03
7.155650109052658081e-02
4.799057915806770325e-02
7.333058118820190430e-02
8.290367200970649719e-03
5.838069692254066467e-02
6.080609932541847229e-02
-5.011555552482604980e-02
-4.855017364025115967e-02
-2.462245151400566101e-02
3.091410361230373383e-02
-3.893692046403884888e-03
6.788402795791625977e-02
5.667503550648689270e-02
6.083346530795097351e-02
-7.710953056812286377e-02
-4.786618798971176147e-02
