5.234698206186294556e-02
3.951941430568695068e-02
7.829885929822921753e-03
7.277562469244003296e-02
2.611241862177848816e-02
5.702757276594638824e-03
2.831692341715097427e-03
-3.299237415194511414e-02
3.891018033027648926e-02
-2.543417736887931824e-02
5.613419413566589355e-02
1.370169594883918762e-02
-4.667235910892486572e-02
-3.826734051108360291e-02
-5.444946885108947754e-02
1.669432036578655243e-02
-3.613362833857536316e-02
-5.598768964409828186e-02
7.184144109487533569e-02
-4.882310517132282257e-03
9.475257992744445801e-02
-2.931344509124755859e-02
3.727906197309494019e-02
6.028422713279724121e-02
-6.662130821496248245e-03
3.905635699629783630e-02
-6.101648882031440735e-02
4.007094725966453552e-02
4.871514067053794861e-02
5.622086580842733383e-03
3.156441450119018555e-02
2.018837817013263702e-02
9.567316621541976929e-02
-1.605630293488502502e-02
-6.323424726724624634e-02
-1.488060876727104187e-02
-9.723161347210407257e-03
-1.465661916881799698e-02
-4.881727695465087891e-02
3.023248538374900818e-02
-1.890954375267028809e-02
3.473838791251182556e-02
1.778746023774147034e-02
5.729229003190994263e-02
-2.117593027651309967e-02
7.132808212190866470e-03
-3.432298451662063599e-02
-5.074783693999052048e-03
-2.956013195216655731e-02
-5.647708475589752197e-02
4.828138649463653564e-02
-3.416071087121963501e-02
-3.906786814332008362e-02
6.138074398040771484e-02
1.977385021746158600e-03
-1.904142647981643677e-02
5.692320317029953003e-02
3.300832211971282959e-02
3.102662414312362671e-02
7.897001504898071289e-02
1.926694065332412720e-03
-5.097057297825813293e-02
-2.097697230055928230e-03
7.309988886117935181e-02
-6.807825714349746704e-02
-2.192550338804721832e-03
-1.244832016527652740e-02
3.910811617970466614e-02
1.977401785552501678e-02
-4.540787637233734131e-02
8.584444969892501831e-02
-4.590984806418418884e-02
-2.434411831200122833e-02
3.076438978314399719e-02
3.834262117743492126e-02
-5.715613812208175659e-02
-9.705647826194763184e-03
6.295451894402503967e-03
4.903891310095787048e-02
-7.949585467576980591e-02
5.636273324489593506e-02
3.507436439394950867e-02
-1.762004569172859192e-02
8.229715377092361450e-02
3.114824742078781128e-02
3.234927356243133545e-02
4.015928506851196289e-02
7.166405022144317627e-02
-4.508306272327899933e-03
5.122699961066246033e-02
3.914519399404525757e-02
4.964086692780256271e-03
7.992985099554061890e-02
9.689314290881156921e-03
2.621424384415149689e-02
5.888789892196655273e-02
2.715053968131542206e-02
3.698539361357688904e-02
7.262270152568817139e-02
-3.017514571547508240e-02
3.406819328665733337e-02
1.911945268511772156e-02
4.457122460007667542e-02
2.567647956311702728e-02
-4.807120934128761292e-02
6.919208914041519165e-02
2.012923173606395721e-02
2.239062823355197906e-02
7.669866830110549927e-02
3.742239205166697502e-03
6.709729135036468506e-02
-1.795920915901660919e-02
4.957991465926170349e-02
7.499548792839050293e-02
-6.109600514173507690e-02
-3.101573511958122253e-02
3.197716176509857178e-02
3.246013447642326355e-02
-6.066428869962692261e-02
1.786184310913085938e-02
