-7.941725850105285645e-02
2.418536320328712463e-02
-5.455003306269645691e-02
-6.910676509141921997e-02
-5.962384864687919617e-02
1.771284826099872589e-02
-3.988380730152130127e-02
-2.309396117925643921e-02
-6.945454329252243042e-02
5.035753175616264343e-02
2.696878463029861450e-02
1.852525770664215088e-02
-5.940302740782499313e-03
7.985308766365051270e-02
6.190302968025207520e-02
-2.627335488796234131e-02
-1.979364827275276184e-02
-5.147246993146836758e-04
-2.598907239735126495e-02
-5.344677343964576721e-02
-1.232570596039295197e-02
-2.676059491932392120e-02
-2.397177740931510925e-02
-4.326182883232831955e-03
5.436429008841514587e-02
1.916540972888469696e-02
3.773224353790283203e-02
3.232026100158691406e-02
-4.370423033833503723e-02
2.907904796302318573e-02
2.048351801931858063e-02
-9.971336461603641510e-03
-5.177727341651916504e-02
2.618317306041717529e-02
-1.831002905964851379e-02
-1.831069239415228367e-03
-2.121093682944774628e-02
-4.133238270878791809e-02
-2.990955673158168793e-02
2.989989938214421272e-03
-2.917989157140254974e-02
-7.093557156622409821e-03
-2.672335691750049591e-02
2.672962099313735962e-02
2.522729150950908661e-02
2.250358089804649353e-02
7.127762585878372192e-02
3.209223970770835876e-02
-3.888882929459214211e-03
4.160723648965358734e-03
-8.733268827199935913e-02
-4.235094040632247925e-02
-3.650517761707305908e-02
3.865842893719673157e-02
-1.618364267051219940e-02
2.492990531027317047e-02
-6.721673905849456787e-02
-7.016102783381938934e-03
1.670421188464388251e-04
4.430206492543220520e-02
5.562689527869224548e-02
3.514747694134712219e-02
-6.274152547121047974e-03
-2.422451227903366089e-02
9.520461782813072205e-03
-2.313143387436866760e-02
2.159980498254299164e-02
-2.065414190292358398e-02
3.757072985172271729e-02
-6.044419109821319580e-02
-5.180468782782554626e-02
-1.120804063975811005e-02
-6.381426751613616943e-02
-4.926813766360282898e-02
4.465451464056968689e-02
-3.203575313091278076e-02
3.862214460968971252e-02
-3.018439933657646179e-02
2.368143573403358459e-02
8.109848946332931519e-02
3.502410650253295898e-02
8.695269003510475159e-03
-2.944912062957882881e-03
-5.731481686234474182e-02
2.223403193056583405e-02
-3.046653233468532562e-02
5.381444934755563736e-03
-3.279131278395652771e-02
-4.030257090926170349e-02
-5.823076888918876648e-02
-6.346613168716430664e-02
1.792023703455924988e-02
1.938698254525661469e-02
-6.498942524194717407e-02
-2.530950494110584259e-02
-4.333078116178512573e-02
-2.856159582734107971e-02
6.762865814380347729e-04
-5.121859908103942871e-02
5.759431794285774231e-02
2.032577246427536011e-02
3.540271148085594177e-02
2.811442129313945770e-02
-7.296390365809202194e-03
4.094624519348144531e-02
4.258182831108570099e-03
-4.299174621701240540e-02
-5.216192454099655151e-02
7.885461300611495972e-02
-4.586690920405089855e-05
-2.948106825351715088e-02
5.508421361446380615e-02
1.834694878198206425e-03
2.194539643824100494e-02
-3.134642913937568665e-02
-4.882255196571350098e-02
-3.276086971163749695e-02
5.488584935665130615e-02
-3.453163057565689087e-02
5.712151899933815002e-02
1.585024595260620117e-02
-2.381799509748816490e-03
-4.907249286770820618e-02
9.371527470648288727e-03
4.477907344698905945e-02
-7.050830125808715820e-02
2.933179214596748352e-02
2.742235362529754639e-02
-3.031306900084018707e-02
-1.518884953111410141e-02
3.226661309599876404e-02
-2.305276878178119659e-02
-2.883053012192249298e-02
-1.248398330062627792e-02
3.739756299182772636e-03
4.446199163794517517e-03
-1.490823179483413696e-02
9.174911305308341980e-03
-3.604884073138237000e-02
3.146451339125633240e-02
4.464479535818099976e-02
-5.940530449151992798e-03
-2.446806244552135468e-02
-6.191637367010116577e-02
-5.126172304153442383e-02
-2.473310939967632294e-02
3.977391123771667480e-02
3.858093917369842529e-02
-3.406662866473197937e-02
-2.309874445199966431e-02
-1.137496717274188995e-02
-4.095434769988059998e-02
2.150389924645423889e-02
4.453665390610694885e-02
1.664135418832302094e-02
-1.828730478882789612e-02
3.192004188895225525e-02
1.969378814101219177e-02
5.865706130862236023e-02
3.606712445616722107e-02
3.932927548885345459e-02
-2.029679343104362488e-02
2.262025140225887299e-03
4.798942431807518005e-02
1.410940010100603104e-02
-3.094695322215557098e-02
-1.064636465162038803e-02
-3.388411551713943481e-02
4.534756764769554138e-02
4.324267432093620300e-02
1.289883907884359360e-02
-6.445698905736207962e-03
-1.550684031099081039e-02
4.362595453858375549e-02
-4.013935849070549011e-02
5.203963816165924072e-02
7.493522763252258301e-02
1.042296737432479858e-02
-5.215287208557128906e-02
-2.292171306908130646e-02
8.682665415108203888e-03
3.715645894408226013e-02
4.729685839265584946e-03
-3.481428325176239014e-02
5.629451200366020203e-02
-3.817193442955613136e-03
5.252323672175407410e-02
5.060634110122919083e-03
-8.451214991509914398e-03
6.597437709569931030e-02
-1.906223222613334656e-02
-3.522442281246185303e-02
9.979022666811943054e-03
4.964379966259002686e-02
-5.807607993483543396e-02
-2.686966583132743835e-02
6.784863024950027466e-02
3.025620058178901672e-02
-3.576292470097541809e-02
2.359674125909805298e-02
4.929862171411514282e-02
4.607160016894340515e-02
-7.139417808502912521e-03
2.534985356032848358e-02
4.881343990564346313e-02
-1.452279649674892426e-02
3.921908792108297348e-03
6.626663357019424438e-02
3.602748364210128784e-02
-6.121566891670227051e-02
-5.045391153544187546e-04
2.991577424108982086e-02
4.334165249019861221e-03
-1.158424536697566509e-03
6.435905117541551590e-03
-3.824167326092720032e-02
-6.328066438436508179e-02
-7.121326774358749390e-02
3.973786532878875732e-02
-1.639187335968017578e-02
3.277228772640228271e-02
-8.504769206047058105e-02
7.551059592515230179e-03
-3.305204585194587708e-02
1.190730556845664978e-02
6.207495927810668945e-03
-6.285646557807922363e-02
1.167890429496765137e-02
9.345133788883686066e-03
-5.444693937897682190e-02
-1.140016224235296249e-02
-3.623033175244927406e-03
-6.347586214542388916e-02
-5.230567976832389832e-02
5.088180676102638245e-02
-1.891751214861869812e-02
-5.572062917053699493e-03
5.955672636628150940e-02
3.993152081966400146e-02
5.182348936796188354e-02
1.225282251834869385e-02
5.576154217123985291e-02
-2.219330146908760071e-02
-1.845458336174488068e-02
-2.465632185339927673e-02
5.731863901019096375e-03
-5.898414924740791321e-02
1.370769343338906765e-03
7.901859469711780548e-03
-5.227957665920257568e-02
2.399352937936782837e-02
3.780662640929222107e-02
-3.037891117855906487e-03
3.175241127610206604e-02
3.353795781731605530e-02
4.270736873149871826e-02
4.188910499215126038e-02
-1.427377909421920776e-01
1.188839823007583618e-01
-2.669481001794338226e-02
4.311479628086090088e-03
3.738949541002511978e-03
-7.136126607656478882e-02
1.165719237178564072e-02
4.235956072807312012e-02
4.467773064970970154e-02
-9.167151153087615967e-02
4.770821705460548401e-02
4.935691878199577332e-02
5.812184885144233704e-02
1.702355965971946716e-02
6.485196948051452637e-02
-1.780217327177524567e-02
3.804330155253410339e-02
5.807768926024436951e-02
3.197993338108062744e-02
3.294375538825988770e-02
4.461535438895225525e-02
-6.812669336795806885e-03
-4.188644513487815857e-02
3.338927030563354492e-02
3.115205653011798859e-02
3.113101609051227570e-02
-4.671423230320215225e-03
-4.823688790202140808e-02
-1.404276397079229355e-02
-2.876346558332443237e-02
-6.174032390117645264e-02
-1.217573210597038269e-01
-1.399864703416824341e-01
1.081765666604042053e-01
-1.123583018779754639e-01
6.287723034620285034e-02
-4.863481968641281128e-02
-5.037423595786094666e-02
-8.283030986785888672e-02
3.391115739941596985e-02
-7.506085187196731567e-02
-8.514861017465591431e-02
5.815127864480018616e-02
6.852730363607406616e-02
-1.156550124287605286e-01
-9.207693487405776978e-02
8.721490204334259033e-02
8.856061846017837524e-02
1.175258010625839233e-01
3.147550299763679504e-02
-1.257649809122085571e-01
-7.238454371690750122e-02
-5.986065790057182312e-02
-1.569423824548721313e-01
1.650497168302536011e-01
-1.066224947571754456e-01
2.428115718066692352e-02
-8.535748720169067383e-02
1.137984320521354675e-01
4.413165152072906494e-02
-6.355246063321828842e-03
-5.934302508831024170e-02
-3.061448596417903900e-02
3.029606677591800690e-02
-6.574711203575134277e-02
1.091746091842651367e-01
1.098807901144027710e-01
-2.480309642851352692e-02
-2.411049231886863708e-02
-6.946959346532821655e-02
-3.773485869169235229e-02
3.674719855189323425e-02
3.045831434428691864e-02
-3.578828275203704834e-02
2.035547047853469849e-02
5.137423798441886902e-02
7.615011185407638550e-02
-1.576782017946243286e-02
-9.665284305810928345e-03
-2.404349297285079956e-02
1.464409977197647095e-01
5.270700785331428051e-04
1.106600537896156311e-01
-3.149923402816057205e-03
-1.121554523706436157e-01
4.002105561085045338e-04
1.292628981173038483e-02
-5.898224562406539917e-02
-4.356734082102775574e-02
5.370437726378440857e-02
-5.870657414197921753e-02
1.619200967252254486e-02
8.867058902978897095e-02
-4.224028065800666809e-02
6.249088421463966370e-02
7.674218714237213135e-02
-5.462135374546051025e-02
8.218502998352050781e-02
-6.308872252702713013e-02
4.276663437485694885e-02
-9.153570234775543213e-02
-7.080303132534027100e-02
-2.955822739750146866e-03
-8.602528832852840424e-03
-7.529384642839431763e-02
-3.422928974032402039e-02
3.993222489953041077e-02
1.823527924716472626e-02
-1.034192517399787903e-01
-1.400372684001922607e-01
1.910350471735000610e-02
5.938898772001266479e-02
-5.874984897673130035e-03
-7.534588128328323364e-02
-3.053768165409564972e-02
7.600679248571395874e-02
-1.061299350112676620e-02
3.039360791444778442e-02
1.833071932196617126e-02
-4.141878802329301834e-03
-8.055549860000610352e-02
-1.152071803808212280e-01
-2.051534131169319153e-03
-2.303191274404525757e-02
5.821324884891510010e-02
-8.260544389486312866e-02
-6.864982843399047852e-02
-2.885153889656066895e-02
1.949242651462554932e-01
-2.299342900514602661e-01
2.538044063840061426e-04
-1.207201778888702393e-01
3.405452892184257507e-02
-1.311004278250038624e-03
8.022760599851608276e-02
-5.185298155993223190e-03
4.460589215159416199e-02
-2.886897139251232147e-02
4.424431174993515015e-02
7.847845554351806641e-02
-6.303646415472030640e-02
5.071932449936866760e-02
-1.634190231561660767e-02
-6.528773903846740723e-02
8.467924594879150391e-02
-6.139809265732765198e-02
-5.887095257639884949e-02
-1.423001009970903397e-02
9.241963177919387817e-02
1.426123920828104019e-02
8.570557087659835815e-02
2.992567606270313263e-02
-5.513999611139297485e-02
5.200486257672309875e-02
-2.437582472339272499e-03
-4.515894223004579544e-03
4.688685759902000427e-02
1.106065809726715088e-01
3.092584665864706039e-03
-3.812490403652191162e-02
4.482133314013481140e-02
-4.830197989940643311e-02
2.116929739713668823e-03
-1.112044509500265121e-02
3.270832449197769165e-02
1.707936078310012817e-02
4.185613617300987244e-02
-1.233018375933170319e-02
2.629384584724903107e-02
-7.070759683847427368e-02
-4.856874793767929077e-02
-1.693178154528141022e-02
8.034340292215347290e-02
2.420652285218238831e-02
-1.895378157496452332e-02
1.855340786278247833e-02
-1.323424838483333588e-02
3.525592759251594543e-02
9.616202116012573242e-02
-3.719817474484443665e-02
-6.112663075327873230e-02
1.068439427763223648e-02
-4.429629817605018616e-02
-7.885072380304336548e-03
-3.632334619760513306e-02
8.961050957441329956e-02
9.920451790094375610e-02
-8.425538986921310425e-02
2.103109657764434814e-02
2.170409820973873138e-02
2.233596444129943848e-01
5.551500245928764343e-02
-1.540025044232606888e-02
2.487903274595737457e-02
3.571997210383415222e-02
-5.443666130304336548e-02
-2.718831226229667664e-02
1.258399896323680878e-02
6.979121267795562744e-02
-3.203179687261581421e-02
-8.656056970357894897e-02
-6.241025775671005249e-02
1.227742247283458710e-02
-8.356802165508270264e-03
2.341351471841335297e-03
-5.087435990571975708e-02
3.934666141867637634e-02
-3.033578582108020782e-02
2.239051833748817444e-02
-9.198164194822311401e-02
-3.367587551474571228e-02
1.977355778217315674e-02
-3.657751530408859253e-02
7.769062183797359467e-03
-5.826628953218460083e-02
9.641122817993164062e-02
3.399278968572616577e-02
-1.160318715847097337e-04
4.633020609617233276e-02
-7.011191919445991516e-04
7.245483994483947754e-02
2.236019968986511230e-01
2.738849632441997528e-02
-6.011854857206344604e-02
-5.577863752841949463e-02
-3.013370558619499207e-02
-1.666348725557327271e-01
1.069721877574920654e-01
2.053947933018207550e-02
-1.732312142848968506e-01
-5.866752564907073975e-02
1.012670621275901794e-01
-7.881718873977661133e-02
3.860708326101303101e-02
7.188940793275833130e-02
1.151555031538009644e-01
1.395422369241714478e-01
2.676308900117874146e-02
1.799818500876426697e-02
3.387192264199256897e-02
-3.806706145405769348e-02
4.524166136980056763e-02
4.631099477410316467e-02
-2.895410172641277313e-02
5.424235388636589050e-02
-2.406412176787853241e-02
-4.591698572039604187e-02
-2.076765708625316620e-02
-2.800204232335090637e-02
-6.074996665120124817e-02
-3.831190243363380432e-02
2.557673677802085876e-02
-3.476311266422271729e-02
-5.044665560126304626e-02
-1.124736736528575420e-03
-5.873369798064231873e-02
-1.050293631851673126e-02
8.874652907252311707e-03
7.441186811774969101e-03
-1.808144338428974152e-02
-2.048001624643802643e-02
2.054766938090324402e-02
-2.145395381376147270e-03
4.424219578504562378e-02
2.125871367752552032e-03
1.082996279001235962e-02
-2.775290049612522125e-02
-2.186254598200321198e-02
-8.988549001514911652e-03
-3.497964004054665565e-03
1.426715217530727386e-02
3.440586104989051819e-02
-3.133599087595939636e-02
1.056364830583333969e-02
-1.416582521051168442e-02
-8.749675936996936798e-03
5.901416763663291931e-02
-3.726381063461303711e-02
6.151270493865013123e-02
3.092613257467746735e-02
1.135375071316957474e-02
-3.077626228332519531e-03
2.758488059043884277e-03
5.836772173643112183e-02
-3.033562004566192627e-02
6.161966174840927124e-02
-6.079934537410736084e-03
5.670733517035841942e-04
-1.871910318732261658e-02
-3.585758805274963379e-02
-3.540900349617004395e-02
4.805352166295051575e-02
8.327525109052658081e-03
-2.779962681233882904e-02
-2.964789606630802155e-02
-4.138674959540367126e-02
5.586076527833938599e-02
2.738677337765693665e-02
1.750476099550724030e-02
-1.904300786554813385e-02
-5.567293986678123474e-02
-5.957331880927085876e-02
-1.544313505291938782e-02
5.637059360742568970e-02
1.809250377118587494e-02
3.558278083801269531e-02
-3.714555129408836365e-02
-4.946615546941757202e-02
-3.201251849532127380e-02
4.283718019723892212e-02
8.690955117344856262e-03
-7.468353491276502609e-03
-3.214806318283081055e-02
3.039408847689628601e-02
-2.479351684451103210e-02
-3.539247065782546997e-02
-1.108699664473533630e-02
2.405476942658424377e-02
6.175130233168601990e-02
-4.866030812263488770e-02
2.239420823752880096e-02
4.085391759872436523e-02
-6.010042130947113037e-02
5.622389540076255798e-02
-2.909162314608693123e-03
-4.492724314332008362e-02
2.735192174441181123e-05
-7.424837443977594376e-03
3.683402901515364647e-03
3.939623758196830750e-02
-3.442597389221191406e-02
5.193268507719039917e-02
-4.204007983207702637e-02
4.758710414171218872e-02
-1.654800400137901306e-02
1.332545559853315353e-02
-8.234057575464248657e-03
4.382574558258056641e-02
-4.365706443786621094e-02
4.150892421603202820e-02
1.979289017617702484e-02
-3.661606926470994949e-03
3.293349221348762512e-02
3.101406851783394814e-03
4.591907560825347900e-02
-3.570779412984848022e-02
4.754374176263809204e-02
-5.795290321111679077e-02
5.619111005216836929e-03
-4.381942376494407654e-02
-5.434568226337432861e-02
1.791884540580213070e-03
-3.162042051553726196e-02
-4.699654504656791687e-02
-3.403588011860847473e-02
-2.877841517329216003e-02
4.263535887002944946e-02
4.798035323619842529e-02
1.495409198105335236e-02
-2.679898776113986969e-02
3.614349290728569031e-02
-5.189185217022895813e-02
-4.650242999196052551e-02
2.731547318398952484e-02
8.912527933716773987e-03
-5.853443965315818787e-02
3.186351433396339417e-02
5.410333164036273956e-03
7.826242595911026001e-03
2.074487973004579544e-03
-4.727321490645408630e-02
-5.631433799862861633e-02
2.802152000367641449e-02
3.530292958021163940e-02
-5.612969025969505310e-02
-2.784214168787002563e-02
-5.511571466922760010e-02
-3.714146465063095093e-02
-1.187228504568338394e-02
-2.320845238864421844e-02
1.087708078557625413e-04
-2.058898098766803741e-02
-5.148805677890777588e-02
5.968471243977546692e-02
-1.713949441909790039e-02
5.862120166420936584e-02
-4.537567123770713806e-02
9.438485838472843170e-03
5.698759853839874268e-02
-2.160511724650859833e-02
4.668635129928588867e-02
1.583364605903625488e-02
3.574147121980786324e-03
-3.246473520994186401e-02
-2.699752151966094971e-02
5.474538356065750122e-02
3.064608015120029449e-02
1.476265676319599152e-02
-4.236460104584693909e-02
-1.212294958531856537e-02
5.799472704529762268e-02
6.343028042465448380e-03
1.724078319966793060e-02
-4.369173198938369751e-02
-2.389553561806678772e-02
-2.515877224504947662e-02
-5.220750719308853149e-02
-3.094944171607494354e-02
-3.470119554549455643e-03
-3.590615093708038330e-02
5.861327052116394043e-02
4.859666153788566589e-02
-4.639765247702598572e-02
-5.452581867575645447e-02
2.171500213444232941e-02
3.472084924578666687e-02
-6.171544641256332397e-02
-3.672043234109878540e-02
-2.926124725490808487e-03
-4.963826760649681091e-02
2.193745039403438568e-02
5.450431257486343384e-02
-2.742998301982879639e-02
-4.778261855244636536e-02
-3.067864477634429932e-02
-5.587487295269966125e-02
3.912954777479171753e-02
-6.254931911826133728e-03
3.871339187026023865e-02
5.235260725021362305e-02
-3.741899970918893814e-03
-4.668310284614562988e-02
3.251028060913085938e-02
4.590799659490585327e-02
-3.302397206425666809e-02
9.065853431820869446e-03
-4.993062838912010193e-02
-6.094329431653022766e-02
-3.232682496309280396e-02
-1.847944408655166626e-02
-2.267795987427234650e-02
-5.629646033048629761e-02
-5.241235345602035522e-02
-2.767151780426502228e-02
-1.100189052522182465e-02
-3.553046658635139465e-02
-1.113869994878768921e-02
1.142699550837278366e-02
4.443632066249847412e-02
-5.380029603838920593e-02
-3.843163326382637024e-02
-4.030442982912063599e-02
2.955369092524051666e-02
-5.948382988572120667e-02
-1.642732508480548859e-02
-1.773444004356861115e-02
1.555811427533626556e-02
-1.614840514957904816e-02
3.090881928801536560e-02
4.646622017025947571e-02
-4.895130917429924011e-02
2.701935358345508575e-02
5.860225856304168701e-02
-4.728320613503456116e-02
-4.138087853789329529e-03
3.777104616165161133e-02
5.108407884836196899e-02
-5.721602961421012878e-02
-4.435899108648300171e-02
-2.827814407646656036e-02
-3.106119669973850250e-02
-3.792187198996543884e-02
2.435183525085449219e-02
4.659608379006385803e-02
-6.294953078031539917e-02
-3.890387341380119324e-02
1.114154048264026642e-02
-1.838517189025878906e-02
2.415902912616729736e-02
3.980992361903190613e-02
2.136168070137500763e-03
-4.192408546805381775e-02
5.880631878972053528e-02
3.994777053594589233e-02
-1.247365865856409073e-02
2.539716369938105345e-04
3.803424537181854248e-02
-3.528390778228640556e-03
1.456725061871111393e-03
-6.552213337272405624e-03
-2.522783540189266205e-02
-4.501755163073539734e-02
-4.096082225441932678e-02
-7.215014193207025528e-03
3.607284277677536011e-02
-3.487069159746170044e-02
-6.162460520863533020e-02
6.877659354358911514e-03
5.626323819160461426e-02
-1.293204072862863541e-02
1.708659715950489044e-02
3.026961907744407654e-02
2.511334046721458435e-02
4.684931191150099039e-04
1.194729655981063843e-02
3.851701691746711731e-02
5.024039745330810547e-02
-3.238799050450325012e-02
3.104416280984878540e-02
-5.820750072598457336e-02
5.122109875082969666e-02
-8.572838455438613892e-02
-3.126643598079681396e-02
-1.096353959292173386e-02
8.029171079397201538e-02
-1.636078022420406342e-02
1.040172949433326721e-01
8.959583938121795654e-02
-3.092629089951515198e-02
1.260527968406677246e-01
-3.211857005953788757e-02
-3.266882151365280151e-02
-7.132612913846969604e-02
5.433165282011032104e-02
-7.850269228219985962e-02
4.943939857184886932e-04
-2.492801472544670105e-02
-3.281396627426147461e-02
2.814329229295253754e-02
1.795804128050804138e-02
1.582264900207519531e-02
-4.282660037279129028e-02
2.301058731973171234e-02
-2.723331004381179810e-02
1.880752481520175934e-02
3.658147528767585754e-02
1.708866655826568604e-02
5.300024524331092834e-02
2.341235056519508362e-02
1.966476067900657654e-02
3.483977168798446655e-02
-4.894634336233139038e-02
-6.261276081204414368e-03
-5.841945484280586243e-02
1.398028433322906494e-02
-2.401728183031082153e-02
6.135307252407073975e-02
-6.187520548701286316e-02
4.362247139215469360e-02
5.034970492124557495e-02
-3.557138517498970032e-02
1.635150015354156494e-01
-1.152544990181922913e-01
4.056807234883308411e-02
-6.927023082971572876e-02
5.871530994772911072e-02
-7.016238570213317871e-02
-4.574013873934745789e-02
5.901305750012397766e-02
4.159361496567726135e-02
8.307646960020065308e-03
1.109297499060630798e-01
-6.416988372802734375e-02
4.172560200095176697e-02
-6.144930422306060791e-02
1.277014613151550293e-03
1.053222268819808960e-01
8.351022750139236450e-02
4.888915270566940308e-02
-7.995358109474182129e-02
5.056676268577575684e-02
6.290826946496963501e-02
5.062522366642951965e-03
-8.164503425359725952e-02
7.016109675168991089e-02
6.542756408452987671e-02
7.111296802759170532e-02
5.689241364598274231e-02
4.630455002188682556e-02
4.824647307395935059e-02
-5.511600524187088013e-02
2.695366740226745605e-02
7.810208201408386230e-02
1.339115481823682785e-02
-2.820971049368381500e-02
-2.437464520335197449e-02
5.586302652955055237e-02
-4.603117704391479492e-02
-5.923344194889068604e-02
-1.105333119630813599e-02
3.778646141290664673e-02
3.996285423636436462e-02
1.362752728164196014e-02
1.316417306661605835e-01
-7.666642963886260986e-02
-7.417255640029907227e-02
4.146748408675193787e-02
2.814103104174137115e-02
3.770875185728073120e-02
-2.916798926889896393e-03
4.344915226101875305e-02
-8.351565897464752197e-02
-8.944169431924819946e-02
-8.585792779922485352e-02
-4.215653613209724426e-02
-9.213940240442752838e-03
9.161258488893508911e-02
2.109643816947937012e-02
-1.069699600338935852e-01
8.332818746566772461e-02
1.066044196486473083e-01
1.579715288244187832e-03
-1.413644989952445030e-03
-1.845286972820758820e-02
-9.349387139081954956e-02
-6.430502980947494507e-02
2.658864948898553848e-03
1.359494309872388840e-02
7.283873856067657471e-02
-1.474257409572601318e-01
4.880962520837783813e-02
-8.590760827064514160e-02
2.292650053277611732e-03
-1.087568178772926331e-01
1.362752262502908707e-02
4.499755427241325378e-02
6.796755641698837280e-02
-4.280943050980567932e-02
7.249374687671661377e-02
7.890653610229492188e-02
1.875181309878826141e-02
5.667274445295333862e-02
1.429342329502105713e-01
3.455840051174163818e-02
-3.489411249756813049e-02
3.651995956897735596e-02
-1.365457428619265556e-03
6.022580713033676147e-02
3.306547924876213074e-02
3.349459171295166016e-02
8.399797976016998291e-02
5.593015626072883606e-02
8.155778795480728149e-02
3.739320114254951477e-02
-2.866570465266704559e-02
-1.157550364732742310e-01
6.517447531223297119e-02
-2.031228393316268921e-01
-8.274968713521957397e-02
-1.848666556179523468e-02
9.453866630792617798e-02
-6.125550344586372375e-02
-6.796273402869701385e-03
8.485732972621917725e-02
-8.572930097579956055e-02
-4.729832522571086884e-03
3.160104155540466309e-02
-5.490944162011146545e-02
-8.534058183431625366e-02
-1.224162727594375610e-01
-1.410267651081085205e-01
4.781920462846755981e-02
-2.761778607964515686e-02
-1.218934357166290283e-02
-2.936595492064952850e-02
-2.076600678265094757e-02
7.776902057230472565e-03
2.633390761911869049e-02
-1.182285621762275696e-01
-4.094194620847702026e-02
-1.100875064730644226e-01
-4.971725493669509888e-02
8.422930538654327393e-02
-8.517750538885593414e-03
-1.883217133581638336e-02
-4.046802595257759094e-02
-2.140436321496963501e-02
4.827514663338661194e-02
1.152336448431015015e-01
-2.236437238752841949e-02
-2.490536496043205261e-02
-3.661635890603065491e-02
1.012157648801803589e-01
1.481596678495407104e-01
1.159532442688941956e-01
-1.637116074562072754e-02
-4.242388159036636353e-02
1.466449256986379623e-02
-1.115445643663406372e-01
-2.939394861459732056e-02
6.786165386438369751e-02
8.344961702823638916e-02
1.033989191055297852e-01
-8.326072245836257935e-02
-6.514456123113632202e-02
4.199824854731559753e-02
-7.045446336269378662e-02
1.711997948586940765e-02
-1.094490587711334229e-01
5.941028892993927002e-02
2.188851498067378998e-02
1.352308392524719238e-01
-1.755533218383789062e-01
-4.980854690074920654e-02
1.317957639694213867e-01
-6.304550915956497192e-02
-1.240670308470726013e-01
-3.845383599400520325e-02
-7.097242772579193115e-02
6.226835399866104126e-02
7.904425263404846191e-02
-3.677173750475049019e-03
-2.309298142790794373e-02
-2.103042416274547577e-02
1.318770664511248469e-04
4.087385907769203186e-02
3.384429216384887695e-02
-1.129713957197964191e-03
6.630328483879566193e-03
-9.118514135479927063e-03
1.046905945986509323e-02
8.874437212944030762e-02
-8.272218704223632812e-02
5.264940205961465836e-03
2.175139635801315308e-02
-4.386760294437408447e-02
-3.416890278458595276e-02
-5.064383894205093384e-02
-1.059928387403488159e-01
-7.951276749372482300e-02
-2.130581811070442200e-02
7.336588948965072632e-02
-3.226844593882560730e-02
2.502300404012203217e-02
6.670732796192169189e-02
-1.309485882520675659e-01
-4.485637694597244263e-02
-2.390176616609096527e-02
2.734687179327011108e-02
1.061111834133043885e-04
-1.930546015501022339e-02
6.961298733949661255e-02
3.738159686326980591e-02
1.145015209913253784e-01
5.338405817747116089e-02
-7.181779295206069946e-02
-2.166324481368064880e-02
8.140919357538223267e-02
-4.193819686770439148e-02
5.252904444932937622e-02
3.819300606846809387e-02
-2.236689254641532898e-02
-2.837682701647281647e-02
4.970179498195648193e-02
-9.007290937006473541e-03
-4.365836456418037415e-02
3.436920791864395142e-02
5.730982497334480286e-02
5.414734408259391785e-02
1.085472851991653442e-02
-4.300512745976448059e-02
4.349173977971076965e-02
-6.049018353223800659e-02
2.023198269307613373e-02
6.116634607315063477e-02
-2.983571030199527740e-02
-6.159318983554840088e-02
1.186011359095573425e-02
-5.777937173843383789e-02
-1.755541749298572540e-02
5.981246358714997768e-04
9.963893890380859375e-02
-2.047931402921676636e-02
-3.966069966554641724e-02
1.174688711762428284e-02
-4.553854838013648987e-02
4.528118669986724854e-02
1.249799784272909164e-02
9.526922553777694702e-02
5.866212770342826843e-02
4.044983908534049988e-02
-2.662795223295688629e-02
1.947786659002304077e-02
-5.050233006477355957e-02
4.499019682407379150e-02
-3.293833462521433830e-03
-5.665779858827590942e-02
-3.469656407833099365e-02
9.820641949772834778e-03
-1.749307475984096527e-02
6.098554655909538269e-02
1.322294585406780243e-02
1.265643257647752762e-02
-5.167192313820123672e-03
2.657927200198173523e-02
4.816949367523193359e-02
-4.906559297523926944e-06
-4.140422865748405457e-02
-4.677317664027214050e-02
7.415681332349777222e-02
-4.911028593778610229e-02
1.219289097934961319e-02
-4.107705131173133850e-02
6.289440393447875977e-02
6.269821524620056152e-02
-2.430130541324615479e-02
7.875841110944747925e-03
-1.843350753188133240e-02
7.171032577753067017e-02
1.058379095047712326e-02
-2.965505933389067650e-03
-5.906653031706809998e-02
1.300755143165588379e-01
5.338135734200477600e-02
8.788205683231353760e-02
5.079728737473487854e-02
1.066330149769783020e-01
2.671896666288375854e-02
-3.178054094314575195e-02
-5.658937152475118637e-03
3.985817544162273407e-03
-4.132530093193054199e-02
4.525239579379558563e-03
1.524216122925281525e-02
1.495463121682405472e-02
-1.170184370130300522e-02
-6.110469996929168701e-02
-7.930541411042213440e-03
1.597441546618938446e-02
3.402603417634963989e-02
-8.580080419778823853e-02
4.488230869174003601e-02
1.016509719192981720e-02
-1.137080136686563492e-02
-1.467474102973937988e-01
1.100225448608398438e-01
4.655217379331588745e-02
-9.022635966539382935e-02
-1.191340833902359009e-01
4.437538981437683105e-02
5.798544734716415405e-02
-5.462755635380744934e-02
-4.576748982071876526e-02
1.561104599386453629e-02
-7.726444862782955170e-03
5.850581824779510498e-02
7.714170962572097778e-02
-5.324671976268291473e-03
-1.815848425030708313e-02
1.379699446260929108e-02
1.092712655663490295e-01
-1.433071941137313843e-01
-3.994740173220634460e-02
-1.976515352725982666e-02
2.166944555938243866e-02
-5.202122777700424194e-02
-2.548315003514289856e-02
4.018843639642000198e-03
2.675428800284862518e-02
-5.509033426642417908e-02
-3.464599698781967163e-02
3.677894547581672668e-02
9.249502792954444885e-03
2.271221205592155457e-02
5.286080762743949890e-02
-8.109463751316070557e-02
3.754735365509986877e-02
9.878914803266525269e-03
-4.789255186915397644e-02
-5.785978864878416061e-03
3.633282333612442017e-02
-7.906007580459117889e-03
8.254726231098175049e-02
-5.191175639629364014e-02
1.255498733371496201e-02
-3.865479258820414543e-03
5.551827326416969299e-02
7.992459088563919067e-02
-1.633487525396049023e-03
-6.375418603420257568e-02
2.980683743953704834e-02
2.623186446726322174e-02
-4.904346074908971786e-03
-6.880614906549453735e-02
-7.439017295837402344e-02
4.028896614909172058e-02
4.636437445878982544e-02
-1.717096194624900818e-02
-5.245527997612953186e-02
2.878604643046855927e-02
3.167182905599474907e-03
-5.102077126502990723e-02
2.747842576354742050e-03
8.891935646533966064e-02
2.276275865733623505e-02
-9.237256646156311035e-02
1.584265194833278656e-02
2.080815657973289490e-02
-1.559095829725265503e-01
5.671407282352447510e-02
2.661604993045330048e-02
3.090908564627170563e-02
7.961793243885040283e-02
1.477888524532318115e-01
3.057325072586536407e-02
4.777148365974426270e-02
1.071557123214006424e-02
1.017040684819221497e-01
9.157303720712661743e-02
4.093150049448013306e-02
-3.637695312500000000e-02
-3.732376173138618469e-02
3.003818914294242859e-02
-6.705304980278015137e-02
7.275405526161193848e-02
-5.717566236853599548e-02
8.758174628019332886e-02
7.187941670417785645e-02
1.051354855298995972e-01
1.056000404059886932e-02
-2.550066635012626648e-02
-9.504545480012893677e-02
-5.289493873715400696e-02
-1.078300029039382935e-01
7.814981788396835327e-02
-3.046166151762008667e-02
-2.313260361552238464e-02
2.821135707199573517e-02
-5.790994688868522644e-02
1.222083996981382370e-02
-6.648949347436428070e-03
2.328780852258205414e-02
-1.024168636649847031e-02
1.798265986144542694e-02
-5.609735473990440369e-02
-4.595759883522987366e-02
3.806952014565467834e-02
4.631226882338523865e-02
-3.058784641325473785e-02
2.355464734137058258e-02
7.501561194658279419e-02
1.654234342277050018e-02
4.098522663116455078e-02
-1.005461737513542175e-01
-3.512046858668327332e-02
-6.296048313379287720e-02
-7.520590722560882568e-02
-4.978425800800323486e-02
2.239906974136829376e-02
1.511166710406541824e-02
-9.706488251686096191e-02
-1.846847869455814362e-02
8.015927672386169434e-02
4.340528976172208786e-04
-5.915260314941406250e-02
7.141157239675521851e-02
-2.925770170986652374e-02
7.634156942367553711e-02
-2.934244088828563690e-02
5.293231084942817688e-02
3.990092501044273376e-02
-9.171510464511811733e-04
5.883206613361835480e-03
-5.343892425298690796e-02
1.036618463695049286e-02
-5.899022147059440613e-02
7.405721116811037064e-03
1.013876311480998993e-02
8.464647829532623291e-02
-5.157014727592468262e-02
4.501176625490188599e-02
1.497072167694568634e-02
-1.198132988065481186e-02
-8.546966314315795898e-02
-6.784152984619140625e-02
-1.026160493493080139e-01
3.185237199068069458e-02
9.960063733160495758e-03
-6.619898974895477295e-02
1.585968770086765289e-02
3.689133748412132263e-02
5.754092708230018616e-02
-3.388931602239608765e-02
7.579407095909118652e-02
2.556329220533370972e-02
1.117743179202079773e-02
-4.565462097525596619e-02
2.516277693212032318e-02
-3.992182016372680664e-02
-9.980467706918716431e-02
-5.357933789491653442e-02
1.382295489311218262e-01
-1.015480048954486847e-02
3.725482150912284851e-02
9.677403420209884644e-02
4.432298243045806885e-02
6.793175637722015381e-02
-5.819738656282424927e-02
1.524116611108183861e-03
-3.947703540325164795e-02
1.691324822604656219e-02
4.974970966577529907e-02
-9.537772089242935181e-02
-2.916667982935905457e-02
5.881139263510704041e-02
2.551931515336036682e-02
-8.142013847827911377e-02
-4.534621164202690125e-02
4.686946980655193329e-03
-9.274219162762165070e-03
-1.914712227880954742e-02
-1.548516657203435898e-02
5.460552498698234558e-02
1.820814795792102814e-02
5.893927067518234253e-02
-5.004225298762321472e-02
2.892538532614707947e-02
-5.414866842329502106e-03
-2.078512683510780334e-02
5.444088950753211975e-02
-2.681177295744419098e-02
1.347519829869270325e-02
-3.936176002025604248e-02
-5.144727230072021484e-02
1.033231019973754883e-01
-8.495240658521652222e-02
4.470760002732276917e-03
7.874420285224914551e-02
-5.381566938012838364e-03
4.910151287913322449e-02
4.189251363277435303e-02
3.635263442993164062e-02
-3.056104294955730438e-03
-6.875175237655639648e-02
-1.995383761823177338e-02
2.625023573637008667e-02
2.469258196651935577e-02
-7.876067608594894409e-02
-3.903632983565330505e-02
-2.780757099390029907e-02
2.628110721707344055e-02
-3.248832374811172485e-02
-3.771318122744560242e-02
-4.406767711043357849e-02
-4.583230614662170410e-02
-2.708817087113857269e-02
-3.457459062337875366e-02
-2.004061266779899597e-02
-2.916189096868038177e-02
5.884290486574172974e-02
-3.987783938646316528e-02
3.604394569993019104e-02
5.756143108010292053e-02
-5.142049118876457214e-02
7.089607417583465576e-03
-1.054076924920082092e-01
-9.021575562655925751e-03
-3.448174521327018738e-02
7.538733631372451782e-02
9.601353108882904053e-02
-6.792256142944097519e-03
-3.465273603796958923e-02
1.736094802618026733e-02
5.952633917331695557e-02
1.733585633337497711e-02
-7.584418356418609619e-02
-5.879269912838935852e-02
4.008989781141281128e-02
3.039393946528434753e-02
-6.218128651380538940e-02
-8.035958558320999146e-02
-2.545453840866684914e-03
-8.367341756820678711e-02
-3.073736093938350677e-02
9.876198321580886841e-02
3.410534188151359558e-02
-2.667792700231075287e-02
2.152144722640514374e-02
1.163448616862297058e-01
2.713294513523578644e-02
-6.476121395826339722e-02
-5.335545167326927185e-02
2.835053019225597382e-02
-2.520856447517871857e-02
2.930274233222007751e-02
4.016617685556411743e-02
1.132445409893989563e-02
-5.356360599398612976e-02
1.379746049642562866e-01
2.769849821925163269e-02
-9.409196674823760986e-03
-2.776483073830604553e-03
-1.564145088195800781e-02
-1.696052402257919312e-02
-5.421193316578865051e-02
6.612196564674377441e-02
-4.823351278901100159e-02
7.144075818359851837e-03
2.012412063777446747e-02
4.353587329387664795e-02
-7.578026503324508667e-02
-5.369652435183525085e-02
-8.477561175823211670e-02
-9.051701053977012634e-03
-3.912695869803428650e-02
-1.092832908034324646e-01
-1.187559217214584351e-01
-6.226314697414636612e-03
-9.924577549099922180e-03
1.674074679613113403e-02
1.355152390897274017e-02
1.763571985065937042e-02
-4.778458178043365479e-02
-2.037076093256473541e-02
5.054429545998573303e-02
3.735470771789550781e-02
2.577979117631912231e-02
-7.895057648420333862e-02
8.737681806087493896e-02
1.130603700876235962e-01
-1.626701839268207550e-02
-8.379976451396942139e-02
3.657786175608634949e-02
1.126395389437675476e-01
-3.061891347169876099e-02
-2.867324836552143097e-02
-9.801902621984481812e-02
1.143574938178062439e-01
-1.247280091047286987e-01
3.006703034043312073e-02
2.339060232043266296e-02
-2.239191439002752304e-03
-4.458480700850486755e-02
-6.258661299943923950e-02
-8.983390778303146362e-02
9.506722912192344666e-03
-3.594970330595970154e-02
-1.937802322208881378e-02
1.059427931904792786e-01
5.769892409443855286e-02
-3.130907937884330750e-02
-1.388487871736288071e-02
1.489687804132699966e-02
4.918728023767471313e-02
1.013944111764431000e-02
-1.759507693350315094e-02
-2.160568349063396454e-02
1.252851933240890503e-01
-4.356241226196289062e-02
2.345025725662708282e-02
-2.360733412206172943e-02
1.052376851439476013e-01
-6.308024376630783081e-02
1.744299530982971191e-01
9.422972798347473145e-02
-2.068263478577136993e-02
-2.319821156561374664e-02
-2.250200510025024414e-02
-8.423713594675064087e-02
-4.908938333392143250e-02
2.294509485363960266e-02
-2.458706311881542206e-02
8.347832597792148590e-03
-9.420082904398441315e-03
-4.766669496893882751e-02
-5.591629818081855774e-02
-9.988288395106792450e-03
-7.826329022645950317e-02
-1.434662789106369019e-01
-6.444045808166265488e-03
9.555177763104438782e-03
6.821186840534210205e-02
-1.872673071920871735e-02
-1.369532644748687744e-01
-1.078488081693649292e-01
-1.556367706507444382e-02
2.251255884766578674e-02
-9.377010166645050049e-03
-1.515009067952632904e-02
9.568869322538375854e-02
3.667790675535798073e-03
-2.475555986166000366e-02
-9.394966065883636475e-02
1.638989523053169250e-02
6.836836226284503937e-03
6.528592854738235474e-02
1.315424032509326935e-02
2.387494221329689026e-02
-2.120753284543752670e-03
4.848103970289230347e-02
-4.805211350321769714e-02
1.569971814751625061e-02
5.472965911030769348e-02
1.297060400247573853e-02
-1.490118633955717087e-02
-1.880914159119129181e-02
-7.782009243965148926e-02
-8.573070168495178223e-02
-3.745815157890319824e-02
-1.527742948383092880e-03
6.142170750536024570e-04
3.563008736819028854e-03
5.281909182667732239e-02
-9.290669113397598267e-02
-1.167905181646347046e-01
-1.171380653977394104e-01
5.339167639613151550e-02
-3.242171835154294968e-03
-4.265838302671909332e-03
3.138068318367004395e-02
7.084669917821884155e-02
1.838570088148117065e-02
-1.468584835529327393e-01
-5.505144596099853516e-02
1.460460387170314789e-02
-4.339129477739334106e-02
-2.706583403050899506e-02
-1.099575981497764587e-01
7.310550659894943237e-02
1.375069376081228256e-02
7.983637042343616486e-03
9.073682874441146851e-02
-1.173666492104530334e-02
-6.536010652780532837e-02
3.841487457975745201e-03
5.133340880274772644e-02
1.471503376960754395e-01
-2.210979722440242767e-02
-4.529352858662605286e-02
9.469410404562950134e-03
4.789197817444801331e-02
-1.325558722019195557e-01
3.068659827113151550e-02
1.161261126399040222e-01
2.494570054113864899e-02
1.578739844262599945e-02
-1.676440238952636719e-02
1.801714487373828888e-02
-4.603705555200576782e-02
1.227622036822140217e-03
9.449495375156402588e-02
-6.507527083158493042e-02
-7.494852691888809204e-02
-4.077702760696411133e-02
1.189535260200500488e-01
-4.060218483209609985e-02
4.738360643386840820e-02
-1.279856264591217041e-01
-1.352662034332752228e-02
-8.524671941995620728e-02
1.019749864935874939e-01
7.227096706628799438e-02
8.411861211061477661e-02
1.605659350752830505e-02
9.421210736036300659e-03
1.763311587274074554e-02
-1.129122152924537659e-01
-4.199714213609695435e-02
-2.510572783648967743e-02
1.862033386714756489e-03
-1.171177327632904053e-01
-2.028345130383968353e-02
3.969212621450424194e-02
-4.494888707995414734e-02
-2.369219064712524414e-02
1.636714488267898560e-02
-3.930008038878440857e-02
-9.441569447517395020e-03
-3.836405649781227112e-02
3.149710595607757568e-03
5.366977676749229431e-02
-4.798939824104309082e-02
5.989095941185951233e-02
2.114567160606384277e-02
2.542696334421634674e-02
5.209561437368392944e-02
-5.866754334419965744e-03
1.782682351768016815e-02
5.205644294619560242e-02
1.469497475773096085e-02
-2.504034899175167084e-02
-3.868918493390083313e-02
-3.780668973922729492e-02
-5.165420845150947571e-02
-2.345515601336956024e-02
-2.388135530054569244e-02
3.006668575108051300e-02
-2.496880106627941132e-02
-5.484992638230323792e-02
9.987384080886840820e-03
2.774797566235065460e-02
-1.566116511821746826e-02
-2.731220610439777374e-02
-1.185383764095604420e-03
3.505487227812409401e-03
-1.260206475853919983e-02
-8.360324427485466003e-03
-1.322654262185096741e-02
1.669789105653762817e-02
4.289142787456512451e-02
1.223648432642221451e-02
4.529696330428123474e-02
-4.632396250963211060e-02
5.973523855209350586e-02
4.058120399713516235e-02
-3.269381821155548096e-02
2.333479747176170349e-02
-5.849177762866020203e-02
5.205499380826950073e-02
6.669946014881134033e-03
3.882048279047012329e-02
-4.348522517830133438e-03
-4.580812901258468628e-02
-2.617687545716762543e-02
-1.177278533577919006e-02
5.046716332435607910e-02
-4.303103685379028320e-02
2.052380330860614777e-02
-6.135577335953712463e-02
4.716593830380588770e-04
2.698959782719612122e-02
-1.660753972828388214e-02
-2.251231297850608826e-02
2.791731245815753937e-02
-5.192444473505020142e-02
5.251218317425809801e-05
3.246574103832244873e-02
5.196051299571990967e-02
1.403813250362873077e-02
-3.375818207859992981e-02
-1.268272870220243931e-03
-1.487524341791868210e-02
-2.962415292859077454e-02
1.038000453263521194e-02
1.035702694207429886e-02
-2.216647565364837646e-02
4.343135748058557510e-03
-1.315658167004585266e-02
-1.626470685005187988e-02
2.862305939197540283e-02
6.088067591190338135e-02
-3.462729975581169128e-02
2.040726132690906525e-02
2.583757974207401276e-02
-5.541963875293731689e-02
-3.093022853136062622e-03
2.678168378770351410e-02
-4.518048465251922607e-02
-1.483014225959777832e-02
-8.016279898583889008e-03
8.364541456103324890e-03
-4.543017968535423279e-02
6.198966503143310547e-02
1.102581433951854706e-02
5.187689792364835739e-03
3.732471540570259094e-02
4.763655737042427063e-02
-1.862028613686561584e-02
2.278727106750011444e-02
5.359811708331108093e-02
-5.563603341579437256e-02
5.173652246594429016e-02
-2.676630578935146332e-02
-9.914618916809558868e-03
2.273124456405639648e-02
2.350040152668952942e-02
7.314496673643589020e-03
5.338444560766220093e-02
4.905970767140388489e-02
3.154166042804718018e-02
-5.182820186018943787e-02
-2.135023474693298340e-02
3.074130229651927948e-02
-3.175590652972459793e-03
-4.274171590805053711e-02
-1.670000329613685608e-02
-4.445482417941093445e-02
2.983850426971912384e-02
-6.902181357145309448e-02
9.464566595852375031e-03
1.202099397778511047e-02
2.892586961388587952e-02
2.329943515360355377e-02
5.079367756843566895e-02
-4.796566441655158997e-02
5.342893302440643311e-02
-4.135691374540328979e-02
-6.229858845472335815e-02
-5.251139774918556213e-02
-5.450278148055076599e-02
-7.933296728879213333e-04
1.867172680795192719e-02
1.722870953381061554e-02
-6.653159507550299168e-04
-3.069359809160232544e-02
-5.181553214788436890e-02
-6.395789235830307007e-02
5.523863434791564941e-02
-5.117630586028099060e-02
2.476446330547332764e-03
-2.684557437896728516e-02
-1.480625197291374207e-02
-1.451130397617816925e-02
-4.724406450986862183e-02
3.148736804723739624e-02
7.410579361021518707e-03
-4.920597001910209656e-02
-2.481621131300926208e-02
-4.446838423609733582e-02
2.736157923936843872e-02
-4.785384237766265869e-02
-5.100216716527938843e-02
3.465046733617782593e-02
-2.752638049423694611e-02
4.376994818449020386e-02
-1.015666406601667404e-02
5.249803513288497925e-02
-3.609900362789630890e-03
-2.887837216258049011e-02
-3.628499433398246765e-02
-1.825136318802833557e-02
1.203492167405784130e-03
4.611292108893394470e-02
-2.473933435976505280e-02
-2.342504821717739105e-02
5.239533632993698120e-02
-6.543757859617471695e-03
-6.607067584991455078e-02
2.181364968419075012e-02
-4.141090065240859985e-02
-1.851344108581542969e-02
-4.815849289298057556e-02
-8.117210119962692261e-03
3.412665799260139465e-02
1.331620384007692337e-02
3.036367706954479218e-02
1.638952456414699554e-02
-5.482491850852966309e-02
-1.108818687498569489e-03
2.163506858050823212e-02
6.034756451845169067e-02
3.239006176590919495e-02
7.450345437973737717e-03
4.973770305514335632e-02
-2.283126488327980042e-02
-3.145152702927589417e-02
-2.214499935507774353e-02
-6.511602550745010376e-02
-1.551748067140579224e-02
-6.090386211872100830e-02
-3.315315768122673035e-02
6.994189228862524033e-03
5.056617408990859985e-02
1.072674989700317383e-02
-1.122474577277898788e-02
-5.428660660982131958e-02
3.813387081027030945e-02
-6.327085942029953003e-02
-3.806835412979125977e-02
-4.874181002378463745e-02
4.311357438564300537e-02
-2.815994434058666229e-02
3.222240880131721497e-02
1.461598183959722519e-02
-3.359825536608695984e-02
-5.712030082941055298e-02
-4.176514968276023865e-02
8.328280528075993061e-04
4.397809132933616638e-02
5.757356062531471252e-02
-4.162310808897018433e-02
1.407864689826965332e-02
-2.083331905305385590e-02
3.455061838030815125e-02
-5.245127528905868530e-02
3.753125667572021484e-02
1.560434512794017792e-02
5.831144005060195923e-02
6.766260601580142975e-03
5.181058123707771301e-02
3.371270606294274330e-03
-9.373429231345653534e-03
-4.636878892779350281e-02
-3.595640137791633606e-02
-5.919375922530889511e-03
4.514158237725496292e-03
6.957819312810897827e-02
-2.609751932322978973e-02
4.307065159082412720e-02
-4.257039353251457214e-02
-3.294093161821365356e-02
3.464954718947410583e-02
3.985023126006126404e-02
-6.813669577240943909e-03
6.312475353479385376e-02
-3.686797991394996643e-02
4.179948940873146057e-02
2.055947482585906982e-02
2.358126267790794373e-02
1.008186675608158112e-02
-5.848047509789466858e-02
-2.891207858920097351e-02
1.556198950856924057e-02
-5.487701296806335449e-02
2.985011041164398193e-02
3.724566474556922913e-02
-2.644055709242820740e-02
2.052672579884529114e-02
2.677233703434467316e-02
4.687667638063430786e-02
4.909983649849891663e-02
-6.059321388602256775e-02
1.804186590015888214e-02
-2.388619072735309601e-02
-4.578256234526634216e-02
6.017567589879035950e-03
-2.912957221269607544e-02
-2.113319747149944305e-02
3.812615200877189636e-02
5.509751662611961365e-02
-4.170123860239982605e-02
-1.975293457508087158e-02
2.984284795820713043e-02
4.908443987369537354e-02
6.015207245945930481e-02
1.450815796852111816e-02
-1.700039207935333252e-02
2.771923691034317017e-02
-4.579427838325500488e-02
4.232409968972206116e-02
-1.068223966285586357e-03
4.359159246087074280e-02
-1.625345461070537567e-02
-4.839088302105665207e-03
-5.606249347329139709e-02
1.013981029391288757e-01
-2.302369661629199982e-02
8.720411919057369232e-03
-1.619750857353210449e-01
-9.472554922103881836e-02
1.056686602532863617e-02
9.137137979269027710e-02
-4.738441854715347290e-02
2.589225582778453827e-02
-2.276422455906867981e-02
2.289294637739658356e-02
-3.730066493153572083e-02
-1.525108218193054199e-01
-5.468717589974403381e-02
-1.011907234787940979e-01
3.107714094221591949e-02
5.729614943265914917e-02
2.188051678240299225e-02
4.765365738421678543e-03
5.858885124325752258e-03
4.343051835894584656e-02
-2.368837408721446991e-02
3.602423891425132751e-02
7.837348617613315582e-03
-4.823823273181915283e-02
-4.721176624298095703e-02
4.798177629709243774e-02
5.939942970871925354e-02
-2.690266817808151245e-02
4.375978186726570129e-02
-5.711313709616661072e-02
-4.815717227756977081e-03
1.327215731143951416e-01
2.776052989065647125e-02
3.428002446889877319e-02
-1.077080070972442627e-01
-8.417395502328872681e-02
-6.968931108713150024e-02
5.123892426490783691e-02
5.894026253372430801e-03
5.314227938652038574e-02
-3.849480673670768738e-02
-8.023695088922977448e-03
2.579524554312229156e-02
-7.091988623142242432e-02
8.930481225252151489e-02
2.937770448625087738e-02
-6.038920581340789795e-02
-5.527049303054809570e-03
3.224513307213783264e-02
1.204524934291839600e-01
9.308007359504699707e-02
-6.539694964885711670e-02
7.233947515487670898e-02
-7.945974916219711304e-02
2.845748886466026306e-02
-2.407349087297916412e-02
-4.216928407549858093e-02
-1.034434661269187927e-01
-7.684457302093505859e-02
4.462449997663497925e-02
-2.191159687936306000e-02
-8.468485623598098755e-02
-2.278313785791397095e-01
4.371151328086853027e-02
-2.121203392744064331e-01
-1.417124718427658081e-01
-1.404272913932800293e-01
3.609782829880714417e-02
5.475182831287384033e-02
2.136171981692314148e-02
1.743777841329574585e-02
6.362581253051757812e-02
4.643588885664939880e-02
4.864172264933586121e-02
5.007217824459075928e-02
3.770242631435394287e-02
-4.480739310383796692e-02
1.371439546346664429e-02
1.132473163306713104e-02
-4.130303859710693359e-02
-1.481251418590545654e-02
1.390853058546781540e-02
3.766013681888580322e-02
8.575965464115142822e-02
-8.937808871269226074e-02
3.718277066946029663e-02
2.985909394919872284e-02
5.039576068520545959e-02
6.456850469112396240e-02
-1.430253125727176666e-02
4.999512434005737305e-02
8.425297588109970093e-02
1.581637375056743622e-02
1.501836627721786499e-01
-1.035427302122116089e-01
8.967339247465133667e-02
-5.325569957494735718e-02
-7.705131173133850098e-02
6.437848508358001709e-02
-3.294905647635459900e-02
-3.751626983284950256e-02
1.049731448292732239e-01
-1.034771129488945007e-01
-3.200012817978858948e-02
-3.116863220930099487e-02
-5.616279691457748413e-02
3.315031155943870544e-02
-1.075017377734184265e-01
8.305068127810955048e-03
-5.614430084824562073e-02
4.506039991974830627e-02
2.655882760882377625e-02
-2.058373019099235535e-02
1.057395488023757935e-01
-1.179459393024444580e-01
7.323540002107620239e-02
2.615428529679775238e-02
-5.001095682382583618e-02
5.254223570227622986e-02
-3.726693615317344666e-02
4.702214524149894714e-02
-1.262533664703369141e-01
-4.707038775086402893e-02
-6.861154735088348389e-02
2.030191197991371155e-02
-1.068376153707504272e-01
4.112789873033761978e-03
1.153681650757789612e-01
2.804838586598634720e-03
6.293755024671554565e-02
1.432239562273025513e-01
1.150420755147933960e-01
-7.330956310033798218e-02
-1.302555799484252930e-01
-6.220886111259460449e-02
6.163220852613449097e-02
-2.292019501328468323e-02
4.055783525109291077e-02
-3.136207163333892822e-02
-4.237745329737663269e-02
2.323371544480323792e-02
6.749857217073440552e-02
-1.525556594133377075e-01
8.389762602746486664e-03
-1.498345881700515747e-01
1.195306144654750824e-02
1.232311427593231201e-01
1.021945327520370483e-01
4.033594205975532532e-02
3.636714071035385132e-02
-1.673377156257629395e-01
-8.894320577383041382e-02
8.058080822229385376e-02
2.574094384908676147e-02
-4.828702285885810852e-02
1.980370134115219116e-01
-4.581125080585479736e-02
-2.752768993377685547e-02
-6.676072627305984497e-02
-9.926858358085155487e-03
-2.736681699752807617e-02
-2.707366831600666046e-02
-7.864464819431304932e-02
8.495890535414218903e-03
4.096753895282745361e-02
1.490293163806200027e-02
-8.104769140481948853e-02
-2.494158223271369934e-03
-9.803314507007598877e-02
-2.971283625811338425e-03
1.013557612895965576e-01
1.859538406133651733e-01
-4.573759436607360840e-02
-7.390818744897842407e-02
9.562329947948455811e-02
-2.711380645632743835e-02
-1.190450564026832581e-01
-8.784130215644836426e-02
1.350579112768173218e-01
-3.942119702696800232e-02
3.565503656864166260e-02
-4.372111335396766663e-02
6.475404370576143265e-03
7.976120710372924805e-02
1.593288406729698181e-02
-3.973747603595256805e-03
-3.608050197362899780e-02
6.467526406049728394e-02
-1.324071176350116730e-02
3.509942814707756042e-02
1.257222890853881836e-01
2.419091947376728058e-02
-7.535531371831893921e-02
1.144633144140243530e-01
6.607437878847122192e-02
4.043553397059440613e-02
4.040034115314483643e-02
8.547046780586242676e-02
-8.117452263832092285e-02
8.790135383605957031e-02
-4.699606448411941528e-02
1.412581000477075577e-02
-8.554200083017349243e-02
-7.616680860519409180e-02
5.354353785514831543e-02
-1.027666702866554260e-01
-1.008275598287582397e-01
-6.874891929328441620e-03
-8.372059464454650879e-02
-5.864761397242546082e-02
2.195179834961891174e-02
2.644855296239256859e-03
2.359207347035408020e-02
1.045718863606452942e-01
-2.584262518212199211e-03
6.670549511909484863e-02
1.390024721622467041e-01
9.062420576810836792e-02
1.563199758529663086e-01
-1.953447982668876648e-02
-1.661734282970428467e-02
-1.036435887217521667e-01
-1.569343614391982555e-03
1.265357732772827148e-01
1.474009156227111816e-01
9.747764468193054199e-02
-6.049548462033271790e-02
5.884817801415920258e-03
3.754117712378501892e-02
4.191752057522535324e-03
-7.745574414730072021e-02
-3.049479983747005463e-02
5.251580104231834412e-02
-3.044017963111400604e-02
2.695035561919212341e-02
-1.278089731931686401e-01
-1.545337736606597900e-01
7.507444918155670166e-02
-1.098917126655578613e-01
-3.332012146711349487e-02
4.228981211781501770e-02
5.476637184619903564e-02
-3.090364858508110046e-03
4.674684628844261169e-02
2.605243772268295288e-02
1.057173358276486397e-03
-6.084147840738296509e-02
-2.272484591230750084e-03
-5.315320566296577454e-02
-3.574884682893753052e-02
3.440631926059722900e-02
2.177657932043075562e-02
2.936048619449138641e-02
3.920823335647583008e-02
-1.240098942071199417e-02
6.096678227186203003e-02
-1.972809880971908569e-01
-4.503888636827468872e-02
-1.579983085393905640e-01
1.096932310611009598e-02
6.849796324968338013e-02
5.328695476055145264e-02
-4.174073040485382080e-02
3.225175198167562485e-03
6.706389039754867554e-02
9.915439039468765259e-02
-3.748399391770362854e-02
6.571130454540252686e-02
-2.824761718511581421e-02
1.729646921157836914e-01
5.608537420630455017e-02
-4.468419775366783142e-02
-5.432124063372612000e-02
-3.893681615591049194e-02
-1.028454769402742386e-02
2.423750050365924835e-02
-3.405784815549850464e-02
5.555995181202888489e-02
2.039027214050292969e-02
5.307548865675926208e-02
-6.183512508869171143e-02
2.872620336711406708e-02
-4.236756823956966400e-03
-1.559194270521402359e-02
3.896591067314147949e-02
-3.629354760050773621e-03
-3.739300882443785667e-03
-1.176925003528594971e-02
-1.229684874415397644e-01
-8.183354139328002930e-02
-5.830572918057441711e-02
1.930355466902256012e-02
-7.724344730377197266e-02
6.911089271306991577e-02
-4.276416078209877014e-02
5.848905816674232483e-02
4.905047267675399780e-02
-1.593215740285813808e-03
7.276622205972671509e-02
-1.170490607619285583e-01
-4.001760482788085938e-02
-2.799725532531738281e-02
-4.507350921630859375e-02
5.064265429973602295e-02
5.928646028041839600e-02
-1.734763383865356445e-02
-1.114096119999885559e-01
-7.409385405480861664e-03
2.365964837372303009e-02
1.057127192616462708e-01
-1.986545277759432793e-03
-1.804093830287456512e-02
1.584616373293101788e-03
4.145277664065361023e-02
4.974976181983947754e-02
-1.066410169005393982e-02
-1.428741812705993652e-01
5.395627394318580627e-02
5.616408213973045349e-02
-4.752286896109580994e-02
-7.278378587216138840e-03
1.071113068610429764e-02
-4.894132912158966064e-02
2.316637709736824036e-02
-6.947425752878189087e-02
1.357081998139619827e-02
3.283776715397834778e-02
3.088989108800888062e-02
-8.863851428031921387e-02
-7.091874629259109497e-02
2.584329433739185333e-02
9.760148078203201294e-02
1.408514827489852905e-01
-1.175888534635305405e-02
-1.083388403058052063e-01
-7.708178460597991943e-02
1.264112535864114761e-03
-1.409250404685735703e-02
-1.009333692491054535e-02
-1.304737776517868042e-01
4.557494074106216431e-02
-6.702359765768051147e-03
3.316060872748494148e-03
3.319928795099258423e-02
-8.177131414413452148e-03
-4.003307223320007324e-02
5.649550631642341614e-02
1.121644750237464905e-01
-1.756346374750137329e-01
8.419448882341384888e-02
-2.554745785892009735e-02
2.939621731638908386e-02
-4.380741715431213379e-02
4.124474152922630310e-02
3.094152174890041351e-02
7.163988053798675537e-02
-6.308036297559738159e-02
5.688495934009552002e-02
-2.524723298847675323e-03
3.725256538018584251e-03
3.407365083694458008e-02
-5.894790962338447571e-02
8.949195034801959991e-03
9.872657060623168945e-02
2.817182987928390503e-02
-2.432756312191486359e-02
5.965315923094749451e-02
4.480723664164543152e-02
4.843779280781745911e-02
8.143579214811325073e-02
-7.074800878763198853e-02
-3.974710032343864441e-02
9.521545842289924622e-03
6.651913374662399292e-02
2.910549193620681763e-02
4.098205640912055969e-02
-3.087325254455208778e-03
1.261929571628570557e-01
-3.605075925588607788e-02
4.532258957624435425e-03
-6.432747840881347656e-02
-4.669493064284324646e-02
1.376742869615554810e-01
-6.513331085443496704e-02
5.847132205963134766e-02
3.263290226459503174e-02
8.095502853393554688e-02
-1.166955009102821350e-01
-1.928090490400791168e-02
-4.357666149735450745e-02
8.128096908330917358e-02
-9.031517058610916138e-02
-4.923548176884651184e-02
4.956281557679176331e-02
3.758226707577705383e-02
-8.096031099557876587e-02
-6.590685993432998657e-02
4.493558406829833984e-02
-1.446876581758260727e-02
-7.627537846565246582e-02
2.094070799648761749e-02
-1.172149460762739182e-02
-7.673191279172897339e-02
-1.678755693137645721e-02
1.549835596233606339e-02
3.834671154618263245e-02
-1.152521595358848572e-01
-2.842462435364723206e-02
7.600243389606475830e-02
5.661502107977867126e-02
-2.953380718827247620e-02
2.193903923034667969e-01
-2.073887549340724945e-02
-4.658617079257965088e-03
-5.773653462529182434e-02
-2.534483186900615692e-02
5.594105459749698639e-03
4.820920526981353760e-02
1.397280991077423096e-01
-2.147288247942924500e-02
6.652998924255371094e-02
3.961183503270149231e-02
2.015283703804016113e-02
-5.653925985097885132e-02
1.323369331657886505e-02
-1.072040293365716934e-02
6.024422496557235718e-02
1.146592199802398682e-01
-9.350063651800155640e-02
-5.006705224514007568e-02
1.088860537856817245e-02
-9.292574971914291382e-02
-8.028994500637054443e-02
-3.770190104842185974e-02
5.309490114450454712e-02
-1.394024640321731567e-01
-2.406530082225799561e-02
-2.857835963368415833e-02
1.030908674001693726e-01
7.369568943977355957e-02
-6.481355428695678711e-02
7.185704540461301804e-03
-2.771562896668910980e-02
-3.930179774761199951e-02
-3.223509490489959717e-01
8.049617707729339600e-02
3.860892653465270996e-01
-7.990380376577377319e-02
1.738547161221504211e-02
-7.655217498540878296e-02
5.241128429770469666e-02
-2.152056060731410980e-02
6.578370183706283569e-02
2.432981878519058228e-02
-4.294601269066333771e-03
-3.352079913020133972e-02
9.265739936381578445e-05
-3.048354526981711388e-03
-6.417512148618698120e-02
6.212763953953981400e-03
8.380427025258541107e-04
-5.900356546044349670e-02
2.154794633388519287e-01
3.253095224499702454e-02
-5.714334547519683838e-03
2.324946690350770950e-03
3.343922272324562073e-02
6.264501065015792847e-02
5.816271156072616577e-02
5.486533418297767639e-02
7.405437529087066650e-02
1.544564366340637207e-01
2.079946920275688171e-03
-2.421900257468223572e-02
3.090976178646087646e-02
-5.499286949634552002e-02
-3.395123407244682312e-02
3.464958444237709045e-02
-3.058425784111022949e-01
-7.276538759469985962e-02
-8.050519973039627075e-02
-9.001246839761734009e-02
-4.851484671235084534e-03
2.299370989203453064e-02
-3.115052171051502228e-02
2.510968595743179321e-02
-2.646604552865028381e-03
2.457635104656219482e-02
-2.367948554456233978e-02
-6.386438757181167603e-02
1.093246042728424072e-01
-1.491450220346450806e-01
-6.145517900586128235e-02
-1.050345227122306824e-01
-2.160311937332153320e-01
4.135959595441818237e-02
-5.512552335858345032e-03
-6.585238967090845108e-03
3.056311234831809998e-02
-2.107878960669040680e-02
-3.957251459360122681e-02
-2.483919262886047363e-02
2.649391256272792816e-02
1.961992308497428894e-02
-3.046466782689094543e-02
2.821107394993305206e-02
-7.380763534456491470e-03
1.850304193794727325e-02
4.593804851174354553e-02
-5.656560510396957397e-02
1.922558434307575226e-02
-1.191124320030212402e-02
3.826001286506652832e-02
1.478110998868942261e-01
-1.038005501031875610e-01
7.019776385277509689e-03
-4.810955747961997986e-02
8.235818892717361450e-02
-4.156048595905303955e-02
-3.789917007088661194e-02
-4.067901894450187683e-02
4.807427898049354553e-02
4.392245039343833923e-02
-5.871241167187690735e-02
-3.750128298997879028e-02
3.426920995116233826e-02
9.675190784037113190e-03
5.491802841424942017e-02
2.692942321300506592e-02
-1.327639911323785782e-02
4.945635050535202026e-02
-3.873594477772712708e-02
-5.762268602848052979e-02
6.076886132359504700e-02
4.412363283336162567e-03
5.806279182434082031e-02
-2.876849658787250519e-02
-4.631144460290670395e-03
4.809131380170583725e-03
3.055427037179470062e-02
-4.579237196594476700e-03
-3.205559914931654930e-04
-2.882958389818668365e-02
8.708496391773223877e-02
7.340680062770843506e-02
3.150843828916549683e-02
2.778223343193531036e-02
-3.364735469222068787e-02
6.004980579018592834e-02
1.601899713277816772e-01
-6.038592755794525146e-02
7.744661532342433929e-03
9.967233240604400635e-02
6.341263651847839355e-02
2.099698036909103394e-02
-1.011392399668693542e-01
-5.166867375373840332e-02
1.364510357379913330e-01
6.359137594699859619e-02
-3.081864304840564728e-02
3.858532756567001343e-02
1.441193744540214539e-02
8.197252638638019562e-03
1.484772562980651855e-01
7.750285416841506958e-02
2.490282291546463966e-03
1.166917756199836731e-01
7.881489396095275879e-02
-6.076247617602348328e-02
-1.419031061232089996e-02
5.107467994093894958e-02
4.661921411752700806e-02
-5.454391241073608398e-03
-9.931766241788864136e-02
9.977877140045166016e-02
8.349785208702087402e-02
5.648779869079589844e-02
-1.393377035856246948e-01
-1.305752247571945190e-01
6.319277733564376831e-02
5.182848870754241943e-02
-1.235290393233299255e-01
-2.618169225752353668e-02
2.404124662280082703e-02
-1.005839370191097260e-02
7.266735285520553589e-02
2.523226477205753326e-02
3.812915086746215820e-02
-3.694311156868934631e-02
-8.163867890834808350e-02
9.770515374839305878e-03
3.245702013373374939e-02
4.575812444090843201e-02
-4.490550979971885681e-02
2.129916846752166748e-02
-2.632397413253784180e-02
-7.818840444087982178e-02
-9.139952063560485840e-02
-6.439930200576782227e-02
-7.221908122301101685e-02
8.465014398097991943e-03
5.582572892308235168e-03
7.820170372724533081e-03
-4.899952933192253113e-02
2.315532183274626732e-03
4.371457546949386597e-02
-3.357402607798576355e-02
9.121610224246978760e-02
4.146027937531471252e-02
6.047868728637695312e-02
1.161184310913085938e-01
2.263718983158469200e-03
-1.334420405328273773e-02
7.160504162311553955e-02
8.380660787224769592e-03
4.366522282361984253e-02
5.520971957594156265e-03
-1.235675648786127567e-03
1.685297489166259766e-02
5.041515082120895386e-02
7.142291963100433350e-02
2.561032597441226244e-04
-3.377874568104743958e-02
-4.000943154096603394e-02
5.814231559634208679e-02
1.456319633871316910e-02
-5.031980946660041809e-02
-9.004840254783630371e-02
-7.414716482162475586e-02
6.488768383860588074e-03
-7.627782225608825684e-02
-1.101884245872497559e-01
2.372118644416332245e-02
-3.776195645332336426e-02
-8.500020205974578857e-02
-7.459310442209243774e-02
-4.496986512094736099e-03
-1.253933738917112350e-02
-3.245688974857330322e-02
5.698714777827262878e-02
-1.046852469444274902e-01
7.756587862968444824e-02
1.526226252317428589e-01
-6.956669688224792480e-02
-4.525214061141014099e-02
9.864614158868789673e-02
5.457545816898345947e-02
2.967983484268188477e-02
7.576268166303634644e-02
-7.036270201206207275e-02
-7.684131618589162827e-03
7.614086568355560303e-02
4.401609301567077637e-02
-3.972885012626647949e-02
-6.863789260387420654e-02
6.453064084053039551e-02
2.064532367512583733e-03
-4.569868743419647217e-02
-1.213647797703742981e-01
5.237289518117904663e-02
3.212279174476861954e-03
5.822547152638435364e-02
-7.975812768563628197e-04
-4.409416764974594116e-02
-5.403426662087440491e-02
5.745232105255126953e-02
2.473593689501285553e-02
-8.392657339572906494e-02
-6.180014088749885559e-02
1.032493412494659424e-01
-9.311956167221069336e-02
5.069344490766525269e-02
-2.627453953027725220e-02
-7.866805419325828552e-03
7.671046070754528046e-03
8.341204375028610229e-02
-1.155032292008399963e-01
-5.270481482148170471e-02
-8.860432356595993042e-02
1.514397375285625458e-02
-3.060701861977577209e-02
-2.989382855594158173e-02
-6.070370972156524658e-02
-9.687518328428268433e-02
-2.631129510700702667e-02
1.291997134685516357e-01
-1.264646649360656738e-02
-3.777474164962768555e-02
8.686488121747970581e-02
-6.457088142633438110e-02
3.070782683789730072e-02
-5.571663752198219299e-02
2.207950310548767447e-04
-1.644628047943115234e-01
-1.056182831525802612e-01
-6.753538548946380615e-02
-3.561714664101600647e-02
-9.410435706377029419e-02
-7.282695919275283813e-02
-5.122290551662445068e-02
-7.529564946889877319e-02
-1.588596217334270477e-02
-1.457559764385223389e-01
2.909453585743904114e-02
-2.000207826495170593e-02
8.791346102952957153e-02
2.449711970984935760e-02
-6.520351767539978027e-02
2.252698503434658051e-02
-3.639545291662216187e-02
-6.433790177106857300e-02
-1.027208752930164337e-03
7.804478053003549576e-03
-4.985772073268890381e-02
3.036124864593148232e-03
-4.857972636818885803e-02
9.698899090290069580e-02
-4.549042880535125732e-02
2.819186449050903320e-02
-5.371843650937080383e-02
1.730831563472747803e-01
-6.034251768141984940e-03
-6.220205873250961304e-02
-4.880962893366813660e-02
-1.066274940967559814e-02
8.760124444961547852e-02
2.210233174264431000e-02
4.225263372063636780e-03
-5.207785964012145996e-02
1.123552098870277405e-01
4.720070958137512207e-02
-8.720886707305908203e-02
-2.036586590111255646e-02
8.207258768379688263e-03
-7.050232589244842529e-02
-3.715334460139274597e-02
1.027368754148483276e-01
-1.040100231766700745e-01
5.180134251713752747e-02
-6.604039669036865234e-02
2.187649160623550415e-02
3.797183185815811157e-02
3.203493542969226837e-03
-8.322965353727340698e-02
-3.352578356862068176e-02
-9.250014275312423706e-02
9.568441659212112427e-03
8.318288624286651611e-02
2.317038178443908691e-02
-6.448349356651306152e-02
9.263410419225692749e-02
8.884754031896591187e-03
-3.390429168939590454e-02
6.009291484951972961e-02
1.808094605803489685e-02
-4.695597663521766663e-02
5.288295447826385498e-02
1.742726564407348633e-02
3.578823804855346680e-02
-1.537579204887151718e-02
9.915324859321117401e-03
-2.718024188652634621e-03
4.638764262199401855e-02
-2.457558922469615936e-02
1.465052925050258636e-02
-4.055159911513328552e-02
4.517101868987083435e-02
4.014833271503448486e-02
-1.781336381100118160e-03
-1.175027638673782349e-01
-1.110136657953262329e-01
3.196246549487113953e-02
5.494131147861480713e-02
1.283915936946868896e-01
-5.762807279825210571e-02
-3.560176491737365723e-02
9.344998747110366821e-02
1.768950931727886200e-02
-2.878654003143310547e-02
-8.566564880311489105e-03
-4.309037327766418457e-02
4.094508290290832520e-02
7.054136693477630615e-02
-2.835109084844589233e-02
-1.995409652590751648e-02
3.453525900840759277e-02
-4.531623050570487976e-02
-2.114997990429401398e-02
4.459285363554954529e-02
-4.446459934115409851e-02
-1.970132626593112946e-02
1.160287205129861832e-02
4.037883505225181580e-02
-7.902867160737514496e-03
2.678572386503219604e-02
-2.726732939481735229e-02
-2.810586430132389069e-02
-5.929386615753173828e-02
-2.060497179627418518e-02
4.188241064548492432e-02
6.123851635493338108e-04
-1.354417800903320312e-01
-1.359540373086929321e-01
1.815293543040752411e-02
-3.497968986630439758e-02
-1.580779552459716797e-01
3.832535818219184875e-02
1.075930148363113403e-01
-2.197183854877948761e-02
-3.373740985989570618e-02
-3.876785188913345337e-02
2.671969309449195862e-02
-5.193704366683959961e-02
1.150364172644913197e-03
-3.169900737702846527e-03
-1.244952604174613953e-01
-3.743836283683776855e-02
-1.527040004730224609e-01
-6.365329027175903320e-02
-6.132974289357662201e-03
-8.544542640447616577e-02
-1.155887637287378311e-02
9.686651825904846191e-02
8.788117766380310059e-02
3.714701160788536072e-02
-1.177646815776824951e-01
3.321370854973793030e-02
-4.785258788615465164e-03
1.389958057552576065e-02
-3.180100396275520325e-02
5.789979174733161926e-02
3.831144049763679504e-02
1.115454360842704773e-03
-4.586055129766464233e-02
-4.607450589537620544e-02
-7.462053745985031128e-02
6.139787659049034119e-02
-4.439716786146163940e-02
-9.831972420215606689e-02
-3.572361171245574951e-02
-5.491441115736961365e-02
-1.507540815509855747e-03
1.609971560537815094e-02
8.913567662239074707e-02
-2.463252097368240356e-02
3.769519925117492676e-02
-8.094233274459838867e-02
-3.350765630602836609e-02
-1.241889037191867828e-02
-1.264656055718660355e-02
4.357138648629188538e-02
1.913990825414657593e-02
-7.747908681631088257e-02
-4.270455241203308105e-02
-2.464523352682590485e-02
7.621493190526962280e-02
2.451601624488830566e-02
4.846303537487983704e-02
3.276369348168373108e-02
-1.144849695265293121e-02
3.893600776791572571e-02
-1.048623863607645035e-02
2.965599484741687775e-02
8.360607922077178955e-02
-9.766613366082310677e-04
3.632802888751029968e-02
4.391550272703170776e-02
8.424600213766098022e-02
-7.660403847694396973e-02
-3.572589717805385590e-03
-1.647786945104598999e-01
9.187553077936172485e-02
-6.351498514413833618e-02
-9.674213081598281860e-02
-1.169826388359069824e-01
-1.750446623191237450e-03
-4.707346111536026001e-02
-2.741754986345767975e-02
5.430153012275695801e-02
4.924666136503219604e-02
9.096102416515350342e-02
1.121126860380172729e-01
1.131368149071931839e-02
-8.048284053802490234e-02
5.062211677432060242e-02
5.117632076144218445e-02
8.027191460132598877e-02
-2.274709567427635193e-02
-4.757539182901382446e-02
2.394602820277214050e-02
2.560732327401638031e-02
-8.885589241981506348e-02
8.950720727443695068e-02
-7.344887405633926392e-02
1.188966706395149231e-01
4.910425748676061630e-03
-1.586674302816390991e-01
4.486677050590515137e-02
1.359124034643173218e-01
-7.863072096370160580e-04
-7.673975080251693726e-02
4.915092885494232178e-02
2.693561092019081116e-02
-1.149105876684188843e-01
-1.019743904471397400e-01
-8.731284737586975098e-02
4.006676003336906433e-02
7.363663613796234131e-02
-8.825130760669708252e-02
3.819790109992027283e-02
-1.045078504830598831e-02
-1.055698022246360779e-01
-6.050800904631614685e-02
1.143782213330268860e-01
5.655038729310035706e-02
1.240040510892868042e-01
-8.770019561052322388e-02
-1.215525716543197632e-02
-1.137283071875572205e-02
4.072902351617813110e-02
-1.004103571176528931e-01
1.532125324010848999e-01
-5.338982213288545609e-03
-2.670470811426639557e-02
-7.426582276821136475e-02
1.250096857547760010e-01
-1.007772386074066162e-01
5.758194625377655029e-02
9.266346693038940430e-02
2.405637688934803009e-02
1.262750774621963501e-01
-1.435335632413625717e-02
-4.942110925912857056e-02
5.079393833875656128e-02
7.024969905614852905e-02
-8.640264160931110382e-03
-9.262469410896301270e-02
-7.585521321743726730e-03
-2.718281373381614685e-02
6.175974011421203613e-02
6.948740780353546143e-02
5.210282281041145325e-02
-4.201255738735198975e-02
1.300349272787570953e-02
-5.425042659044265747e-02
-4.305808618664741516e-02
-1.755018346011638641e-02
6.287511438131332397e-02
-5.315481871366500854e-02
-7.948011904954910278e-02
-5.195571109652519226e-02
3.218121081590652466e-02
2.815747819840908051e-02
-6.703428179025650024e-02
-3.929391503334045410e-02
2.896521240472793579e-02
4.814358428120613098e-02
8.071184903383255005e-02
5.636023730039596558e-02
-1.580875366926193237e-03
8.881173282861709595e-02
-5.823276937007904053e-02
3.784399107098579407e-02
-2.541622705757617950e-02
-6.945571303367614746e-02
4.494386166334152222e-02
-2.230869419872760773e-02
-1.700014434754848480e-02
-4.135821759700775146e-02
1.999770291149616241e-02
-3.901392593979835510e-02
7.058156188577413559e-03
2.733853645622730255e-02
-1.028193384408950806e-01
6.680296361446380615e-02
-3.054655343294143677e-02
4.409633576869964600e-02
5.859195441007614136e-02
6.785963475704193115e-02
-2.372407354414463043e-03
3.764794766902923584e-02
2.036633901298046112e-02
6.374339759349822998e-02
1.167805958539247513e-02
-4.842722788453102112e-02
-1.129138749092817307e-02
2.881493605673313141e-02
-3.584098443388938904e-02
3.506037592887878418e-02
2.975848689675331116e-02
-5.906749516725540161e-02
-1.270839720964431763e-01
-9.998870640993118286e-02
-9.689456969499588013e-02
-1.355150789022445679e-01
5.400219000875949860e-03
3.576711937785148621e-02
-5.288139358162879944e-02
-5.035654082894325256e-02
1.008876860141754150e-01
1.448946148157119751e-01
-9.547790884971618652e-02
2.694303169846534729e-02
6.654383987188339233e-02
2.394852042198181152e-02
-9.467851370573043823e-02
-2.247333526611328125e-02
5.230952426791191101e-02
1.965708564966917038e-03
-3.433845937252044678e-02
-3.242376074194908142e-02
-3.210700303316116333e-02
2.885144203901290894e-02
5.890706181526184082e-02
-3.703041374683380127e-02
-4.998714849352836609e-02
1.901963911950588226e-02
1.788049750030040741e-02
6.116086989641189575e-02
4.154580086469650269e-02
-6.513156928122043610e-03
-7.761062588542699814e-03
1.956975832581520081e-02
-5.753523111343383789e-02
1.522219181060791016e-02
-5.090984329581260681e-02
1.647558808326721191e-02
-3.678748384118080139e-02
-1.790985814295709133e-03
-2.040937170386314392e-02
7.451270706951618195e-03
8.869404700817540288e-05
-1.983436383306980133e-02
5.385630205273628235e-02
-2.473331242799758911e-02
1.132373884320259094e-02
-3.397494554519653320e-02
1.509774290025234222e-02
1.051336620002985001e-02
-5.749116186052560806e-03
2.134545892477035522e-02
-5.174363031983375549e-02
-5.450375750660896301e-02
6.244511529803276062e-02
-6.070899218320846558e-02
-1.530858408659696579e-02
1.869795471429824829e-02
2.432631701231002808e-02
4.772344976663589478e-02
-3.003852069377899170e-02
6.172649562358856201e-03
-3.397765755653381348e-02
1.746766269207000732e-02
6.185482069849967957e-02
-1.227625459432601929e-02
-5.481911823153495789e-03
5.162341147661209106e-02
4.196302220225334167e-02
3.898598998785018921e-02
-3.906771168112754822e-02
-1.315747853368520737e-02
-6.432144343852996826e-02
4.778162762522697449e-02
-3.600195795297622681e-02
-2.618997171521186829e-02
5.875606462359428406e-02
-5.577617138624191284e-02
3.256989270448684692e-02
2.826229110360145569e-02
-4.434604942798614502e-02
4.908478260040283203e-02
6.238601356744766235e-02
5.249336734414100647e-02
1.827318593859672546e-02
1.356605999171733856e-02
5.886055156588554382e-02
-6.201725080609321594e-02
-5.783642455935478210e-02
-2.103271149098873138e-02
-4.177010059356689453e-02
6.210706010460853577e-02
-3.505641222000122070e-02
-4.844265524297952652e-03
1.220855582505464554e-02
6.356294453144073486e-02
-5.152063816785812378e-02
-1.350302831269800663e-03
-1.851762086153030396e-02
1.883753947913646698e-02
-5.936685949563980103e-02
1.411023922264575958e-02
-3.379375487565994263e-02
3.287617489695549011e-02
-3.010686673223972321e-02
-1.734264008700847626e-02
-7.512005511671304703e-03
-1.899197697639465332e-02
5.185026302933692932e-02
3.950359672307968140e-02
-4.324092343449592590e-02
2.220139466226100922e-02
-4.157688934355974197e-03
5.544532462954521179e-02
-2.032684162259101868e-02
-6.434625014662742615e-03
-5.023109912872314453e-02
5.276700854301452637e-02
4.946367442607879639e-02
3.503391146659851074e-02
3.730036318302154541e-02
-5.004728585481643677e-02
3.655832260847091675e-02
-2.766377874650061131e-04
3.413639217615127563e-02
-2.093807235360145569e-02
3.224498778581619263e-02
3.875666856765747070e-02
3.896475583314895630e-02
6.582040339708328247e-02
-6.785376369953155518e-02
-5.114691704511642456e-02
-2.580750174820423126e-02
-5.206500738859176636e-02
6.144439801573753357e-02
-1.701251603662967682e-02
-2.691812999546527863e-02
-3.092023916542530060e-02
1.231703441590070724e-02
5.559924989938735962e-02
-5.924854800105094910e-02
4.695864394307136536e-02
1.522332336753606796e-02
2.214528992772102356e-02
1.865831203758716583e-03
-5.405590310692787170e-02
4.927189275622367859e-02
-3.450236842036247253e-02
-2.014416642487049103e-02
-3.269648179411888123e-02
6.353077292442321777e-02
-1.581897772848606110e-02
-5.603070184588432312e-02
5.807745829224586487e-02
-5.629181116819381714e-02
1.287686824798583984e-02
-5.039962939918041229e-03
1.370806712657213211e-02
-5.596167966723442078e-02
-9.733851999044418335e-03
-3.238609805703163147e-02
-6.321498006582260132e-02
4.348422214388847351e-02
3.774723783135414124e-02
3.518686816096305847e-02
5.921663716435432434e-02
-5.635575950145721436e-02
-3.532871976494789124e-02
4.318991675972938538e-02
-4.199993610382080078e-02
-3.387191891670227051e-02
-2.944187447428703308e-02
-5.974442139267921448e-02
2.194322086870670319e-02
5.977639183402061462e-02
4.703428223729133606e-02
-1.925553008913993835e-02
-5.377668514847755432e-02
2.187147736549377441e-02
6.252286583185195923e-02
4.095691442489624023e-02
2.056312933564186096e-02
-8.515654131770133972e-03
-2.540157176554203033e-02
-1.154206600040197372e-02
2.244682982563972473e-02
-6.764622405171394348e-03
1.028802432119846344e-02
6.271441280841827393e-02
9.621601551771163940e-03
-6.315571721643209457e-03
-3.594717383384704590e-02
-1.320201344788074493e-02
-5.604152753949165344e-02
-8.801274932920932770e-03
6.380789726972579956e-02
3.231975948438048363e-03
-5.515230074524879456e-02
1.360567472875118256e-02
2.197392843663692474e-02
-7.005513645708560944e-03
5.290277674794197083e-02
2.907893247902393341e-02
6.713489070534706116e-03
-3.929155692458152771e-02
4.066153895109891891e-03
-2.371846325695514679e-02
5.421261861920356750e-02
3.007734008133411407e-02
-4.709989205002784729e-02
-5.460564419627189636e-02
-1.643464528024196625e-02
9.769757278263568878e-03
-2.718659862875938416e-02
-3.721893578767776489e-02
-3.832378983497619629e-02
2.122404985129833221e-02
4.590835422277450562e-02
-3.347808029502630234e-03
-5.934817343950271606e-02
-1.120677217841148376e-02
3.594525158405303955e-02
-4.639847949147224426e-02
1.582663506269454956e-02
-5.110263451933860779e-02
6.246289983391761780e-02
3.764111176133155823e-02
-2.714974619448184967e-02
3.951001912355422974e-02
-4.947593435645103455e-02
3.181596100330352783e-02
-4.597551375627517700e-02
-6.727176904678344727e-02
-4.007426649332046509e-02
3.683627396821975708e-02
4.740193858742713928e-02
1.663269661366939545e-02
-5.912217125296592712e-02
3.649698570370674133e-02
-5.685426294803619385e-02
-3.836616873741149902e-02
3.575256839394569397e-02
-1.615256071090698242e-02
-5.797751992940902710e-02
-1.377911190502345562e-03
-3.707541152834892273e-02
-1.800127141177654266e-02
-4.283887520432472229e-02
4.360609874129295349e-02
-3.397582471370697021e-02
-2.631905255839228630e-03
-4.249015450477600098e-02
4.915190860629081726e-02
-5.708956345915794373e-02
-5.647164210677146912e-02
-3.005002625286579132e-02
-4.804716259241104126e-02
-1.714697573333978653e-03
4.201145842671394348e-02
-3.851747512817382812e-02
4.143517930060625076e-03
1.165398396551609039e-02
-5.970486626029014587e-02
-4.710273072123527527e-02
-6.929920520633459091e-03
3.179486468434333801e-02
3.537548333406448364e-02
4.694671556353569031e-02
3.603432327508926392e-03
4.965998814441263676e-04
5.118253827095031738e-02
2.384692616760730743e-02
2.582062594592571259e-02
1.922426978126168251e-03
5.905716866254806519e-02
-1.204602234065532684e-02
-4.229085147380828857e-02
-4.136255010962486267e-02
-1.356071606278419495e-02
2.265665121376514435e-02
2.698274515569210052e-02
8.645444177091121674e-03
-1.899444870650768280e-02
-3.889700770378112793e-02
-3.427216038107872009e-02
-4.093006625771522522e-02
3.125791996717453003e-02
-2.375536598265171051e-02
-1.220464706420898438e-02
-3.587558120489120483e-02
-3.214794769883155823e-02
-6.862211227416992188e-02
4.486089944839477539e-02
1.310245785862207413e-02
-2.426485531032085419e-02
5.307937413454055786e-02
3.400820493698120117e-02
6.512653827667236328e-02
4.532854259014129639e-02
-6.573771685361862183e-02
-2.374398149549961090e-02
-1.660105958580970764e-02
1.230895221233367920e-01
1.061205491423606873e-01
4.455136880278587341e-02
-6.681717932224273682e-03
2.929212059825658798e-03
5.468097329139709473e-02
2.657793276011943817e-02
-4.155389219522476196e-02
4.461354017257690430e-02
-1.036683563143014908e-03
-2.281537838280200958e-02
-6.059592217206954956e-02
9.042427875101566315e-03
8.397566271014511585e-04
-1.118237618356943130e-02
-4.750147461891174316e-02
-1.580212265253067017e-02
-5.156094953417778015e-02
-2.049788832664489746e-02
5.835133790969848633e-02
-4.563610535115003586e-03
-4.333282634615898132e-02
-7.523681223392486572e-02
-1.534276008605957031e-01
-2.972446009516716003e-02
1.823568716645240784e-02
3.707137703895568848e-02
-5.130496993660926819e-02
7.056058943271636963e-02
-2.048818580806255341e-02
-2.768431231379508972e-02
1.218911036849021912e-01
4.642449319362640381e-02
1.399565786123275757e-01
-3.214077651500701904e-02
8.012605458498001099e-02
1.455522142350673676e-02
4.053786396980285645e-03
6.961153447628021240e-02
-4.027843847870826721e-02
-3.217403590679168701e-02
2.080375514924526215e-02
-9.481167048215866089e-02
-7.910441607236862183e-02
4.387413337826728821e-02
4.007430374622344971e-02
9.450543671846389771e-03
1.855063736438751221e-01
-4.963063448667526245e-02
1.847102679312229156e-02
4.306771233677864075e-02
-8.531484752893447876e-02
-2.431363612413406372e-02
-2.085663825273513794e-01
-8.333949372172355652e-03
1.354241278022527695e-02
4.755489528179168701e-02
-5.129583179950714111e-02
8.350001648068428040e-03
1.518102269619703293e-02
3.760219737887382507e-02
-4.081307351589202881e-02
-5.571468919515609741e-02
1.473405808210372925e-01
1.646527647972106934e-02
5.655518174171447754e-02
-1.423507090657949448e-02
-1.197770796716213226e-02
2.123815007507801056e-02
8.574060164391994476e-03
1.278179883956909180e-01
-6.924527138471603394e-02
-2.286866679787635803e-02
6.495977193117141724e-02
-4.210151359438896179e-02
7.494880352169275284e-03
-7.109376136213541031e-03
5.024355649948120117e-02
4.281294345855712891e-02
2.588973753154277802e-02
6.496609002351760864e-02
-9.311825037002563477e-02
5.623053386807441711e-02
-3.139679506421089172e-02
-2.477260865271091461e-02
5.669977515935897827e-02
5.164261907339096069e-02
-4.668964445590972900e-02
6.824086606502532959e-02
-7.791915442794561386e-03
7.986128330230712891e-02
2.061451226472854614e-02
-5.602658260613679886e-03
-3.889491409063339233e-02
-2.030144259333610535e-02
1.378791290335357189e-03
6.206869333982467651e-02
-3.241916373372077942e-02
-1.738604158163070679e-02
-6.190965883433818817e-03
6.928593851625919342e-03
-3.328845277428627014e-02
8.005337417125701904e-02
-4.134948551654815674e-02
-1.760947145521640778e-02
-1.718511991202831268e-02
2.887064777314662933e-02
-7.421591132879257202e-02
-5.095090344548225403e-02
-8.043677359819412231e-02
-2.874101046472787857e-03
-5.491799861192703247e-02
-8.624303340911865234e-02
-6.588334590196609497e-02
7.203114777803421021e-02
-1.501252502202987671e-01
1.661269664764404297e-01
2.156398743391036987e-01
-1.011943444609642029e-01
-1.103608086705207825e-01
2.213797904551029205e-02
6.540696322917938232e-02
8.051352947950363159e-02
-8.519382774829864502e-02
-1.165092960000038147e-01
7.966375909745693207e-03
1.640698499977588654e-02
2.915786579251289368e-02
-3.593887016177177429e-02
-3.032270632684230804e-02
1.576518267393112183e-01
1.120614539831876755e-02
6.632363796234130859e-02
-4.250397533178329468e-02
3.471525385975837708e-02
-1.160225458443164825e-02
4.311620257794857025e-03
6.013629585504531860e-02
4.544705525040626526e-02
-3.346233069896697998e-02
1.176212280988693237e-01
4.754870757460594177e-02
-3.864010423421859741e-02
9.104814380407333374e-03
6.279080361127853394e-02
6.751956790685653687e-02
6.714884191751480103e-03
4.287056624889373779e-02
-2.345586754381656647e-02
-4.991898313164710999e-02
2.704371511936187744e-02
7.796027511358261108e-02
-2.188189700245857239e-02
-4.261102154850959778e-02
2.795965224504470825e-02
-9.992162697017192841e-03
1.058686804026365280e-02
-5.191072821617126465e-02
-2.915258705615997314e-02
4.793243482708930969e-02
-1.084782369434833527e-02
1.083508227020502090e-02
-4.598482325673103333e-02
1.374315656721591949e-02
3.995600563939660788e-04
4.078938812017440796e-02
2.286405116319656372e-02
5.003551486879587173e-04
4.832168295979499817e-02
1.329111307859420776e-01
7.158529758453369141e-02
8.107671886682510376e-02
-1.482290588319301605e-02
-3.039439208805561066e-02
-1.126557141542434692e-01
3.588140243664383888e-03
-1.431307345628738403e-01
-1.152265220880508423e-01
9.216499747708439827e-04
5.080844834446907043e-02
-1.163824573159217834e-01
-2.977759018540382385e-02
1.145053654909133911e-02
-5.983097851276397705e-02
4.230280220508575439e-02
-1.055531390011310577e-02
-9.969274513423442841e-03
3.662594780325889587e-02
5.814418196678161621e-02
-3.245339542627334595e-02
-1.729878596961498260e-02
-7.174797356128692627e-02
-5.280609056353569031e-02
-5.044908076524734497e-02
-4.870462045073509216e-02
-1.084803342819213867e-01
7.096704840660095215e-02
-1.885530054569244385e-01
-2.174678593873977661e-01
-3.685552626848220825e-02
1.272802650928497314e-01
2.395079471170902252e-02
1.007412932813167572e-02
4.934493079781532288e-02
7.731787860393524170e-02
5.565731972455978394e-02
9.337233006954193115e-02
5.159542337059974670e-02
1.184668913483619690e-01
-3.517780452966690063e-02
-1.881172764115035534e-03
-9.608460590243339539e-03
6.273972243070602417e-02
-3.196435049176216125e-02
7.458527386188507080e-02
-9.889449924230575562e-02
-1.653886586427688599e-02
-8.067400008440017700e-02
-6.866814196109771729e-02
-5.344967916607856750e-02
-8.005917817354202271e-02
1.158118993043899536e-01
1.261899024248123169e-01
9.787634760141372681e-02
-7.870005071163177490e-02
9.632146358489990234e-02
1.574698984622955322e-01
-3.621381148695945740e-02
5.884242802858352661e-02
-2.902381122112274170e-02
1.806079223752021790e-02
-5.572202429175376892e-02
3.595725866034626961e-03
-4.548341035842895508e-02
-4.960576537996530533e-03
2.931809239089488983e-02
4.253900051116943359e-02
-2.744179777801036835e-02
4.126622155308723450e-02
-1.978123933076858521e-02
3.398747416213154793e-03
-3.294460847973823547e-02
5.679070577025413513e-02
-5.105837434530258179e-02
-6.655124574899673462e-02
5.443966761231422424e-02
2.317588031291961670e-02
-8.422948420047760010e-02
3.249975666403770447e-02
-3.114271722733974457e-02
7.734814286231994629e-02
-4.071624204516410828e-02
7.424884289503097534e-02
1.569901965558528900e-02
-7.977988570928573608e-02
3.982204943895339966e-02
1.630519926548004150e-01
1.397218555212020874e-02
1.881553418934345245e-02
-3.027978353202342987e-02
-1.685145869851112366e-02
-2.218618616461753845e-02
3.347079828381538391e-02
3.752847388386726379e-02
-1.004443876445293427e-02
-1.009317860007286072e-02
3.433914110064506531e-02
-2.585805021226406097e-02
1.265719812363386154e-02
-3.156627062708139420e-03
2.977985702455043793e-02
-2.176597714424133301e-02
-6.010768190026283264e-02
3.144265338778495789e-02
-4.222168773412704468e-02
5.314610153436660767e-02
-3.717799857258796692e-02
5.228726938366889954e-02
9.129970520734786987e-02
7.214317470788955688e-02
-1.356256753206253052e-02
-1.703979820013046265e-02
-5.245101638138294220e-03
6.264141201972961426e-02
-3.652555122971534729e-02
7.839204370975494385e-02
1.745078712701797485e-02
-3.618343034759163857e-03
2.337693236768245697e-02
-9.613898396492004395e-02
1.344327162951231003e-02
-2.387058921158313751e-02
-1.078833118081092834e-01
1.346127036958932877e-02
-4.437314718961715698e-02
-3.354045376181602478e-02
-1.185900568962097168e-01
1.247785170562565327e-03
2.678382582962512970e-02
-4.664539918303489685e-02
-1.064903661608695984e-02
-5.108242481946945190e-02
-3.917030990123748779e-02
-8.501479774713516235e-02
1.852880418300628662e-02
-5.989088118076324463e-02
-4.364015161991119385e-02
8.155673742294311523e-02
7.734838873147964478e-02
-8.410596102476119995e-02
-7.122863084077835083e-02
2.272313274443149567e-02
9.823572635650634766e-02
9.822464734315872192e-02
-7.943043857812881470e-02
2.528869546949863434e-02
1.518788374960422516e-02
-2.502124942839145660e-02
-3.105875570327043533e-03
9.258079342544078827e-03
-3.154503181576728821e-02
7.994492771103978157e-04
-2.097708545625209808e-02
-7.226765155792236328e-02
3.115331754088401794e-02
1.019201502203941345e-01
-1.236231997609138489e-02
-1.373343542218208313e-02
5.001420155167579651e-02
-6.813312321901321411e-02
2.378714457154273987e-02
-5.417205020785331726e-02
-7.407721132040023804e-02
5.795720033347606659e-03
-6.492168456315994263e-02
1.123658195137977600e-01
-1.472763624042272568e-02
1.088035255670547485e-01
-8.740487508475780487e-03
7.465788722038269043e-02
-2.335526980459690094e-02
-9.582253545522689819e-02
-3.568336740136146545e-02
3.508720919489860535e-02
-5.947245284914970398e-02
-1.366414725780487061e-01
-2.084075659513473511e-02
5.662640184164047241e-02
3.481424972414970398e-02
-6.167916208505630493e-02
2.404297329485416412e-02
2.970719709992408752e-02
9.110061824321746826e-02
1.636608876287937164e-02
-1.882729306817054749e-02
6.431882828474044800e-02
8.450090885162353516e-03
-3.756399080157279968e-02
-5.906374379992485046e-02
3.129191324114799500e-02
1.534740533679723740e-02
3.880256554111838341e-03
1.747281290590763092e-03
2.238049730658531189e-02
-9.174791723489761353e-02
2.418223954737186432e-02
3.426150884479284286e-03
-7.485713809728622437e-02
5.713954195380210876e-02
8.088895678520202637e-02
4.805794358253479004e-02
-8.528255671262741089e-02
-2.110525593161582947e-02
-7.382422219961881638e-03
-1.812568753957748413e-01
-6.676162779331207275e-02
6.658794730901718140e-02
1.513869408518075943e-02
7.861836254596710205e-02
1.823924854397773743e-02
-2.872620522975921631e-02
1.423976477235555649e-02
-2.321364916861057281e-02
9.541536122560501099e-02
-8.634070865809917450e-03
-2.797500230371952057e-02
-6.122958846390247345e-03
1.498748809099197388e-01
-9.198168409056961536e-04
7.587254792451858521e-02
-7.341308519244194031e-03
-1.415972714312374592e-03
1.372703611850738525e-01
-9.358041919767856598e-03
8.806182886473834515e-04
-4.490600153803825378e-02
-1.886598020792007446e-02
-1.029226463288068771e-02
5.768288392573595047e-03
-9.514418989419937134e-02
-4.438605532050132751e-02
8.349673822522163391e-03
3.294630348682403564e-02
5.146523192524909973e-02
-5.406521260738372803e-02
9.958354383707046509e-02
-8.884984254837036133e-02
-2.856655046343803406e-02
-2.285457774996757507e-02
-3.199691697955131531e-02
-5.116282403469085693e-02
-1.156682521104812622e-02
-8.932255208492279053e-02
4.666288197040557861e-02
-2.307724021375179291e-02
2.867587842047214508e-02
-9.833806753158569336e-02
1.633097603917121887e-02
-7.490961812436580658e-03
-4.963694140315055847e-02
-1.009248867630958557e-01
3.450945392251014709e-02
-6.127000600099563599e-02
-1.957799494266510010e-02
-8.468618988990783691e-02
-4.138118773698806763e-02
1.002486720681190491e-01
1.707361340522766113e-01
-2.302964180707931519e-01
6.756936758756637573e-02
-1.724997162818908691e-02
2.476270943880081177e-01
9.101728908717632294e-03
1.072077266871929169e-02
-5.289173871278762817e-02
4.385331273078918457e-02
-4.866525530815124512e-02
8.171224594116210938e-02
-1.937575452029705048e-02
5.617869272828102112e-02
5.260206386446952820e-02
8.983839303255081177e-02
-7.495559751987457275e-02
-2.725201658904552460e-02
-5.499463900923728943e-02
9.697858989238739014e-02
-1.510973670519888401e-03
-4.177690297365188599e-02
1.641633338294923306e-03
7.900688052177429199e-02
-1.085407435894012451e-01
4.714873433113098145e-02
-1.306255757808685303e-01
1.569322496652603149e-02
4.267649352550506592e-02
-5.701892822980880737e-02
-1.311450898647308350e-01
5.801584338769316673e-04
-4.470175597816705704e-03
-6.715890020132064819e-02
-2.691108360886573792e-02
-8.881484158337116241e-03
-3.011662885546684265e-02
-2.995447628200054169e-02
-7.385659962892532349e-02
5.979514867067337036e-02
9.617884643375873566e-03
1.778929680585861206e-02
-4.699342325329780579e-02
6.480821222066879272e-02
2.619823627173900604e-02
-9.543428570032119751e-02
1.501697394996881485e-02
-1.159591227769851685e-02
6.354764848947525024e-02
4.769045859575271606e-02
-4.396780580282211304e-02
-7.043784111738204956e-02
-6.118164863437414169e-03
-3.145547583699226379e-02
1.731442171148955822e-03
9.384844452142715454e-02
9.855908155441284180e-02
1.699561439454555511e-02
-1.616373099386692047e-02
4.450023919343948364e-02
-4.794647544622421265e-02
2.106854319572448730e-02
-4.352148249745368958e-02
-5.178750306367874146e-02
3.422537073493003845e-02
-1.404848601669073105e-02
-2.729617618024349213e-02
5.514665320515632629e-02
3.903650119900703430e-02
1.672822423279285431e-02
-4.947911575436592102e-02
-2.474965155124664307e-02
-1.447948068380355835e-02
1.277624908834695816e-02
4.629134386777877808e-02
1.008222624659538269e-02
-4.089200869202613831e-02
-1.161855272948741913e-02
4.793413728475570679e-02
-3.006408549845218658e-02
5.011776834726333618e-02
-1.492838840931653976e-02
-6.651649251580238342e-03
-1.025023870170116425e-02
9.296707808971405029e-03
-4.231670498847961426e-02
-4.340134933590888977e-02
-3.532022237777709961e-02
1.230993308126926422e-02
-5.161376670002937317e-02
1.274504791945219040e-02
2.866362221539020538e-02
4.133060202002525330e-02
5.701352283358573914e-02
-2.157410420477390289e-02
-4.914761055260896683e-03
5.428332462906837463e-02
-2.258386835455894470e-02
4.524742439389228821e-02
-1.588664762675762177e-02
6.416333490051329136e-04
6.102629005908966064e-02
2.614421397447586060e-02
-5.650977045297622681e-02
-6.163490191102027893e-02
-2.681685425341129303e-02
-2.299925871193408966e-02
-1.691410318017005920e-02
3.586715832352638245e-02
4.417403787374496460e-02
-2.536785416305065155e-02
4.390437528491020203e-02
-3.040165267884731293e-02
-3.843092592433094978e-03
8.152353577315807343e-03
-3.813535720109939575e-02
4.382986575365066528e-02
-3.372203931212425232e-02
3.717029467225074768e-02
-3.501390293240547180e-02
1.742900535464286804e-02
3.762739896774291992e-02
-2.436762303113937378e-02
3.021721914410591125e-02
-4.696150869131088257e-02
-2.663656882941722870e-02
1.431198511272668839e-02
-8.430960588157176971e-03
-2.284516952931880951e-02
-5.896113440394401550e-02
-1.134637929499149323e-02
5.510086566209793091e-02
4.101518541574478149e-02
2.629977185279130936e-03
2.040898054838180542e-02
-1.960548944771289825e-02
-5.623762682080268860e-02
1.841489970684051514e-02
5.118753015995025635e-02
3.060968965291976929e-02
-1.259404886513948441e-02
-9.590475820004940033e-03
4.656014963984489441e-02
4.719994589686393738e-02
-5.410763993859291077e-02
4.153481498360633850e-02
-6.815109401941299438e-02
5.993091687560081482e-02
-3.142803907394409180e-02
-5.604704841971397400e-02
-1.592501066625118256e-02
1.404295675456523895e-02
-3.755232691764831543e-02
6.439561489969491959e-03
3.387231007218360901e-02
-5.421097576618194580e-02
-2.897869236767292023e-02
-2.074625156819820404e-02
4.599225521087646484e-02
-2.510550431907176971e-02
2.870576828718185425e-02
2.254884876310825348e-02
4.508569464087486267e-02
5.667338892817497253e-02
-5.426559597253799438e-02
-1.402208302170038223e-02
4.022230952978134155e-02
-2.242319472134113312e-02
5.518470704555511475e-02
-6.513939052820205688e-02
-3.771540150046348572e-02
-1.597728393971920013e-02
-3.260995820164680481e-02
4.461494088172912598e-02
1.975722238421440125e-02
-2.976580336689949036e-02
-5.764801800251007080e-02
-2.282682247459888458e-02
4.191704839468002319e-02
-4.569273814558982849e-02
2.136147581040859222e-02
3.999592270702123642e-03
-2.113440632820129395e-02
-3.125374764204025269e-02
-5.799341574311256409e-02
-3.410827741026878357e-02
1.702794618904590607e-02
4.746109712868928909e-03
2.639370039105415344e-03
1.897291466593742371e-02
3.471979126334190369e-02
3.750159218907356262e-02
4.136925563216209412e-02
-5.925399437546730042e-02
-2.356323041021823883e-02
-5.458119884133338928e-02
-4.094811901450157166e-02
5.974833584332372993e-06
-4.169817268848419189e-02
4.613204672932624817e-02
2.661632001399993896e-02
-2.784719690680503845e-02
3.574172407388687134e-02
-1.063338713720440865e-03
-1.540021039545536041e-02
-2.099184878170490265e-02
4.406167566776275635e-02
-3.726835921406745911e-02
3.195936977863311768e-02
-2.608672901988029480e-02
5.005923658609390259e-02
3.268052265048027039e-02
2.585544809699058533e-02
-6.078009307384490967e-02
-2.022741734981536865e-02
6.054294481873512268e-02
5.399924144148826599e-02
-2.511375956237316132e-02
3.280428797006607056e-02
-6.169254705309867859e-02
-4.444111883640289307e-02
-5.076044425368309021e-02
-5.779070779681205750e-02
3.700311109423637390e-02
-3.519748151302337646e-02
-2.472639828920364380e-02
1.944760791957378387e-02
-4.333471879363059998e-02
-3.663599491119384766e-02
1.620758324861526489e-02
-4.068532213568687439e-02
1.247456483542919159e-02
5.305551365017890930e-02
-5.592480674386024475e-02
3.152016177773475647e-02
-3.797508403658866882e-02
4.707397148013114929e-02
-3.149027004837989807e-02
-4.908745363354682922e-02
1.220338884741067886e-02
-4.445311147719621658e-03
-4.112372174859046936e-02
-1.689410582184791565e-02
-2.473925799131393433e-02
2.539572864770889282e-02
3.606078401207923889e-02
1.159722544252872467e-02
1.708707958459854126e-02
-4.760516062378883362e-02
3.615621477365493774e-02
5.752724409103393555e-02
-2.114179730415344238e-02
-2.696105651557445526e-02
5.235099792480468750e-02
-2.076052129268646240e-03
2.465126849710941315e-02
-3.102961555123329163e-02
4.729652777314186096e-02
-5.682496726512908936e-02
-1.428197976201772690e-02
-2.213280275464057922e-02
-2.647770754992961884e-02
3.992713987827301025e-02
-4.230597242712974548e-02
1.767109893262386322e-02
-5.331246182322502136e-02
2.021812275052070618e-02
2.518055960536003113e-02
-2.894489839673042297e-02
-2.596450410783290863e-02
-4.827830195426940918e-02
-5.120972916483879089e-02
2.197062224149703979e-02
1.678604073822498322e-02
3.485737368464469910e-02
-3.866387158632278442e-02
1.053768210113048553e-02
-4.147717356681823730e-02
8.022772963158786297e-04
2.224039286375045776e-02
-6.327895075082778931e-02
2.024866989813745022e-04
1.571901515126228333e-02
-5.785106867551803589e-02
-3.778214799240231514e-03
4.699955880641937256e-02
-5.739042535424232483e-02
5.621027946472167969e-02
-5.549991130828857422e-02
7.184752263128757477e-03
-4.398092627525329590e-02
9.936553426086902618e-03
-4.672052338719367981e-02
-9.077315218746662140e-03
-9.201009757816791534e-03
4.638980329036712646e-02
2.998574264347553253e-02
-3.569523990154266357e-02
2.463776245713233948e-02
-8.708327077329158783e-03
3.622529283165931702e-02
-6.836018059402704239e-03
-3.166379407048225403e-02
3.194844722747802734e-02
1.482381299138069153e-02
7.947267033159732819e-03
3.837462887167930603e-02
9.420106187462806702e-03
4.765199869871139526e-02
-4.905510321259498596e-02
-4.068101942539215088e-02
4.619831964373588562e-02
2.192461863160133362e-02
-5.485957860946655273e-02
-2.879977785050868988e-02
-4.229305312037467957e-02
3.858877345919609070e-03
-1.903331279754638672e-02
3.390419110655784607e-02
-4.611125588417053223e-02
3.399235894903540611e-03
2.014462463557720184e-02
-9.953112341463565826e-03
-3.992669284343719482e-02
-9.807440219447016716e-04
3.710141405463218689e-02
-1.762509532272815704e-02
4.355875402688980103e-02
-3.134675696492195129e-02
-1.798392273485660553e-02
4.168085381388664246e-02
-7.006041705608367920e-03
5.585094541311264038e-02
3.445465862751007080e-02
3.541968017816543579e-02
8.872466161847114563e-03
-3.968851640820503235e-02
2.433462627232074738e-02
1.911812461912631989e-02
-4.562040790915489197e-02
8.203442208468914032e-03
2.578004077076911926e-02
-4.389339592307806015e-03
-4.312586411833763123e-02
3.278765454888343811e-02
6.637666374444961548e-03
4.302351176738739014e-02
-4.298330843448638916e-02
1.529839541763067245e-02
1.662532216869294643e-03
3.281017765402793884e-02
2.180005423724651337e-02
2.671242505311965942e-02
-3.620879724621772766e-03
-2.633720636367797852e-02
2.446575462818145752e-02
2.776696532964706421e-02
-1.238510478287935257e-02
2.112356480211019516e-03
5.740714259445667267e-04
3.175925463438034058e-02
-5.260376632213592529e-02
-1.133388746529817581e-02
2.422947250306606293e-02
1.694588176906108856e-02
-6.032162532210350037e-02
4.845361039042472839e-02
1.019713561981916428e-02
-9.185473434627056122e-03
-4.362802952527999878e-02
-2.799850702285766602e-02
5.161933600902557373e-02
-4.506551846861839294e-02
1.585095003247261047e-02
-3.291288763284683228e-02
-2.165413089096546173e-02
-1.105352956801652908e-02
2.437797561287879944e-02
-4.613939672708511353e-02
-1.209523808211088181e-02
-5.676430836319923401e-02
-6.657977402210235596e-02
-4.213727638125419617e-02
-3.317491710186004639e-02
-4.716172069311141968e-02
1.481532026082277298e-02
4.116565734148025513e-02
-1.069548772647976875e-03
-5.689042806625366211e-02
-5.025841295719146729e-02
-4.667625948786735535e-02
-3.226785222068428993e-03
-3.526942804455757141e-02
-5.176952853798866272e-02
-9.968820959329605103e-03
2.572128176689147949e-02
-1.847521215677261353e-02
2.446592226624488831e-02
-5.434414371848106384e-02
-6.209694221615791321e-02
-2.125065075233578682e-03
-1.651468500494956970e-02
1.443655602633953094e-02
-4.544064775109291077e-02
5.252795759588479996e-03
2.440224029123783112e-02
-2.675942517817020416e-02
3.432497009634971619e-02
-1.843876205384731293e-02
7.589263468980789185e-02
