-4.782764986157417297e-02
1.255166083574295044e-01
-3.013431467115879059e-02
-2.070224471390247345e-02
5.102730542421340942e-02
-2.189453393220901489e-01
7.157127559185028076e-02
8.460559695959091187e-02
1.150046885013580322e-01
-1.262906789779663086e-01
1.084561645984649658e-01
7.866548746824264526e-02
9.301431477069854736e-02
1.013402193784713745e-01
3.624562919139862061e-02
-8.819783478975296021e-02
-1.844507269561290741e-02
1.278774589300155640e-01
-9.321200102567672729e-02
1.104539912194013596e-02
8.278052508831024170e-02
-5.657834466546773911e-03
-3.559678327292203903e-03
-2.472825348377227783e-03
3.187264874577522278e-02
4.529557749629020691e-02
2.352050505578517914e-02
1.248291060328483582e-01
2.540702559053897858e-02
2.016896195709705353e-02
-1.821694895625114441e-02
-1.117029562592506409e-01
-3.139671683311462402e-02
-4.207092523574829102e-02
-2.144902944564819336e-02
6.807611137628555298e-02
-1.981809735298156738e-01
-7.267373800277709961e-02
7.501838356256484985e-02
6.431737542152404785e-02
5.559253320097923279e-02
-2.609684877097606659e-02
-6.822247803211212158e-02
-1.553374435752630234e-02
1.659577339887619019e-02
7.059296220541000366e-02
-7.339178025722503662e-02
-1.324640121310949326e-03
-3.544840728864073753e-03
-5.811785906553268433e-02
-2.232187986373901367e-02
4.604245349764823914e-02
-1.080215275287628174e-01
2.662592194974422455e-02
-4.142785444855690002e-03
5.307359993457794189e-02
6.652156263589859009e-02
6.209251657128334045e-02
1.049587205052375793e-01
-1.016343608498573303e-01
2.204153873026371002e-02
2.720580063760280609e-02
4.046404734253883362e-03
8.200506120920181274e-02
-1.838572323322296143e-01
9.468437731266021729e-02
-3.863982856273651123e-02
-8.957748860120773315e-02
7.641452550888061523e-02
1.334799230098724365e-01
1.534539908170700073e-01
-5.023997649550437927e-02
-3.213608637452125549e-02
-4.719023779034614563e-02
-7.736972719430923462e-02
-2.368957735598087311e-02
1.198453009128570557e-01
1.570483148097991943e-01
7.764941081404685974e-03
5.783385783433914185e-02
-2.659022249281406403e-02
1.498509198427200317e-01
-6.082418188452720642e-02
-4.376870393753051758e-02
3.109034895896911621e-02
3.224153816699981689e-02
-4.457494989037513733e-02
1.052424311637878418e-01
3.789256140589714050e-02
-6.177658960223197937e-02
2.982318215072154999e-02
1.685843467712402344e-01
-9.688945487141609192e-03
-7.606073468923568726e-02
-1.311474572867155075e-02
-2.177571654319763184e-01
-2.272182703018188477e-01
-1.883269250392913818e-01
-2.955228276550769806e-02
-4.468690976500511169e-02
1.496470421552658081e-01
1.103601530194282532e-01
5.030871927738189697e-02
-4.085237532854080200e-02
-3.193174675107002258e-02
-1.627586036920547485e-02
3.356291726231575012e-02
-3.960289433598518372e-02
7.611710578203201294e-02
1.774931550025939941e-01
-9.526365250349044800e-02
-1.708961091935634613e-03
2.729948796331882477e-02
-8.519412577152252197e-02
1.097648665308952332e-01
-1.067069824784994125e-02
-1.220622509717941284e-01
-3.432900831103324890e-02
3.687717020511627197e-02
9.456454217433929443e-02
-5.381729453802108765e-03
-5.678739026188850403e-02
9.114310890436172485e-02
7.569421082735061646e-02
-1.744700409471988678e-02
-5.633602663874626160e-02
5.574644356966018677e-02
3.262097015976905823e-02
-1.046964004635810852e-01
2.643963880836963654e-02
-1.232925653457641602e-01
5.095079075545072556e-03
-1.849764771759510040e-02
-5.370523035526275635e-02
7.600801438093185425e-02
1.913697272539138794e-02
1.383423060178756714e-01
-9.155062586069107056e-02
7.104504853487014771e-02
8.566719293594360352e-02
1.410588175058364868e-01
-1.937051415443420410e-01
5.170266702771186829e-02
9.247870743274688721e-02
-1.811451092362403870e-02
-1.049625650048255920e-01
9.519485384225845337e-02
-7.366348057985305786e-02
-4.547724872827529907e-02
6.280970573425292969e-02
-1.903587765991687775e-02
8.831575512886047363e-02
8.661842346191406250e-02
3.005941398441791534e-02
-1.212782878428697586e-02
-3.740579262375831604e-02
3.881094232201576233e-02
6.337973475456237793e-02
-3.494178503751754761e-02
-8.200814574956893921e-02
-3.875357285141944885e-02
-9.918134659528732300e-02
3.368564695119857788e-02
3.741000592708587646e-02
5.505876988172531128e-02
1.257331110537052155e-02
-9.925447404384613037e-03
8.738423883914947510e-02
4.334327951073646545e-02
5.065412074327468872e-02
1.272853165864944458e-01
3.737469390034675598e-02
-1.090342774987220764e-01
-5.096040293574333191e-02
-1.400809921324253082e-02
-5.849859118461608887e-02
-8.407144248485565186e-02
-1.166893728077411652e-02
-5.921029951423406601e-03
-2.807385288178920746e-02
-1.652169227600097656e-01
-1.418440043926239014e-01
-1.067801937460899353e-01
-3.046311624348163605e-02
2.887989766895771027e-02
-9.686592966318130493e-02
-2.832469157874584198e-02
-1.177908405661582947e-01
2.727724425494670868e-02
-9.628461301326751709e-02
-8.196718990802764893e-03
7.157474011182785034e-02
8.212830126285552979e-02
-1.029835790395736694e-01
4.027277976274490356e-02
-6.900350004434585571e-02
2.454674430191516876e-02
1.531193684786558151e-02
6.123113259673118591e-02
-7.449936866760253906e-02
4.876784980297088623e-02
-5.720110610127449036e-02
9.115912765264511108e-02
1.026365673169493675e-03
-5.030239373445510864e-02
-1.182046346366405487e-02
9.162089973688125610e-02
9.020534157752990723e-02
-1.339298337697982788e-01
2.105389721691608429e-02
5.885975435376167297e-02
1.804710328578948975e-01
9.100588411092758179e-02
4.757856577634811401e-02
-5.129325762391090393e-02
2.096111327409744263e-01
-5.086402595043182373e-02
1.502445526421070099e-02
1.422778121195733547e-03
4.957307875156402588e-02
8.067838102579116821e-02
7.524833828210830688e-02
6.222595646977424622e-02
-2.601242810487747192e-02
-7.687652856111526489e-02
1.107427924871444702e-01
-7.703058421611785889e-03
9.365092217922210693e-02
1.977580785751342773e-02
-1.973494589328765869e-01
7.099165022373199463e-02
-2.134400187060236931e-03
2.535510249435901642e-02
1.010230928659439087e-01
-3.795441985130310059e-02
-8.458124101161956787e-02
-7.288593798875808716e-02
-2.278698794543743134e-02
-2.251008525490760803e-02
3.240904537960886955e-03
1.475074607878923416e-02
4.120326414704322815e-02
-7.217054814100265503e-02
2.963168919086456299e-02
-1.196699496358633041e-02
-7.894559204578399658e-02
8.785144239664077759e-02
2.013353109359741211e-01
-6.551361083984375000e-02
1.419069059193134308e-02
1.172729488462209702e-02
3.507179766893386841e-02
3.369249776005744934e-02
2.542902715504169464e-02
-3.671415615826845169e-03
8.912855386734008789e-02
7.625057548284530640e-02
-8.201020956039428711e-02
-6.873083114624023438e-02
1.883549802005290985e-02
-6.465538591146469116e-02
6.333279423415660858e-03
-2.880464494228363037e-02
1.200862228870391846e-01
9.733542101457715034e-04
8.017955720424652100e-02
-2.881209366023540497e-02
-2.668878994882106781e-02
-7.610633224248886108e-02
-8.907158672809600830e-02
4.917342215776443481e-02
1.150665879249572754e-01
-5.775240436196327209e-02
1.158132776618003845e-01
-1.235026195645332336e-01
5.942618101835250854e-02
-1.634908765554428101e-01
4.651040956377983093e-02
4.453766345977783203e-02
2.735887840390205383e-02
3.066707402467727661e-02
1.290330141782760620e-01
4.839038103818893433e-02
-8.839999884366989136e-02
8.084253221750259399e-02
6.416792422533035278e-02
1.318323761224746704e-01
-3.341523930430412292e-02
8.504539728164672852e-03
6.726764887571334839e-02
-5.427175387740135193e-02
-9.330909699201583862e-02
7.754761725664138794e-02
-3.826004918664693832e-03
8.358047902584075928e-02
-8.950880169868469238e-02
-3.340585529804229736e-02
-1.143568381667137146e-01
-8.906397968530654907e-02
4.237284511327743530e-02
-1.473685801029205322e-01
1.647140234708786011e-01
-4.377742484211921692e-02
-1.011995971202850342e-01
-3.060957044363021851e-02
-9.705039113759994507e-02
3.814410651102662086e-03
2.806019037961959839e-02
2.065175957977771759e-02
-2.302256785333156586e-02
6.677533686161041260e-02
-5.235304706729948521e-04
8.563733100891113281e-02
-1.581555902957916260e-01
1.083735525608062744e-01
-2.818728797137737274e-02
-5.208126828074455261e-02
1.493168324232101440e-01
-3.069947101175785065e-02
2.087937109172344208e-02
1.814803928136825562e-01
2.174071408808231354e-02
7.782981544733047485e-02
1.055032983422279358e-01
-6.902776658535003662e-02
1.231844574213027954e-01
2.402895689010620117e-02
1.724805980920791626e-01
-9.591151028871536255e-02
-8.224006742238998413e-02
-5.940216779708862305e-02
6.706807762384414673e-02
7.372975349426269531e-02
-5.333490669727325439e-02
-2.987936511635780334e-02
8.784317970275878906e-02
-2.883338741958141327e-02
-1.097643077373504639e-01
5.877539142966270447e-02
1.038650721311569214e-01
-3.441994264721870422e-02
9.002402424812316895e-02
7.617381215095520020e-02
-1.148511320352554321e-01
-2.761008217930793762e-02
-4.483089968562126160e-02
1.212273165583610535e-02
7.382287830114364624e-02
-1.030301600694656372e-01
9.902089834213256836e-02
1.208345443010330200e-01
1.234940141439437866e-01
2.149392366409301758e-01
-1.475683003664016724e-01
1.083167120814323425e-01
-5.113188177347183228e-02
-1.300288587808609009e-01
1.532003097236156464e-02
-2.732677385210990906e-02
-5.623383074998855591e-02
-7.759835571050643921e-02
-2.984382957220077515e-02
5.418369546532630920e-02
-1.100182309746742249e-01
-2.814174816012382507e-02
-6.597148627042770386e-02
2.820127829909324646e-02
2.461488172411918640e-02
8.604826033115386963e-02
-6.344274431467056274e-02
3.639777749776840210e-02
5.343707278370857239e-02
8.567912131547927856e-02
-9.935193508863449097e-02
-3.870547562837600708e-02
3.760822862386703491e-02
-2.560846041887998581e-03
-6.329658627510070801e-02
5.405545607209205627e-02
9.157402813434600830e-02
1.792551875114440918e-01
-3.414324298501014709e-02
-2.615034766495227814e-02
2.963635197374969721e-04
8.259715139865875244e-02
6.607583910226821899e-02
-3.325217217206954956e-02
-6.700683385133743286e-02
3.493779152631759644e-02
9.519296884536743164e-02
-3.661221638321876526e-02
-2.193950116634368896e-02
1.015424132347106934e-01
1.237612888216972351e-01
5.831820145249366760e-02
2.526230737566947937e-02
1.556509882211685181e-01
-4.946067463606595993e-03
6.350820511579513550e-02
-1.461854018270969391e-02
-9.433005750179290771e-02
-1.042474210262298584e-01
4.120389372110366821e-02
-9.096815437078475952e-02
4.820928443223237991e-04
-6.818869709968566895e-02
1.427424047142267227e-02
-4.985644295811653137e-02
3.146136441500857472e-05
1.846294850111007690e-02
8.986405283212661743e-02
6.722999271005392075e-03
2.274164371192455292e-02
-1.974087394773960114e-02
-7.677248120307922363e-02
1.105262637138366699e-01
9.043076634407043457e-02
3.945108503103256226e-02
-4.275070503354072571e-02
5.509384348988533020e-02
8.541256934404373169e-02
4.604007676243782043e-02
-4.143000766634941101e-02
3.492046147584915161e-02
-7.275021821260452271e-02
-8.803930133581161499e-02
-4.851758107542991638e-02
6.479530036449432373e-02
8.470283448696136475e-02
-6.158386543393135071e-02
-4.148865863680839539e-02
1.232511457055807114e-02
1.470596808940172195e-02
-9.785473346710205078e-02
-3.024129755795001984e-02
-3.086731582880020142e-02
2.296186052262783051e-02
-5.530886352062225342e-03
-5.003824830055236816e-02
-4.474220424890518188e-02
9.657773375511169434e-02
-4.686201363801956177e-02
-4.009534418582916260e-02
-2.803958021104335785e-02
4.685503616929054260e-02
-1.410537771880626678e-02
1.652920804917812347e-02
1.352788764052093029e-03
8.572105318307876587e-02
9.099043905735015869e-02
-2.107892744243144989e-02
-6.384399533271789551e-02
4.992979578673839569e-03
-4.863378405570983887e-02
-9.977089241147041321e-03
4.312135279178619385e-02
1.255188975483179092e-02
-1.912077143788337708e-02
-1.909629791043698788e-03
-3.568287938833236694e-02
-3.970935195684432983e-02
-4.398406017571687698e-03
-9.004036337137222290e-02
2.419359609484672546e-02
3.512571007013320923e-02
1.252345833927392960e-02
-5.854731425642967224e-02
-2.113300561904907227e-02
5.661479756236076355e-02
-5.026771873235702515e-02
1.929059065878391266e-02
-9.964022785425186157e-02
-7.165424525737762451e-02
3.027476742863655090e-02
4.180273972451686859e-03
8.001244813203811646e-02
3.678221628069877625e-02
-2.860677987337112427e-02
1.183721330016851425e-02
1.765180565416812897e-02
-1.684573292732238770e-02
8.665575087070465088e-02
3.339858353137969971e-02
-1.014866679906845093e-02
8.498458564281463623e-02
6.385383754968643188e-02
4.225064069032669067e-02
9.124646335840225220e-02
2.376670949161052704e-02
-2.117872796952724457e-02
-1.680449396371841431e-02
-6.424020975828170776e-03
-3.916567191481590271e-02
4.266529902815818787e-02
-5.065809004008769989e-03
7.110206782817840576e-02
-5.788195505738258362e-02
-2.608472108840942383e-02
2.250494249165058136e-02
6.727696955204010010e-02
-1.130258012562990189e-02
-7.077930867671966553e-02
-7.782793790102005005e-02
-8.144512772560119629e-03
-1.765270344913005829e-02
-4.480449482798576355e-02
5.067620053887367249e-02
-6.701382249593734741e-02
-5.472045857459306717e-03
1.000487506389617920e-01
7.194469124078750610e-02
-1.283830590546131134e-02
7.953354716300964355e-02
-2.671355940401554108e-02
-2.627804130315780640e-02
8.141890168190002441e-02
7.147680222988128662e-02
-6.122887879610061646e-02
-3.864239528775215149e-02
7.063949108123779297e-02
-2.343022450804710388e-02
-4.764289408922195435e-02
-4.639053344726562500e-02
4.515129327774047852e-02
3.443039208650588989e-02
-1.697491295635700226e-02
-8.090600371360778809e-02
-7.166270911693572998e-02
7.469255477190017700e-02
1.169086433947086334e-02
-8.435008674860000610e-02
-7.005446404218673706e-02
3.163767233490943909e-02
-1.790523901581764221e-02
-8.098392188549041748e-02
-8.241059631109237671e-02
-7.889291644096374512e-02
4.067215323448181152e-02
-4.763581603765487671e-02
-7.659371942281723022e-02
-7.872784137725830078e-02
4.366335459053516388e-03
-1.609227061271667480e-02
8.177985250949859619e-02
-2.087361365556716919e-02
-5.287384614348411560e-02
7.111326605081558228e-02
-8.992585539817810059e-02
-6.832063943147659302e-02
-1.344418898224830627e-02
1.104649156332015991e-01
1.985916169360280037e-03
3.827065601944923401e-02
-8.460398018360137939e-02
5.642304196953773499e-02
-1.254879590123891830e-02
6.714235246181488037e-02
-6.784366071224212646e-02
-3.233189880847930908e-02
-5.472454801201820374e-02
-9.163438528776168823e-02
7.949873805046081543e-02
1.230424642562866211e-02
9.921085089445114136e-02
1.996579207479953766e-02
1.170619875192642212e-01
4.912917502224445343e-04
-5.742948129773139954e-02
-5.363729223608970642e-02
-7.133825123310089111e-02
-5.657282099127769470e-02
-6.293421983718872070e-02
-5.013236403465270996e-02
-3.622077405452728271e-02
5.437864363193511963e-02
-3.096282854676246643e-02
3.588404133915901184e-02
-3.508507087826728821e-02
-8.386430144309997559e-02
-7.953049242496490479e-02
7.903435081243515015e-02
3.699402138590812683e-02
6.868212670087814331e-02
4.099877923727035522e-02
-8.903163671493530273e-02
6.473118811845779419e-02
-5.025368556380271912e-02
8.748543262481689453e-02
-4.290984570980072021e-02
-3.719618543982505798e-02
-2.187066152691841125e-02
1.933867670595645905e-02
-2.205958589911460876e-02
-6.985769420862197876e-02
3.200880810618400574e-02
7.147266995161771774e-03
2.830868773162364960e-02
3.505576774477958679e-02
-8.405800908803939819e-02
-6.754954159259796143e-02
4.285351838916540146e-03
1.014048159122467041e-01
-7.522132247686386108e-02
-4.016973823308944702e-02
-1.999524654820561409e-03
4.418358579277992249e-02
-8.646260201930999756e-02
1.154844164848327637e-01
2.939953096210956573e-02
-2.946508303284645081e-02
-2.031439729034900665e-02
1.595979370176792145e-02
1.241365820169448853e-01
1.369374692440032959e-01
6.292710453271865845e-02
7.015070319175720215e-02
-9.949868917465209961e-02
-2.524923160672187805e-02
-1.603123992681503296e-01
4.918330907821655273e-02
-7.152099907398223877e-02
2.848559059202671051e-02
2.254920452833175659e-02
8.364930003881454468e-02
9.914055466651916504e-02
7.827688753604888916e-02
3.376087546348571777e-02
-2.296660654246807098e-02
-3.413533791899681091e-02
-4.620240256190299988e-02
-4.020008817315101624e-02
-6.240596994757652283e-02
-1.191958263516426086e-01
-2.710507996380329132e-02
-1.508108675479888916e-01
1.235652044415473938e-01
2.088489197194576263e-02
-9.648672491312026978e-02
-7.693541049957275391e-02
-7.959844917058944702e-02
-3.189523890614509583e-02
8.014312386512756348e-02
-4.498200491070747375e-02
3.872989490628242493e-02
-6.784312427043914795e-02
3.706159070134162903e-03
1.197450160980224609e-01
-6.797066330909729004e-02
-1.581366918981075287e-02
-6.403516978025436401e-02
-1.393387168645858765e-01
-1.796022616326808929e-02
-7.733272761106491089e-02
-8.759652078151702881e-02
-2.780365757644176483e-02
1.987469755113124847e-02
2.306387387216091156e-02
-1.543913334608078003e-01
1.148446127772331238e-01
2.453476190567016602e-02
-7.465004175901412964e-02
-3.861216083168983459e-02
7.364858407527208328e-03
-1.064559295773506165e-01
9.180694073438644409e-02
-1.527919527143239975e-02
2.166266785934567451e-03
4.910443350672721863e-02
1.583111472427845001e-02
-7.210522890090942383e-02
1.815529763698577881e-01
5.835517123341560364e-02
-1.586609333753585815e-02
4.674264695495367050e-03
3.652910888195037842e-02
-5.467482656240463257e-02
1.485896408557891846e-01
-5.796268209815025330e-02
2.318227291107177734e-02
-1.111090555787086487e-02
-1.466723624616861343e-02
-1.934101991355419159e-02
-1.197123602032661438e-01
3.628478571772575378e-02
-4.559759795665740967e-02
-6.042889505624771118e-02
1.143230050802230835e-01
-1.384916305541992188e-01
2.493102289736270905e-02
3.975300490856170654e-02
5.007452890276908875e-02
1.039463728666305542e-01
3.097001463174819946e-02
-1.060949712991714478e-01
-4.360752552747726440e-02
1.557424780912697315e-03
-4.590232297778129578e-02
-5.182280018925666809e-02
-5.981893837451934814e-02
-3.729863464832305908e-02
-8.454443886876106262e-03
-2.041565999388694763e-02
4.243342205882072449e-02
-1.153209619224071503e-02
1.429338902235031128e-01
-8.405812084674835205e-02
-7.911440730094909668e-02
1.077744439244270325e-01
1.283569782972335815e-01
7.483954727649688721e-02
-3.202226758003234863e-02
1.396924344589933753e-04
1.256648302078247070e-01
-2.705703675746917725e-02
3.604183718562126160e-02
-5.217168480157852173e-02
-7.506430894136428833e-02
3.135550022125244141e-02
6.361721456050872803e-02
7.613481581211090088e-02
6.534256041049957275e-02
4.740857332944869995e-02
-7.340934872627258301e-02
1.730681024491786957e-02
1.502579152584075928e-01
-3.295318456366658211e-03
6.849744170904159546e-02
-1.690058559179306030e-01
6.737262010574340820e-02
5.924960598349571228e-02
-4.491809383034706116e-02
2.922184579074382782e-02
-4.645759612321853638e-02
9.754800051450729370e-02
6.274922937154769897e-02
7.389622181653976440e-02
3.085374459624290466e-02
-5.788215994834899902e-02
-9.876274317502975464e-02
-5.022985488176345825e-02
-7.730972766876220703e-02
2.532384544610977173e-02
-6.746419519186019897e-02
-1.173712536692619324e-01
-8.210123330354690552e-02
-7.346870005130767822e-02
-1.172247231006622314e-01
-6.567162461578845978e-03
-4.996567219495773315e-02
6.425955891609191895e-02
4.221936687827110291e-02
6.772655993700027466e-02
1.625959575176239014e-01
3.589907661080360413e-02
2.889847615733742714e-03
-3.083185851573944092e-02
-1.115310713648796082e-01
8.556193113327026367e-02
3.573599457740783691e-02
-6.704825162887573242e-02
-6.570741534233093262e-02
1.632005423307418823e-01
3.495261818170547485e-02
-8.505289256572723389e-02
-1.875464431941509247e-02
7.144139707088470459e-02
2.875084988772869110e-03
-5.699527263641357422e-02
-5.841820314526557922e-02
-8.016866445541381836e-02
2.204070799052715302e-03
-8.758851885795593262e-02
-1.265076547861099243e-01
7.158213108777999878e-02
1.090210825204849243e-01
-9.497936815023422241e-02
1.304674148559570312e-01
-9.676698595285415649e-02
1.073142699897289276e-02
-9.145786985754966736e-03
1.061893068253993988e-02
-3.744455426931381226e-02
3.348730504512786865e-02
-1.408826261758804321e-01
-3.849083185195922852e-02
3.117628023028373718e-02
-4.386657103896141052e-02
1.191644966602325439e-01
8.918629027903079987e-03
3.742127120494842529e-02
2.316850051283836365e-02
-6.918302178382873535e-02
-6.395159661769866943e-02
3.171500563621520996e-02
9.773118793964385986e-02
-2.434450387954711914e-02
-6.838098168373107910e-02
5.904838815331459045e-02
-6.433234363794326782e-02
-3.173449262976646423e-02
-5.854581668972969055e-02
3.476687148213386536e-02
8.331399410963058472e-02
-6.334717571735382080e-02
-1.719249039888381958e-02
-1.122250556945800781e-01
2.148492634296417236e-02
4.016410186886787415e-02
5.356131587177515030e-03
6.587177515029907227e-02
-3.035242855548858643e-02
-1.741141527891159058e-01
1.368968188762664795e-01
1.944100297987461090e-02
-3.361340239644050598e-02
-6.180902011692523956e-03
7.044094055891036987e-02
6.046750582754611969e-03
3.282327204942703247e-02
3.624214604496955872e-02
-1.427405923604965210e-01
5.545677617192268372e-02
9.331353753805160522e-02
9.265030920505523682e-02
1.631603017449378967e-02
9.104336798191070557e-02
-4.853456467390060425e-02
4.161520674824714661e-02
4.859957844018936157e-02
2.056812308728694916e-02
1.774539612233638763e-02
2.325983531773090363e-02
-9.183347970247268677e-02
4.465086013078689575e-02
-6.153201684355735779e-02
1.415364327840507030e-03
-3.442091494798660278e-02
-5.249768495559692383e-02
7.586120069026947021e-02
5.189960449934005737e-02
4.870594665408134460e-02
-1.907048672437667847e-01
2.825644426047801971e-02
3.118331078439950943e-04
-8.104528486728668213e-02
-9.861794859170913696e-02
-8.566969074308872223e-03
-2.385602705180644989e-02
-9.514144808053970337e-02
1.993709243834018707e-02
5.434571206569671631e-02
6.761817634105682373e-02
6.934756040573120117e-02
1.412979979068040848e-02
5.174338817596435547e-02
6.371581554412841797e-02
2.384151518344879150e-02
-2.222496829926967621e-02
8.003380149602890015e-02
-8.215703815221786499e-02
-6.615767627954483032e-02
-3.881765902042388916e-02
7.136194407939910889e-02
1.998804137110710144e-02
-2.809594385325908661e-03
-9.550623595714569092e-02
-5.036946758627891541e-02
-2.833090722560882568e-02
2.291542850434780121e-02
-1.893607825040817261e-01
-1.942262984812259674e-02
1.990740299224853516e-01
-3.110032714903354645e-02
-3.197878971695899963e-02
-2.400640584528446198e-02
1.169842183589935303e-01
-4.727860447019338608e-03
4.756245762109756470e-02
2.943003363907337189e-02
6.599569320678710938e-02
2.765804901719093323e-02
1.827703863382339478e-01
5.195934697985649109e-02
-2.033354341983795166e-02
8.366317488253116608e-03
4.800345748662948608e-02
-9.749472886323928833e-02
-7.309791445732116699e-02
-3.810478374361991882e-02
7.971104234457015991e-02
8.919154852628707886e-02
-2.140125632286071777e-02
1.006026193499565125e-01
-5.323008820414543152e-02
6.974333431571722031e-03
-4.334912821650505066e-02
-2.613636665046215057e-02
2.204763144254684448e-02
-1.311674714088439941e-01
4.672395065426826477e-02
-1.259132772684097290e-01
-1.155280843377113342e-01
8.452334254980087280e-02
6.482020020484924316e-02
7.497462909668684006e-03
2.670254930853843689e-02
-2.238888666033744812e-02
-2.495158612728118896e-01
-2.607223391532897949e-02
3.071386180818080902e-02
-9.095662832260131836e-02
8.709248155355453491e-02
1.121534220874309540e-02
-1.292205750942230225e-01
-6.213292479515075684e-02
-1.163233593106269836e-01
7.267473638057708740e-02
-3.982099890708923340e-02
-4.306466132402420044e-02
-1.018679738044738770e-01
-3.865649551153182983e-02
-8.814993500709533691e-02
4.854052886366844177e-02
-1.479549985378980637e-02
6.671061366796493530e-02
1.542916148900985718e-02
-2.250689119100570679e-01
-1.269729435443878174e-02
-3.696636110544204712e-02
-8.960924297571182251e-02
-5.348724126815795898e-02
-2.222447395324707031e-01
-1.794167757034301758e-01
8.016585372388362885e-03
-5.880033224821090698e-02
-1.616971492767333984e-01
-6.867325305938720703e-02
-1.306882873177528381e-02
4.124925658106803894e-02
4.455877467989921570e-02
-2.050182037055492401e-02
-4.488132521510124207e-02
-1.247290894389152527e-01
-3.766150027513504028e-02
-9.076136350631713867e-02
5.364700779318809509e-02
6.648179609328508377e-03
6.331663578748703003e-02
3.336746990680694580e-02
-2.944163419306278229e-02
-9.097490459680557251e-02
-1.271889060735702515e-01
-9.815499931573867798e-02
-1.530242860317230225e-01
6.997405737638473511e-02
1.177706476300954819e-02
6.285123527050018311e-02
6.464827805757522583e-02
3.441137820482254028e-02
6.056161597371101379e-02
3.903541341423988342e-02
-5.826587602496147156e-02
-5.695311352610588074e-02
-5.337926000356674194e-02
-9.551896154880523682e-02
-2.767471410334110260e-02
-2.550014667212963104e-02
-3.699997067451477051e-02
6.591503322124481201e-02
2.509939484298229218e-02
-6.382917612791061401e-02
5.501518025994300842e-02
1.460112780332565308e-01
-2.912916615605354309e-02
7.392294704914093018e-02
-2.182796783745288849e-02
3.106054849922657013e-02
-1.068331748247146606e-01
-1.052923724055290222e-01
1.187792979180812836e-02
-1.877640187740325928e-02
-1.819681674242019653e-01
-5.277275573462247849e-03
1.587612032890319824e-01
-7.422192394733428955e-02
1.026104837656021118e-01
2.554517239332199097e-02
1.954333484172821045e-02
-3.855423070490360260e-03
-6.786987930536270142e-02
-3.963892906904220581e-02
2.383997738361358643e-01
-3.913316130638122559e-02
1.163733378052711487e-01
-2.128755897283554077e-01
-2.246423251926898956e-02
5.914943665266036987e-02
1.012569144368171692e-01
-1.317289918661117554e-01
-1.003375463187694550e-02
-1.130474060773849487e-01
6.935636699199676514e-02
-1.255439519882202148e-01
-5.176233593374490738e-03
-4.156751558184623718e-02
4.578522965312004089e-02
-3.520164266228675842e-02
2.735450863838195801e-02
1.268356144428253174e-01
-8.419983088970184326e-02
-9.652979671955108643e-02
-1.695210486650466919e-01
-1.061059720814228058e-02
-1.345786917954683304e-02
1.830361597239971161e-02
9.221341460943222046e-02
-7.189036160707473755e-02
5.168466269969940186e-02
-1.368726491928100586e-01
7.259593158960342407e-02
-5.652189999818801880e-02
5.196887254714965820e-02
-8.488899469375610352e-02
-9.793328354135155678e-04
-3.980097547173500061e-02
-2.898973822593688965e-01
5.995053425431251526e-02
7.291983813047409058e-02
-1.028786897659301758e-01
-1.075495183467864990e-01
8.269494026899337769e-02
-6.491452455520629883e-02
-3.326336666941642761e-02
-1.013184264302253723e-01
-4.252776876091957092e-02
-4.284443333745002747e-02
8.620090037584304810e-02
4.689478501677513123e-02
4.086891189217567444e-02
-6.915385276079177856e-02
1.159474477171897888e-01
-1.345318853855133057e-01
1.743557900190353394e-01
9.268152713775634766e-02
7.348589599132537842e-02
1.248455792665481567e-01
2.097368426620960236e-02
6.216394156217575073e-02
2.796978875994682312e-02
-2.068789899349212646e-01
8.988744765520095825e-02
6.806932389736175537e-02
1.111435368657112122e-01
5.297509953379631042e-02
-2.225903561338782310e-03
1.065970435738563538e-01
-3.610445559024810791e-02
-2.787264287471771240e-01
-2.122212946414947510e-02
-1.087165176868438721e-01
2.473468519747257233e-02
1.114623323082923889e-01
1.005009468644857407e-02
-2.350047677755355835e-01
1.602568477392196655e-01
1.371237915009260178e-02
5.691620334982872009e-02
8.560721576213836670e-02
9.061972051858901978e-02
3.756774822250008583e-03
-7.974936813116073608e-02
-2.346985973417758942e-02
1.291473954916000366e-01
1.083186194300651550e-01
1.627119630575180054e-01
-6.160556152462959290e-02
5.449428781867027283e-02
1.199066415429115295e-01
-3.321575000882148743e-02
1.300502717494964600e-01
1.052478253841400146e-01
-9.548919647932052612e-02
1.854396611452102661e-02
-3.860606253147125244e-02
-6.336838752031326294e-02
-4.178812354803085327e-02
-7.563411444425582886e-02
-5.870375037193298340e-02
4.925454501062631607e-03
-1.222879663109779358e-01
1.290214359760284424e-01
3.588816151022911072e-02
6.155703961849212646e-02
-5.482069402933120728e-02
1.576521061360836029e-02
-1.273870188742876053e-02
-2.348272688686847687e-02
9.105484932661056519e-02
2.102988213300704956e-01
9.497554972767829895e-03
3.277104720473289490e-02
-4.198526218533515930e-02
-1.308557391166687012e-02
4.015894141048192978e-03
2.713174559175968170e-02
-2.081382125616073608e-01
-1.444376409053802490e-01
3.995891660451889038e-02
-7.539398968219757080e-02
3.244568035006523132e-02
-1.426589936017990112e-01
1.249894127249717712e-02
-7.455540448427200317e-02
-8.344981819391250610e-02
-4.463956691324710846e-03
-4.224955663084983826e-02
6.973361223936080933e-02
-4.582293331623077393e-02
1.205840334296226501e-01
6.062979623675346375e-02
2.250213548541069031e-02
5.507476627826690674e-02
1.243979707360267639e-01
4.286911338567733765e-02
-1.254888921976089478e-01
5.031288787722587585e-02
-2.542579360306262970e-02
1.000494323670864105e-02
-6.281541287899017334e-02
-3.272345289587974548e-02
-1.194257140159606934e-01
1.908472180366516113e-02
-1.346041858196258545e-01
9.275364130735397339e-02
-1.080529168248176575e-01
-3.584031388163566589e-02
-5.350098758935928345e-02
8.271387219429016113e-02
9.006123989820480347e-02
-9.301116317510604858e-02
1.361428797245025635e-01
1.351646929979324341e-01
6.257154047489166260e-02
-3.521906957030296326e-02
-6.635773181915283203e-02
-7.582333683967590332e-02
-5.934094637632369995e-02
8.042605221271514893e-02
-2.194566093385219574e-02
-8.590739965438842773e-02
-1.914597116410732269e-02
-5.115293338894844055e-02
-3.126841410994529724e-02
-5.491174384951591492e-02
-1.091036107391119003e-02
1.355366557836532593e-01
9.711332619190216064e-02
-2.621015720069408417e-02
-7.861140370368957520e-02
3.055854514241218567e-02
6.201384216547012329e-02
7.160413265228271484e-02
-1.292807906866073608e-01
7.502100616693496704e-02
-6.037283688783645630e-02
1.290359199047088623e-01
-1.769044063985347748e-02
7.056158035993576050e-02
1.025904715061187744e-01
5.846311151981353760e-02
-6.468576192855834961e-02
1.846320033073425293e-01
-5.135056376457214355e-02
-6.995994597673416138e-02
3.327503427863121033e-02
6.932107731699943542e-03
7.296746224164962769e-02
1.089839916676282883e-02
4.696908593177795410e-02
-9.396681189537048340e-02
-1.549876928329467773e-01
-5.620941054075956345e-03
1.563724577426910400e-01
7.891862839460372925e-02
-4.791172593832015991e-02
9.236565977334976196e-02
-8.386051654815673828e-02
-1.545215696096420288e-01
-3.295180946588516235e-02
7.695838809013366699e-02
8.691451698541641235e-02
-1.074001789093017578e-01
-3.913138806819915771e-02
6.430611014366149902e-02
-1.201511546969413757e-02
-2.554375864565372467e-02
1.459748595952987671e-01
-1.311738193035125732e-01
-5.797682330012321472e-02
3.135792165994644165e-02
9.740831702947616577e-02
-8.556536398828029633e-03
-7.386326044797897339e-02
9.823611378669738770e-02
3.426773846149444580e-02
-1.439654501155018806e-03
3.889515995979309082e-02
-7.038555294275283813e-02
-6.367101520299911499e-02
1.356434375047683716e-01
-6.736233830451965332e-02
3.835287317633628845e-02
-1.160059347748756409e-01
-3.346053510904312134e-02
7.320701610296964645e-03
-2.778361178934574127e-02
-1.756701618432998657e-01
2.006504498422145844e-02
1.702615469694137573e-01
-3.278822079300880432e-02
1.731986179947853088e-02
-1.544077508151531219e-02
-6.803932134062051773e-03
-8.408138155937194824e-02
-3.979471698403358459e-02
-3.072912245988845825e-02
5.045257508754730225e-02
6.267514079809188843e-02
9.999472647905349731e-02
1.808827556669712067e-02
2.373122237622737885e-02
5.692503601312637329e-02
1.711600571870803833e-01
1.983370929956436157e-01
-1.397485882043838501e-01
-3.089913167059421539e-02
1.625120788812637329e-01
-7.839533686637878418e-02
-6.626978516578674316e-02
-6.354874465614557266e-03
-1.139132678508758545e-01
1.254217177629470825e-01
2.569409087300300598e-02
-5.478975176811218262e-02
2.376245260238647461e-01
-2.620056038722395897e-03
-6.910281255841255188e-03
1.124031022191047668e-01
-1.707752943038940430e-01
-7.149565219879150391e-02
7.556793093681335449e-02
-2.863176167011260986e-02
7.298091053962707520e-02
1.830889726988971233e-03
-1.741788536310195923e-01
5.523179098963737488e-02
4.986256361007690430e-02
1.082547158002853394e-01
-4.102179780602455139e-02
3.727153688669204712e-02
-1.458415240049362183e-01
-1.319113280624151230e-02
1.423125416040420532e-01
-8.323389291763305664e-02
3.782855719327926636e-02
-8.678179234266281128e-02
-3.758731111884117126e-02
3.827367722988128662e-02
3.944937605410814285e-03
-5.810385197401046753e-02
6.942891329526901245e-02
-8.734463155269622803e-02
-4.452738910913467407e-02
1.861800104379653931e-01
-6.583953648805618286e-02
1.307609826326370239e-01
-1.334803998470306396e-01
1.941912434995174408e-02
-3.921640664339065552e-02
-9.379458427429199219e-02
-1.037481874227523804e-01
-9.968604147434234619e-02
-1.231316775083541870e-01
7.606966048479080200e-02
-5.258750170469284058e-02
-1.636771410703659058e-01
1.295750290155410767e-01
2.888506650924682617e-02
1.720406115055084229e-02
-3.125827643088996410e-04
4.749171808362007141e-02
7.032718509435653687e-02
4.943382740020751953e-02
2.017109841108322144e-01
8.552215248346328735e-02
1.733140796422958374e-01
1.365174651145935059e-01
1.231633499264717102e-01
9.157400578260421753e-02
1.531904786825180054e-01
-6.517206877470016479e-02
-1.110880598425865173e-01
-1.112420037388801575e-01
3.747739270329475403e-02
-6.794634461402893066e-02
-5.294192954897880554e-02
4.766981303691864014e-02
1.497257202863693237e-01
1.161587089300155640e-01
-1.287698838859796524e-02
1.430347263813018799e-01
9.593155980110168457e-02
-4.205847159028053284e-02
2.258971333503723145e-02
-1.930369734764099121e-01
-3.517876192927360535e-02
1.904500722885131836e-01
1.590208336710929871e-02
7.579591870307922363e-02
-6.276849657297134399e-02
4.045523703098297119e-02
-2.256153374910354614e-01
-9.626591578125953674e-03
-6.846242398023605347e-02
-5.482453480362892151e-02
2.253277041018009186e-02
-3.237129002809524536e-02
-6.257803738117218018e-02
4.125398024916648865e-02
5.033584311604499817e-04
-1.074573248624801636e-01
-6.994979828596115112e-02
-1.037309095263481140e-01
-1.673236861824989319e-02
8.103873580694198608e-02
-8.499393612146377563e-02
-5.835740827023983002e-03
-9.370748698711395264e-02
-3.116924501955509186e-02
-5.987207870930433273e-03
6.989784538745880127e-02
7.212759554386138916e-02
-1.153526306152343750e-01
8.912578970193862915e-02
5.489974841475486755e-02
-5.769704282283782959e-02
-1.174416672438383102e-02
6.662199646234512329e-02
-1.920179873704910278e-01
1.727040112018585205e-01
-1.537956744432449341e-01
-8.873391151428222656e-02
8.457276970148086548e-03
-6.835547834634780884e-02
4.073046147823333740e-02
8.684513717889785767e-02
8.172210305929183960e-02
-9.422063827514648438e-03
9.739161282777786255e-02
4.537330195307731628e-02
1.822248697280883789e-01
-1.121828034520149231e-01
8.439419791102409363e-03
4.818015545606613159e-02
6.925442814826965332e-02
1.850425079464912415e-02
-6.502611935138702393e-02
-3.630575165152549744e-02
7.607583422213792801e-03
-5.591469630599021912e-02
-1.521642804145812988e-01
1.269746273756027222e-01
1.395638287067413330e-01
-2.102946117520332336e-02
9.838581085205078125e-02
1.305480152368545532e-01
9.916198998689651489e-02
-5.503615736961364746e-02
-5.901654437184333801e-02
-1.737915873527526855e-01
-1.010092124342918396e-01
-2.081290930509567261e-01
-1.541453003883361816e-01
1.703111827373504639e-01
7.484124600887298584e-02
1.090861484408378601e-01
-1.370405126363039017e-02
-6.567085534334182739e-02
-4.341445863246917725e-02
7.941418141126632690e-02
-2.576671168208122253e-02
3.373308107256889343e-02
-8.045666664838790894e-02
-2.023887448012828827e-02
-2.253474481403827667e-02
9.405628591775894165e-02
4.963039979338645935e-02
4.553300514817237854e-02
-9.159238636493682861e-02
1.616739332675933838e-01
-9.334812313318252563e-02
7.606547325849533081e-02
5.000194907188415527e-02
1.446174681186676025e-01
2.491093985736370087e-02
1.214796379208564758e-01
-1.324512958526611328e-01
-1.011981889605522156e-01
6.845293194055557251e-02
1.265852600336074829e-01
2.033091150224208832e-02
9.238851070404052734e-02
1.015921458601951599e-01
-1.232641190290451050e-01
3.632787615060806274e-02
-1.640195399522781372e-01
-1.134938001632690430e-01
-3.393086045980453491e-02
1.075187847018241882e-01
5.450356751680374146e-02
-1.229995340108871460e-01
3.344533615745604038e-04
-5.908057838678359985e-02
2.237162552773952484e-02
-1.515007913112640381e-01
-3.176423162221908569e-02
-1.223263218998908997e-01
2.984587289392948151e-02
4.150147363543510437e-02
1.322983801364898682e-01
-2.074681688100099564e-03
-1.404356211423873901e-02
-7.763035595417022705e-02
-4.096283391118049622e-02
6.810384988784790039e-02
-3.254220355302095413e-03
1.495652496814727783e-01
-7.728309929370880127e-02
-6.713854521512985229e-02
1.069027185440063477e-01
3.376577422022819519e-02
-2.483912855386734009e-01
-6.315021216869354248e-02
6.950800120830535889e-02
6.252140551805496216e-02
7.797689735889434814e-02
8.903329074382781982e-02
-6.620325893163681030e-02
-1.267801523208618164e-01
-1.324625313282012939e-01
-3.316538035869598389e-02
7.256270945072174072e-02
-1.189322993159294128e-01
-8.838514983654022217e-02
-2.989743277430534363e-02
-3.549951687455177307e-02
-6.886681914329528809e-02
3.014823794364929199e-02
3.909950330853462219e-02
-3.422970324754714966e-02
1.567702367901802063e-02
4.623560979962348938e-02
2.106170803308486938e-01
7.395409792661666870e-02
5.764920264482498169e-02
-6.611900776624679565e-02
-3.708814457058906555e-02
-1.790085062384605408e-02
8.514992147684097290e-02
-9.416361898183822632e-02
2.080796211957931519e-01
3.768477961421012878e-02
-7.250320911407470703e-02
-1.020330656319856644e-02
4.311379976570606232e-03
2.352577634155750275e-02
-4.988879710435867310e-02
-4.120628535747528076e-02
4.962233081459999084e-02
1.122872009873390198e-01
3.604235127568244934e-02
-8.339297026395797729e-02
3.533134609460830688e-02
-5.997705087065696716e-02
2.235326357185840607e-02
-5.535653606057167053e-02
1.082262322306632996e-01
-6.537532806396484375e-02
-6.911141425371170044e-02
-4.152575135231018066e-02
1.008925288915634155e-01
-6.647758930921554565e-02
1.202010884881019592e-01
-8.332512527704238892e-02
3.793799132108688354e-02
2.097186632454395294e-02
2.527804486453533173e-02
-4.428869485855102539e-02
-3.428722545504570007e-02
-4.119842499494552612e-02
-1.533382982015609741e-01
-3.658865392208099365e-02
1.463327854871749878e-01
-1.041224375367164612e-01
-3.189540654420852661e-02
-1.270481646060943604e-01
5.736014619469642639e-02
-1.433020383119583130e-01
3.756730258464813232e-02
-4.542024806141853333e-02
-1.037100628018379211e-01
-5.662750080227851868e-02
-6.751815974712371826e-02
-3.457531332969665527e-02
7.230090349912643433e-02
6.566005945205688477e-02
-8.066400140523910522e-02
2.467043325304985046e-02
-4.899434372782707214e-02
-1.750115863978862762e-02
-2.480501122772693634e-02
-1.861952394247055054e-01
-9.952927380800247192e-02
-2.317630918696522713e-03
-5.047717690467834473e-02
6.797111034393310547e-02
-5.402394104748964310e-03
9.738398343324661255e-02
1.382315307855606079e-01
1.797261275351047516e-02
1.783486008644104004e-01
-1.998423971235752106e-02
-6.097686290740966797e-02
-1.756901741027832031e-01
5.929155647754669189e-02
3.477337956428527832e-02
1.467480957508087158e-01
3.371362388134002686e-02
1.044511944055557251e-01
1.359632313251495361e-01
7.780859619379043579e-02
8.029817789793014526e-02
1.069088280200958252e-02
-1.430502533912658691e-01
-5.105699528940021992e-04
7.297377288341522217e-02
-1.716078072786331177e-01
1.297330018132925034e-02
-1.777975112199783325e-01
-7.473105192184448242e-02
-1.802604496479034424e-01
1.130677685141563416e-01
1.541328132152557373e-01
1.374527066946029663e-01
2.462766319513320923e-02
2.947454713284969330e-02
5.541701242327690125e-02
-2.430764026939868927e-02
5.888126790523529053e-02
-3.911059722304344177e-02
-4.024634882807731628e-02
-1.100159138441085815e-01
-3.928950056433677673e-02
-7.088661193847656250e-02
1.415818184614181519e-01
1.737404055893421173e-02
-2.504357323050498962e-02
-1.302317623049020767e-02
-6.772011518478393555e-02
6.888376083225011826e-03
3.900474694091826677e-04
2.928701974451541901e-02
-1.685342043638229370e-01
-3.277930989861488342e-02
-7.203094661235809326e-02
-3.219832852482795715e-02
-1.590813323855400085e-02
-2.882146462798118591e-02
2.028187364339828491e-01
-6.148068606853485107e-02
1.193911284208297729e-01
5.249810218811035156e-02
3.573699668049812317e-02
-1.365828663110733032e-01
-8.620367944240570068e-02
1.078151836991310120e-01
-3.173586679622530937e-03
9.947001934051513672e-02
1.877134889364242554e-01
-1.145525798201560974e-01
-7.925388403236865997e-03
-2.085464000701904297e-01
-3.891718806698918343e-03
-1.448671370744705200e-01
-5.834138393402099609e-02
3.627941384911537170e-02
5.549971386790275574e-02
-3.820949792861938477e-02
1.255167275667190552e-01
2.935661375522613525e-02
-2.203262411057949066e-02
9.524149447679519653e-02
-4.656298086047172546e-02
7.006649859249591827e-03
-9.429464489221572876e-02
-4.506636783480644226e-02
-1.979414932429790497e-02
-1.204752475023269653e-01
6.200617551803588867e-02
2.950236760079860687e-02
1.128900051116943359e-01
-4.691319912672042847e-02
-1.546318456530570984e-02
9.732945822179317474e-03
1.489155143499374390e-01
-6.699052453041076660e-02
-3.623244911432266235e-02
3.666862100362777710e-02
-5.904803425073623657e-02
-3.302015364170074463e-02
2.214750349521636963e-01
-9.545633196830749512e-02
-9.110911935567855835e-02
8.617833256721496582e-02
5.286360904574394226e-02
-4.298774898052215576e-02
-4.646952822804450989e-02
-8.515172451734542847e-02
1.209646984934806824e-01
1.452051103115081787e-02
-8.243828266859054565e-02
3.573027253150939941e-02
-7.937902212142944336e-02
1.687758602201938629e-02
-5.029238760471343994e-02
-1.111711338162422180e-01
-1.385354530066251755e-02
1.047819182276725769e-01
-7.267802953720092773e-02
7.718565315008163452e-02
-8.221778273582458496e-02
-1.039093062281608582e-01
7.262407243251800537e-02
-4.225473105907440186e-02
-5.994560196995735168e-02
-6.683275103569030762e-02
-8.522440493106842041e-02
-9.386248886585235596e-02
-1.272199600934982300e-01
1.590148359537124634e-01
-6.104471534490585327e-02
-2.936251088976860046e-02
9.123558551073074341e-02
2.884845063090324402e-02
-1.051514446735382080e-01
3.960233181715011597e-02
3.855064138770103455e-02
1.261857151985168457e-01
-4.512320458889007568e-02
-1.064825877547264099e-01
-9.850896149873733521e-02
8.850711584091186523e-02
1.242033317685127258e-01
1.185304224491119385e-01
-1.423189938068389893e-01
1.164645329117774963e-01
3.878166154026985168e-02
1.097232401371002197e-01
2.873244322836399078e-02
3.470894694328308105e-02
9.378012269735336304e-02
-6.863955408334732056e-02
5.814514681696891785e-02
3.161807358264923096e-02
3.456279519014060497e-04
-8.758220938034355640e-04
-1.485994309186935425e-01
2.074814215302467346e-02
-5.155148729681968689e-02
7.951010018587112427e-02
-9.743268787860870361e-02
1.012979000806808472e-01
-6.087150797247886658e-02
5.229572579264640808e-02
1.446772515773773193e-01
7.640989124774932861e-02
-5.167046934366226196e-02
1.395338214933872223e-02
-1.017631143331527710e-01
1.044832020998001099e-01
-8.053322881460189819e-02
8.294533938169479370e-02
-1.970791071653366089e-02
1.023362353444099426e-01
8.715875446796417236e-02
7.853406667709350586e-02
1.054472569376230240e-02
-9.852382540702819824e-02
1.638531982898712158e-01
-2.512749657034873962e-02
-3.885817527770996094e-02
-5.505858734250068665e-02
2.264967188239097595e-02
1.092569530010223389e-01
-6.379085592925548553e-03
3.266006335616111755e-02
6.757739931344985962e-02
-9.923427551984786987e-02
1.944483444094657898e-02
-9.705177694559097290e-02
-4.775987938046455383e-02
5.766155198216438293e-02
5.918360874056816101e-02
-7.195505499839782715e-02
-9.428691864013671875e-02
-2.696524560451507568e-02
-2.231816798448562622e-01
8.490081876516342163e-02
-9.441781044006347656e-02
2.775433659553527832e-02
1.056585386395454407e-01
1.555389314889907837e-01
7.187684625387191772e-02
-2.600222453474998474e-02
8.291345089673995972e-02
-9.938916191458702087e-03
-7.044914364814758301e-02
-2.213136106729507446e-02
6.754973530769348145e-02
7.407487183809280396e-02
7.463408261537551880e-02
-3.809145092964172363e-02
5.619127769023180008e-03
-3.482668474316596985e-02
7.495641708374023438e-02
-7.390412688255310059e-02
1.628356873989105225e-01
4.961802810430526733e-02
6.625283509492874146e-02
-2.404167316854000092e-02
-7.842808961868286133e-02
-1.196707263588905334e-01
-7.929067313671112061e-02
1.075396463274955750e-01
8.128995448350906372e-02
1.042920202016830444e-01
-5.858213454484939575e-02
4.213437810540199280e-02
1.096539497375488281e-01
5.040740594267845154e-02
1.399690844118595123e-02
8.359070867300033569e-02
-8.312992006540298462e-02
1.261733472347259521e-01
-2.392822690308094025e-02
1.583347655832767487e-02
-3.930382058024406433e-02
-4.884757474064826965e-02
8.517702668905258179e-02
2.932440303266048431e-02
1.257679015398025513e-01
6.393066793680191040e-02
-1.066074594855308533e-01
1.303639709949493408e-01
3.887054696679115295e-02
-1.876154243946075439e-01
5.947284400463104248e-02
1.501164883375167847e-01
8.537415415048599243e-03
-1.394383516162633896e-02
2.476315712556242943e-03
7.367736101150512695e-02
8.544968813657760620e-02
1.377010643482208252e-01
-1.420154124498367310e-01
-1.370385140180587769e-01
-8.563265949487686157e-02
1.552114933729171753e-01
1.303967237472534180e-01
2.394035924226045609e-03
6.312119960784912109e-02
-6.917621794855222106e-05
-1.962941586971282959e-01
-1.255194097757339478e-01
1.909079495817422867e-03
-1.375952828675508499e-02
-1.352896727621555328e-02
-1.871296204626560211e-02
3.307108581066131592e-02
-2.958644367754459381e-02
1.001669913530349731e-01
2.515298314392566681e-02
5.585189163684844971e-02
-1.277388483285903931e-01
-4.424623399972915649e-02
4.853490367531776428e-02
-6.325829774141311646e-02
1.241620406508445740e-01
4.628406092524528503e-02
1.383963376283645630e-01
-2.943719364702701569e-02
4.142371192574501038e-02
-6.365697085857391357e-02
6.716270931065082550e-03
-1.072109341621398926e-01
-5.198886245489120483e-02
-5.545603111386299133e-03
-1.346873193979263306e-01
-4.986113682389259338e-02
9.232245385646820068e-02
7.278579473495483398e-02
4.675522074103355408e-02
6.536228209733963013e-02
1.502665430307388306e-01
-3.852703375741839409e-03
4.901818931102752686e-03
-3.199922293424606323e-02
-7.448209822177886963e-02
1.078580990433692932e-01
4.200274497270584106e-02
-1.424189954996109009e-01
-5.252793803811073303e-02
-7.666918635368347168e-02
2.003399655222892761e-02
7.397135347127914429e-02
2.396343741565942764e-03
-3.789385780692100525e-02
-8.934471011161804199e-02
-4.993225634098052979e-02
-1.651194840669631958e-01
-1.142416149377822876e-01
7.436914741992950439e-02
2.247025631368160248e-02
4.498903080821037292e-02
1.188680380582809448e-01
5.985355377197265625e-02
-1.332336068153381348e-01
3.307224251329898834e-03
8.451216854155063629e-03
-1.067448556423187256e-01
1.011409759521484375e-01
2.759988792240619659e-02
4.267280176281929016e-02
-6.237176433205604553e-02
-2.506840974092483521e-02
1.372078806161880493e-01
-7.229816168546676636e-02
-4.124038387089967728e-03
5.392887070775032043e-02
7.400860637426376343e-02
-4.908782243728637695e-02
2.497946657240390778e-02
-2.671570517122745514e-02
2.563786692917346954e-02
1.213027313351631165e-01
1.011666283011436462e-02
-6.393396109342575073e-02
7.559236604720354080e-03
-6.330776959657669067e-02
1.093128602951765060e-02
8.421819657087326050e-02
-3.326373174786567688e-02
1.059285774827003479e-01
-5.914235860109329224e-02
-3.277120366692543030e-02
4.279313609004020691e-03
8.206922560930252075e-02
1.249507665634155273e-01
-6.377989798784255981e-02
8.696031756699085236e-03
-4.856697097420692444e-02
8.872742950916290283e-02
2.320503257215023041e-02
-3.302334994077682495e-02
-5.598414689302444458e-02
2.446000836789608002e-02
5.070167034864425659e-02
1.276735514402389526e-01
2.911901101469993591e-02
6.976269930601119995e-02
-2.760048769414424896e-02
-1.500323116779327393e-01
2.515196800231933594e-02
3.595390170812606812e-02
3.489879891276359558e-02
3.148486092686653137e-02
6.805495172739028931e-02
-1.304655075073242188e-01
8.343911170959472656e-02
9.378172457218170166e-02
-8.033403009176254272e-02
2.551754415035247803e-01
-7.186932116746902466e-02
1.100020855665206909e-01
1.024222224950790405e-01
3.101751208305358887e-02
1.860081031918525696e-02
-8.236999809741973877e-02
4.819487407803535461e-02
1.498537044972181320e-02
-2.572895260527729988e-03
4.828086495399475098e-02
6.439454853534698486e-02
-4.220557399094104767e-03
2.901180088520050049e-02
-8.922843635082244873e-02
1.137691363692283630e-01
-5.733140930533409119e-02
1.058497503399848938e-01
1.453358381986618042e-01
1.259751319885253906e-01
-1.053278334438800812e-02
-7.724121212959289551e-02
1.384807080030441284e-01
-7.741419225931167603e-02
8.332253992557525635e-02
-1.135211437940597534e-01
-1.302514076232910156e-01
-3.492718562483787537e-02
6.770499050617218018e-02
1.555760018527507782e-02
3.781137615442276001e-02
8.133538812398910522e-02
-9.128909558057785034e-02
1.126011908054351807e-01
-1.425609830766916275e-02
1.890643499791622162e-02
-8.779157884418964386e-03
-6.670012138783931732e-03
1.345865279436111450e-01
-1.028917264193296432e-02
-8.666567504405975342e-02
-5.594084039330482483e-02
2.862247405573725700e-03
-5.464104562997817993e-02
9.102929383516311646e-02
-3.641415759921073914e-02
4.870430752635002136e-02
-1.207454800605773926e-01
-3.799457475543022156e-02
1.838725805282592773e-01
7.056057453155517578e-03
8.123835921287536621e-02
-1.500769555568695068e-01
-1.276360545307397842e-02
1.261868625879287720e-01
-6.563187390565872192e-02
-3.105364739894866943e-03
6.630064453929662704e-03
9.863450378179550171e-02
-9.813456237316131592e-02
1.926561631262302399e-02
2.791292220354080200e-02
2.285352349281311035e-02
7.417989522218704224e-02
5.669629573822021484e-02
4.669084399938583374e-02
1.263218671083450317e-01
-1.275220662355422974e-01
1.682077161967754364e-02
-1.169065237045288086e-01
3.405845537781715393e-02
-1.600494980812072754e-01
2.337175793945789337e-02
9.257666766643524170e-02
9.263357147574424744e-03
-1.834851317107677460e-02
-1.281659454107284546e-01
-6.109404057497158647e-05
-7.640931755304336548e-02
5.110502243041992188e-02
5.655663460493087769e-02
7.683236151933670044e-02
-6.004601344466209412e-02
3.608161956071853638e-02
-1.442854553461074829e-01
8.578146994113922119e-02
7.202380895614624023e-02
1.347024887800216675e-01
-2.575966902077198029e-02
1.451751738786697388e-01
-6.115833669900894165e-02
-5.896094441413879395e-02
-7.651487737894058228e-02
-9.297858923673629761e-02
1.130888462066650391e-01
-1.629241555929183960e-02
2.068170905113220215e-02
3.449750691652297974e-02
7.872023619711399078e-03
-1.066499948501586914e-01
-7.112482190132141113e-02
3.207900002598762512e-02
-1.362410932779312134e-01
-3.613850101828575134e-02
4.520721733570098877e-02
9.032440930604934692e-02
-7.308810483664274216e-03
-1.150942742824554443e-01
-6.796077638864517212e-02
3.576353937387466431e-02
5.232540518045425415e-02
5.313619598746299744e-02
8.995942026376724243e-02
-7.226745132356882095e-03
2.170822024345397949e-02
4.217141866683959961e-02
1.079119592905044556e-01
4.495872184634208679e-02
8.617272228002548218e-02
9.297955036163330078e-02
-1.145925298333168030e-01
-7.834078744053840637e-03
1.982122473418712616e-02
-9.838823974132537842e-02
-8.159939898177981377e-04
7.135168462991714478e-02
1.949234679341316223e-02
6.587769836187362671e-02
1.684236973524093628e-01
6.980025023221969604e-02
-6.548249721527099609e-02
-1.319255232810974121e-01
3.173953667283058167e-02
-5.888145044445991516e-02
8.835346996784210205e-02
-8.204407244920730591e-02
-7.730623334646224976e-02
1.395573765039443970e-01
1.128097325563430786e-01
5.325087159872055054e-02
3.364875912666320801e-02
2.758599072694778442e-02
-6.268257647752761841e-02
-1.507651712745428085e-02
-5.144633725285530090e-02
6.022815592586994171e-03
-1.198945939540863037e-01
-7.820166647434234619e-02
6.435262504965066910e-03
-4.392126947641372681e-02
7.033219933509826660e-02
4.520614817738533020e-02
2.016204781830310822e-02
5.616424139589071274e-03
-2.328161709010601044e-02
-5.990775674581527710e-02
1.440012454986572266e-01
4.252333194017410278e-03
-4.008868709206581116e-02
6.417978554964065552e-02
4.082111269235610962e-02
7.998667657375335693e-02
-1.273216456174850464e-01
-8.801226317882537842e-02
-5.952884256839752197e-02
3.236329182982444763e-02
1.330705825239419937e-02
7.725503295660018921e-02
1.360344141721725464e-02
1.164129376411437988e-01
-7.060018181800842285e-02
1.084398701786994934e-01
-1.286352276802062988e-01
1.678533107042312622e-01
-7.285222411155700684e-03
1.060353815555572510e-01
-9.206720441579818726e-02
-1.018991246819496155e-01
-7.092607766389846802e-02
3.443161025643348694e-02
1.187674775719642639e-01
5.500724911689758301e-02
6.912118196487426758e-02
1.036130636930465698e-01
-1.437523216009140015e-01
2.100352346897125244e-01
-1.550695151090621948e-01
9.539018571376800537e-02
7.007239013910293579e-02
-1.193189397454261780e-01
-6.776643544435501099e-02
-1.446235924959182739e-01
-5.147522687911987305e-02
7.503388449549674988e-03
-1.086593493819236755e-01
-1.807000339031219482e-01
1.443972438573837280e-01
-4.796370491385459900e-02
-6.923156976699829102e-02
-3.068358637392520905e-03
-7.499922066926956177e-02
-2.875793538987636566e-02
-2.284816838800907135e-02
-1.819833815097808838e-01
1.367184240370988846e-02
-1.985919624567031860e-01
1.625409536063671112e-02
1.926994770765304565e-01
-1.155388504266738892e-01
5.447568371891975403e-02
1.230053156614303589e-01
2.380898781120777130e-02
4.261943697929382324e-02
8.141851425170898438e-02
7.206477224826812744e-02
2.757512964308261871e-03
8.584159612655639648e-02
2.740528620779514313e-02
-8.866305649280548096e-02
-8.539488166570663452e-02
2.764525823295116425e-02
3.861509263515472412e-02
3.053028602153062820e-03
4.952889308333396912e-02
6.747247278690338135e-02
-7.874766737222671509e-02
8.719035238027572632e-02
7.307083904743194580e-02
-1.254355758428573608e-01
6.792324036359786987e-02
-4.364401847124099731e-02
-5.006771162152290344e-02
-5.665903538465499878e-02
-7.413689047098159790e-02
1.701867580413818359e-01
-6.555206142365932465e-03
4.070688039064407349e-02
1.368856877088546753e-01
1.224894151091575623e-01
-2.192591875791549683e-02
-9.602900594472885132e-02
1.593645066022872925e-01
-7.686154544353485107e-02
-4.006749764084815979e-02
2.062340825796127319e-01
3.865198791027069092e-02
-1.746324636042118073e-02
8.080352842807769775e-02
-4.560487344861030579e-03
-1.172926351428031921e-01
-4.451351612806320190e-02
4.884144291281700134e-02
9.322391450405120850e-02
-1.107489764690399170e-01
1.029311120510101318e-01
-1.821593008935451508e-02
-2.448243945837020874e-01
-7.128078490495681763e-02
2.230901122093200684e-01
-3.950519487261772156e-02
1.487152874469757080e-01
-9.550097584724426270e-02
-9.669271297752857208e-03
-5.667535588145256042e-02
1.791421882808208466e-02
1.490372419357299805e-01
-4.607226699590682983e-02
4.316583275794982910e-02
-8.329187333583831787e-02
1.506371516734361649e-02
1.654295250773429871e-02
5.688582360744476318e-02
-1.389879584312438965e-01
-3.285559639334678650e-02
7.976978085935115814e-03
-1.832745410501956940e-02
7.226034253835678101e-02
1.491385698318481445e-01
-8.432529866695404053e-02
3.098852746188640594e-02
-4.173760116100311279e-02
6.214056909084320068e-02
-5.737721547484397888e-02
3.118642233312129974e-02
1.755232363939285278e-02
-1.305655986070632935e-01
1.134351827204227448e-02
5.413571745157241821e-02
7.549814879894256592e-02
2.018183171749114990e-01
-3.469165414571762085e-02
3.585550189018249512e-02
1.064342726022005081e-02
-4.900291562080383301e-03
-3.244645521044731140e-02
-8.952398784458637238e-03
3.942900523543357849e-02
-2.551377378404140472e-02
7.908584922552108765e-02
-8.892952650785446167e-02
-9.747859090566635132e-02
4.200854152441024780e-02
-8.694000542163848877e-02
4.313932359218597412e-02
5.413455143570899963e-02
1.452028602361679077e-01
1.029795780777931213e-01
-1.734447479248046875e-02
-2.603378146886825562e-02
8.388911932706832886e-02
8.628851920366287231e-02
-1.382665242999792099e-02
6.562276184558868408e-02
3.515147790312767029e-02
7.345751672983169556e-02
-8.455253392457962036e-02
-1.243337988853454590e-01
-4.824373871088027954e-02
5.209911987185478210e-02
-5.477076396346092224e-02
1.360196620225906372e-02
8.992373943328857422e-03
-4.189475253224372864e-02
-1.565115409903228283e-03
7.611374557018280029e-02
-1.230629831552505493e-01
8.360533416271209717e-02
1.387024521827697754e-01
-7.176221907138824463e-02
8.583243191242218018e-02
-8.361860364675521851e-02
-8.454459160566329956e-02
3.027326427400112152e-03
-1.024499088525772095e-01
8.826000988483428955e-02
-6.688578426837921143e-02
8.492146432399749756e-02
-1.296107564121484756e-02
8.494444191455841064e-02
7.039181888103485107e-02
-7.271744310855865479e-02
-4.760608077049255371e-02
-1.217835023999214172e-01
-4.203870519995689392e-02
4.433050751686096191e-02
7.909948378801345825e-02
7.030328363180160522e-02
-5.243459716439247131e-02
1.111780991777777672e-03
-1.045803129673004150e-01
9.525460749864578247e-02
-3.251492604613304138e-02
3.286592662334442139e-03
4.669966001529246569e-04
1.308050304651260376e-01
-3.240208327770233154e-02
7.211586087942123413e-02
3.465194627642631531e-02
8.170865476131439209e-04
9.377421811223030090e-03
6.728687137365341187e-02
-8.895240724086761475e-02
-3.599011152982711792e-02
7.362396270036697388e-02
-4.858480393886566162e-02
1.141624245792627335e-02
-7.059152424335479736e-02
5.707714706659317017e-02
-3.915823996067047119e-02
1.462250202894210815e-02
-2.450788579881191254e-02
-1.370975524187088013e-01
2.164719067513942719e-02
-6.724961847066879272e-02
4.116494581103324890e-02
4.698186740279197693e-02
-1.716040670871734619e-01
2.767390385270118713e-02
8.633752912282943726e-02
3.491424769163131714e-02
-3.982320055365562439e-02
-2.973912982270121574e-03
-8.907888084650039673e-03
1.037539020180702209e-01
2.045358344912528992e-02
1.001909524202346802e-01
-7.487993687391281128e-02
2.787111885845661163e-02
5.527051910758018494e-02
-1.721794158220291138e-02
6.492656469345092773e-02
7.276550680398941040e-02
1.637199074029922485e-01
3.637871891260147095e-02
-1.470836102962493896e-01
-8.016878366470336914e-02
-9.949866682291030884e-02
7.963581383228302002e-02
1.358616352081298828e-01
1.742325574159622192e-01
9.218737483024597168e-02
-6.943887472152709961e-02
5.167894810438156128e-02
-6.282142549753189087e-02
6.122478283941745758e-03
2.756209287326782942e-04
-7.499921321868896484e-02
-5.489011481404304504e-02
1.826693676412105560e-02
-1.121026277542114258e-01
-1.918102987110614777e-02
-1.563412696123123169e-01
5.613370798528194427e-03
-6.463749706745147705e-02
7.212791591882705688e-02
8.593584597110748291e-02
-3.283068654127418995e-04
1.061547994613647461e-01
6.246840208768844604e-02
-3.875283524394035339e-02
-6.079597771167755127e-02
-1.668268740177154541e-01
3.202765807509422302e-02
1.256846636533737183e-01
-4.264099057763814926e-03
6.500400602817535400e-02
1.325229182839393616e-02
2.168622463941574097e-01
-1.542406380176544189e-01
-1.436026096343994141e-01
-1.696722358465194702e-01
6.321303546428680420e-02
3.604033030569553375e-03
7.390889339148998260e-03
8.852507174015045166e-02
1.044978573918342590e-01
5.441134795546531677e-02
-3.557871654629707336e-02
-6.922377645969390869e-02
-3.657852485775947571e-02
4.653386399149894714e-02
1.259295642375946045e-02
1.908003911375999451e-02
-9.691350162029266357e-03
2.493102401494979858e-01
-9.360531345009803772e-03
-3.198247775435447693e-02
-7.256475090980529785e-02
-1.199289113283157349e-01
4.694037139415740967e-02
-5.622377619147300720e-02
-6.678299512714147568e-03
-4.417103156447410583e-02
-1.056249141693115234e-01
-7.129598408937454224e-02
-1.281882915645837784e-02
-1.710443943738937378e-01
8.477210998535156250e-02
-4.265912994742393494e-02
-1.818719506263732910e-01
-4.085435718297958374e-02
2.643909491598606110e-02
-8.629796653985977173e-02
3.131927177309989929e-02
-1.340009551495313644e-02
1.541854143142700195e-01
-1.303127594292163849e-02
8.540575951337814331e-02
-9.855530411005020142e-02
1.114863436669111252e-02
1.018108148127794266e-02
1.261380016803741455e-01
-7.829830795526504517e-02
3.588131396099925041e-03
-8.575422689318656921e-03
-2.962057292461395264e-02
1.404573861509561539e-02
-1.191645041108131409e-01
-9.244020283222198486e-02
-1.499260365962982178e-01
-1.275589466094970703e-01
-1.916303299367427826e-02
-4.068459570407867432e-02
8.212815970182418823e-03
2.044307589530944824e-01
7.553266733884811401e-02
4.583598300814628601e-02
-2.094317376613616943e-01
-4.312017187476158142e-02
-3.487677127122879028e-02
-1.033404991030693054e-01
1.555766910314559937e-01
8.900770545005798340e-02
-2.197974681621417403e-04
-3.079007146880030632e-03
1.413057148456573486e-01
3.357959166169166565e-02
2.859769202768802643e-02
-5.249907821416854858e-02
-1.010216921567916870e-01
1.003636978566646576e-02
-2.718302421271800995e-02
-1.102371886372566223e-01
7.444361597299575806e-02
-3.599361702799797058e-02
-9.087868034839630127e-02
5.108383297920227051e-02
-2.931247837841510773e-02
-9.051148779690265656e-03
-6.011532619595527649e-02
4.000303335487842560e-03
-2.424164116382598877e-02
1.045097187161445618e-01
-9.266005456447601318e-02
8.944049477577209473e-02
-8.561082184314727783e-02
-9.732814878225326538e-02
-7.385377585887908936e-02
-1.051469370722770691e-01
4.705180600285530090e-02
-8.387572318315505981e-02
-1.644186675548553467e-01
8.172716945409774780e-02
8.424115180969238281e-02
-5.588217824697494507e-02
9.214136749505996704e-02
-3.253851085901260376e-02
-1.800513714551925659e-01
-6.689748167991638184e-02
-1.791945695877075195e-01
-5.759999901056289673e-02
1.193778142333030701e-01
8.712954819202423096e-02
9.651362895965576172e-02
-1.134667079895734787e-02
6.643260270357131958e-02
-6.455434858798980713e-02
1.234444007277488708e-01
-4.428433254361152649e-02
9.495840966701507568e-02
1.455711275339126587e-01
-1.159773021936416626e-01
6.320726871490478516e-02
-4.929029196500778198e-02
-4.333744570612907410e-02
-6.322736851871013641e-03
-1.144287213683128357e-01
6.699395179748535156e-02
2.435547411441802979e-01
-5.047579854726791382e-02
1.803602278232574463e-01
9.635292738676071167e-02
-5.352532118558883667e-02
-1.472694333642721176e-02
-1.024682447314262390e-02
8.053529262542724609e-02
8.338689804077148438e-02
6.308575719594955444e-02
-2.915500849485397339e-02
2.084305733442306519e-01
-1.877170242369174957e-02
-4.353836551308631897e-02
5.558370426297187805e-02
1.419338211417198181e-02
-5.957017466425895691e-02
-4.337155818939208984e-02
-1.963441073894500732e-01
-1.291750669479370117e-01
-1.785392612218856812e-01
2.405139245092868805e-02
7.734639197587966919e-02
3.358216583728790283e-02
3.002320975065231323e-02
3.094548173248767853e-02
-7.427126169204711914e-02
5.209916085004806519e-02
-6.794568896293640137e-02
2.156413905322551727e-02
1.454941779375076294e-01
-1.925251185894012451e-01
-4.801051691174507141e-02
7.872615754604339600e-02
-3.634741529822349548e-02
-7.627022266387939453e-02
-1.317551173269748688e-02
7.034756243228912354e-02
9.702994488179683685e-03
3.184507787227630615e-02
-5.799143016338348389e-02
3.323749825358390808e-02
-4.278856143355369568e-02
-5.103855207562446594e-02
4.643196240067481995e-02
-6.937765330076217651e-02
-1.068841814994812012e-01
-1.391409058123826981e-02
1.352910250425338745e-01
4.318702220916748047e-02
-6.829864531755447388e-02
1.160458326339721680e-01
-9.662494808435440063e-02
-1.945338100194931030e-01
-8.857376128435134888e-02
9.523784369230270386e-02
4.844444990158081055e-02
-6.725349277257919312e-02
-7.234391570091247559e-02
6.046540290117263794e-02
-5.695789307355880737e-02
1.658215373754501343e-01
1.329786628484725952e-01
-5.088141933083534241e-02
-8.436382748186588287e-03
-2.883607521653175354e-02
1.247081309556961060e-01
-2.805517986416816711e-02
3.729943558573722839e-02
7.088370621204376221e-02
7.228199392557144165e-02
-1.734087914228439331e-01
1.253092475235462189e-02
1.615110486745834351e-01
5.153980106115341187e-02
1.718993633985519409e-01
8.632884919643402100e-02
1.423236727714538574e-01
-6.790052354335784912e-02
3.275689855217933655e-02
-5.549906939268112183e-02
-4.098511859774589539e-02
1.901103532873094082e-03
7.582777179777622223e-04
-6.608229875564575195e-02
-2.312661521136760712e-02
6.635239720344543457e-02
-4.796895012259483337e-02
-2.956992387771606445e-01
6.678706407546997070e-02
1.047319099307060242e-01
5.672684311866760254e-02
-3.742054849863052368e-02
1.391504891216754913e-02
2.056255340576171875e-01
-5.363975092768669128e-02
3.032771311700344086e-02
1.144161224365234375e-01
1.252083033323287964e-01
-7.275981456041336060e-02
-7.156041264533996582e-02
-6.436412781476974487e-02
-3.563868254423141479e-02
-1.060505136847496033e-01
4.365775967016816139e-04
-5.935874581336975098e-02
-1.093071103096008301e-01
9.729555994272232056e-02
-4.166858643293380737e-02
8.825853466987609863e-03
2.172778546810150146e-02
-1.985986717045307159e-02
-3.024020418524742126e-02
-4.541171249002218246e-03
1.404935568571090698e-01
-3.977178037166595459e-02
8.813261985778808594e-02
-6.783316284418106079e-02
6.936945021152496338e-02
1.008677575737237930e-02
-2.008350044488906860e-01
6.551939249038696289e-02
1.242710091173648834e-02
1.934723407030105591e-01
-5.082768946886062622e-02
1.551660150289535522e-01
4.480740055441856384e-02
-1.076866611838340759e-01
2.623530849814414978e-02
-1.184948086738586426e-01
7.877440005540847778e-02
8.491848409175872803e-02
-1.239012703299522400e-01
1.621198654174804688e-01
9.106480330228805542e-02
1.402747035026550293e-01
5.767303705215454102e-02
-5.313460156321525574e-02
-4.654274135828018188e-02
-8.680567145347595215e-03
2.374919317662715912e-02
1.366136521100997925e-01
-1.071883589029312134e-01
-2.327479235827922821e-02
-2.142076566815376282e-02
1.528637558221817017e-01
-7.210097461938858032e-02
7.108119875192642212e-02
1.097264960408210754e-01
1.065799593925476074e-01
1.262190490961074829e-01
-1.794409006834030151e-02
-2.755898423492908478e-02
-9.036085009574890137e-02
7.827308028936386108e-02
-4.547148942947387695e-02
8.741769194602966309e-02
-1.303543895483016968e-01
-7.897385209798812866e-02
1.302979737520217896e-01
-1.322359032928943634e-02
1.830533444881439209e-01
-1.190372779965400696e-01
-5.545670166611671448e-02
1.169954836368560791e-01
1.858123391866683960e-02
8.077116310596466064e-02
-5.245899781584739685e-02
-1.700131446123123169e-01
1.197563782334327698e-01
-1.352397445589303970e-02
-1.821911931037902832e-01
1.015123054385185242e-01
6.583798211067914963e-03
7.400508970022201538e-02
-1.548880618065595627e-02
1.927740685641765594e-02
-2.493308298289775848e-02
-8.191019296646118164e-02
-8.229807019233703613e-02
9.229461848735809326e-02
-1.035412997007369995e-01
-1.257500797510147095e-01
4.187853261828422546e-02
-1.561741624027490616e-02
1.169400871731340885e-03
-1.352604925632476807e-01
5.260990932583808899e-02
-4.803591221570968628e-02
4.999692365527153015e-02
1.923450380563735962e-01
8.305689692497253418e-02
-7.725663483142852783e-02
-1.241331920027732849e-01
3.186535835266113281e-02
7.147555798292160034e-02
7.151737064123153687e-02
-2.107666991651058197e-02
-6.110367923974990845e-02
-1.311066444031894207e-03
-5.184189230203628540e-02
-1.098845060914754868e-02
-1.171840876340866089e-01
3.134792298078536987e-02
-1.192403286695480347e-01
5.445523932576179504e-02
-4.315612465143203735e-02
4.876767471432685852e-02
7.959754019975662231e-02
-2.115108668804168701e-01
-5.312205478549003601e-02
-1.024679467082023621e-01
-1.209052652120590210e-02
6.102961674332618713e-02
-1.784629002213478088e-02
-6.987261027097702026e-02
4.632816836237907410e-02
-3.817446529865264893e-02
-5.363987386226654053e-02
-9.907619655132293701e-02
2.449379116296768188e-02
4.680274520069360733e-03
1.187430024147033691e-01
1.137861162424087524e-01
-1.547484695911407471e-01
-1.530194729566574097e-01
-8.770891278982162476e-02
1.029693149030208588e-02
-2.032728493213653564e-02
-4.647586494684219360e-02
-5.619106069207191467e-02
9.018238633871078491e-02
-2.426680643111467361e-03
7.591421902179718018e-02
3.531207516789436340e-02
-5.618719756603240967e-02
1.261240094900131226e-01
-5.985052138566970825e-02
-1.866137795150279999e-02
-5.218556895852088928e-02
6.649722158908843994e-02
3.549662604928016663e-02
1.232084408402442932e-01
-1.167419329285621643e-01
7.894469052553176880e-02
1.164685562252998352e-01
-2.366548869758844376e-03
1.161627545952796936e-01
8.573550730943679810e-02
1.389756947755813599e-01
7.453877478837966919e-02
-1.115607321262359619e-01
4.450684040784835815e-02
-1.485928595066070557e-01
2.857921645045280457e-02
-7.595109194517135620e-02
-9.376343339681625366e-02
-6.943926215171813965e-03
-1.402745116502046585e-02
-6.126712635159492493e-02
-8.992352522909641266e-03
7.304308935999870300e-03
4.643023386597633362e-02
-5.903019011020660400e-02
-1.044394671916961670e-01
-1.346587669104337692e-02
5.385264754295349121e-02
-8.281462639570236206e-02
-2.733910828828811646e-02
-8.089907467365264893e-02
-1.197208911180496216e-01
-1.243986375629901886e-02
-1.312022795900702477e-03
6.728548556566238403e-02
-1.154875233769416809e-01
1.136762574315071106e-01
-1.090560201555490494e-02
1.086917370557785034e-01
-4.364482685923576355e-02
-6.463614106178283691e-02
4.371158406138420105e-02
-8.162757381796836853e-03
-1.050104647874832153e-01
-9.166230261325836182e-02
1.620355877093970776e-03
-3.871087729930877686e-02
7.769028097391128540e-02
7.994034886360168457e-02
-5.022432189434766769e-03
-6.292477250099182129e-02
-9.575087577104568481e-02
-2.218709327280521393e-02
1.156003028154373169e-01
5.570814758539199829e-02
5.074093490839004517e-02
1.002730280160903931e-01
-3.121452219784259796e-02
8.980464190244674683e-02
-1.332468260079622269e-02
9.726334363222122192e-02
-9.479138068854808807e-03
2.060769200325012207e-01
1.279227882623672485e-01
-2.959997626021504402e-03
-1.329472064971923828e-01
4.863913357257843018e-02
1.218202430754899979e-02
6.294244527816772461e-02
1.262185871601104736e-01
1.365031003952026367e-01
-4.654509574174880981e-02
9.463924169540405273e-02
8.645320683717727661e-02
-4.355417564511299133e-02
9.639520943164825439e-02
6.182157620787620544e-02
-3.928283601999282837e-02
-1.068243980407714844e-01
-8.670615404844284058e-02
-3.572067618370056152e-02
-7.274741772562265396e-03
4.804609715938568115e-02
-1.675477921962738037e-01
-6.795446574687957764e-02
-7.924719154834747314e-02
-7.363681215792894363e-03
-2.332156337797641754e-02
1.186693087220191956e-02
-8.620510250329971313e-02
-2.857537940144538879e-03
-4.607616364955902100e-02
-4.717626050114631653e-02
6.339655816555023193e-02
-1.033762246370315552e-01
-8.690778911113739014e-02
4.227629676461219788e-02
5.790416896343231201e-02
-2.418472804129123688e-02
5.133154988288879395e-02
8.102940768003463745e-02
-4.307783208787441254e-03
6.317643821239471436e-02
4.661965370178222656e-02
2.215550094842910767e-02
-9.344293922185897827e-02
-1.056037098169326782e-01
-1.352479606866836548e-01
3.761047497391700745e-02
5.707613378763198853e-02
-6.039948388934135437e-02
-9.531384706497192383e-02
-3.612810000777244568e-02
1.310796141624450684e-01
4.362102225422859192e-02
-8.364783599972724915e-03
-1.761430688202381134e-02
2.763443253934383392e-02
-2.287101373076438904e-02
1.699064299464225769e-02
8.463820815086364746e-02
-1.528041437268257141e-02
-2.706301212310791016e-02
7.313712686300277710e-02
1.373834721744060516e-02
2.101361565291881561e-02
1.935007399879395962e-03
-2.027923800051212311e-02
-9.415534324944019318e-03
-5.039652809500694275e-02
-6.988213397562503815e-03
-1.862773112952709198e-02
5.877342820167541504e-02
1.954620890319347382e-02
1.241361629217863083e-02
-7.680875808000564575e-02
-8.600217103958129883e-02
-3.939510881900787354e-02
-6.471475213766098022e-02
4.772019013762474060e-02
-3.488937392830848694e-02
1.249205619096755981e-01
-4.350000992417335510e-02
-1.360307820141315460e-02
9.449408203363418579e-02
-6.441422551870346069e-02
5.717545747756958008e-02
-5.896531790494918823e-02
2.867020852863788605e-02
-1.302456259727478027e-01
-8.916725218296051025e-02
1.009170860052108765e-01
-1.048975288867950439e-01
7.285878807306289673e-02
-4.788026213645935059e-02
-1.058149486780166626e-01
3.952168300747871399e-02
-1.157673224806785583e-01
-5.530882626771926880e-02
-9.970207512378692627e-02
3.610901907086372375e-02
1.178535073995590210e-01
-8.799574524164199829e-02
-1.014744341373443604e-01
1.661922633647918701e-01
5.241471156477928162e-02
-2.621276117861270905e-02
3.761871904134750366e-02
-6.854236871004104614e-02
4.446194320917129517e-02
1.148138493299484253e-01
5.542144551873207092e-02
-1.348995566368103027e-01
-1.242572292685508728e-01
-9.812037646770477295e-02
5.928532034158706665e-02
2.974860370159149170e-02
-5.862030386924743652e-02
-1.913701184093952179e-02
1.842990666627883911e-01
6.492463499307632446e-02
7.490552961826324463e-02
-1.202745586633682251e-01
7.772819697856903076e-02
-1.054066717624664307e-01
7.407318800687789917e-02
-8.468634635210037231e-02
-2.801696583628654480e-02
9.575632214546203613e-02
1.188441738486289978e-02
-1.342451125383377075e-01
3.783363848924636841e-02
1.348026096820831299e-01
-2.472327090799808502e-02
8.904319256544113159e-03
-6.869680434465408325e-02
1.683807969093322754e-01
8.370143175125122070e-02
1.272689253091812134e-01
2.353956550359725952e-02
-1.215434353798627853e-02
5.121630150824785233e-03
1.736500300467014313e-02
-5.851557105779647827e-02
-8.918770588934421539e-03
-3.464980050921440125e-02
-4.233334586024284363e-02
5.565376207232475281e-02
6.421053409576416016e-02
-3.611844405531883240e-02
-9.004139155149459839e-02
6.385856121778488159e-02
7.935686409473419189e-02
-4.153765365481376648e-02
-2.391140721738338470e-02
4.802217334508895874e-02
4.123488813638687134e-02
1.568537577986717224e-02
-2.526469063013792038e-03
-5.932505801320075989e-02
1.505070831626653671e-02
-4.112945124506950378e-02
8.272570371627807617e-02
-3.566113486886024475e-02
-6.292970478534698486e-02
-2.378600649535655975e-02
-3.774296119809150696e-02
4.305206704884767532e-03
5.980310589075088501e-02
-5.231865495443344116e-02
3.097634948790073395e-02
3.218450024724006653e-02
5.733212456107139587e-02
-8.157037198543548584e-02
-7.852573692798614502e-02
-2.884188666939735413e-03
-8.594067394733428955e-02
-2.615247294306755066e-02
-7.539483904838562012e-02
-8.770459145307540894e-02
-6.682106107473373413e-02
8.640069514513015747e-02
-5.797759816050529480e-02
-6.006728485226631165e-02
-8.704286813735961914e-02
2.029445953667163849e-02
-2.044558711349964142e-02
1.562008541077375412e-02
5.327663570642471313e-02
-3.923821728676557541e-03
-1.902991719543933868e-02
2.239348180592060089e-02
-8.514633774757385254e-02
2.817139029502868652e-02
9.023813158273696899e-02
6.334409117698669434e-02
-2.139301970601081848e-02
-7.714883238077163696e-02
-3.074010834097862244e-02
-3.237617015838623047e-02
-5.136993248015642166e-03
-4.873755853623151779e-03
-7.670767605304718018e-02
-2.239155210554599762e-02
-2.947231382131576538e-02
5.200285091996192932e-02
-1.837465353310108185e-02
4.293253645300865173e-02
-6.615069508552551270e-02
-2.272464521229267120e-02
6.646256893873214722e-02
-1.470785401761531830e-02
5.091536417603492737e-02
-4.562804847955703735e-02
-7.588364183902740479e-02
5.204736255109310150e-03
-7.738547772169113159e-02
5.556185916066169739e-02
1.333205611445009708e-03
-1.858072541654109955e-02
-2.937575336545705795e-03
-6.169966235756874084e-02
-2.144479937851428986e-02
-8.707527071237564087e-02
3.256642445921897888e-02
-1.713734678924083710e-02
-6.881219148635864258e-02
-8.126538991928100586e-02
-7.583562284708023071e-02
4.275403544306755066e-02
2.470203116536140442e-02
-1.184821315109729767e-02
8.079081773757934570e-02
-4.893221333622932434e-02
5.855550989508628845e-02
-3.010156564414501190e-03
-7.941843010485172272e-03
-6.835294514894485474e-02
-5.770982801914215088e-02
-2.256334759294986725e-02
4.896433278918266296e-02
5.788278207182884216e-02
2.469402365386486053e-02
5.717340484261512756e-02
-6.398594379425048828e-02
-7.798948884010314941e-02
5.117022618651390076e-02
8.730032294988632202e-02
6.909240968525409698e-03
8.058318495750427246e-02
-5.760684609413146973e-02
2.409219928085803986e-02
-5.964973941445350647e-02
-4.832518752664327621e-03
-8.753263950347900391e-02
-6.339136511087417603e-02
-1.591869071125984192e-02
1.956208376213908195e-03
3.273766860365867615e-02
-5.935711413621902466e-02
-3.451677784323692322e-02
-3.422959521412849426e-02
6.206417456269264221e-03
7.802229374647140503e-02
5.734457075595855713e-02
-1.385945267975330353e-02
-2.223193086683750153e-02
1.092775166034698486e-01
7.660042494535446167e-02
-2.644537016749382019e-02
2.159429341554641724e-02
-8.462922275066375732e-02
-4.466669633984565735e-02
-9.319945424795150757e-02
1.551004219800233841e-02
2.320575527846813202e-02
-6.020229309797286987e-03
-4.228129982948303223e-02
-8.546775206923484802e-03
-9.779249131679534912e-02
2.952211908996105194e-02
-3.449382260441780090e-02
-1.013399213552474976e-01
-9.448705823160707951e-04
2.803165651857852936e-02
1.540970616042613983e-02
4.767928272485733032e-02
-2.923527359962463379e-02
-1.222994029521942139e-01
4.561989009380340576e-02
-4.855302721261978149e-02
6.807901710271835327e-02
6.576018035411834717e-02
2.052705548703670502e-02
6.334631145000457764e-02
-7.053802162408828735e-02
-8.267112076282501221e-02
-7.579974085092544556e-02
-1.301799267530441284e-01
-1.357992440462112427e-01
8.690047264099121094e-02
1.310809403657913208e-01
-2.872871980071067810e-02
1.474245935678482056e-01
7.814309746026992798e-02
8.478791266679763794e-02
1.066954955458641052e-01
6.883945316076278687e-04
5.052930489182472229e-02
-1.397753506898880005e-01
-8.311443030834197998e-02
-6.871892511844635010e-02
1.083882823586463928e-01
-1.732074096798896790e-02
1.092455983161926270e-01
-1.462691370397806168e-02
2.697966061532497406e-02
-1.443220525979995728e-01
-9.129607677459716797e-02
3.207888081669807434e-02
1.092172637581825256e-01
7.414001971483230591e-02
-6.521506700664758682e-03
4.709322378039360046e-02
1.047777235507965088e-01
-3.533717989921569824e-02
5.239574611186981201e-02
1.698063910007476807e-01
1.765410043299198151e-02
-3.778516501188278198e-02
-1.478906124830245972e-01
2.062403038144111633e-02
1.108395755290985107e-01
4.063084255903959274e-03
-4.790108650922775269e-02
5.550484731793403625e-02
5.133530125021934509e-02
9.024544805288314819e-02
1.374232862144708633e-02
4.406855255365371704e-02
-5.380298942327499390e-02
1.310745030641555786e-01
-5.633070692420005798e-02
-5.974471103399991989e-03
-2.764856442809104919e-02
3.828878328204154968e-02
-1.089944038540124893e-02
-1.749027073383331299e-01
-5.997151136398315430e-02
3.385901218280196190e-03
3.669922798871994019e-02
-2.212255448102951050e-02
6.812358647584915161e-02
-2.972850576043128967e-02
2.709116227924823761e-02
-6.176626682281494141e-02
9.487941116094589233e-02
-1.047672703862190247e-01
-1.898947666632011533e-04
8.659742772579193115e-03
1.447624415159225464e-01
1.310981363058090210e-01
-5.106609687209129333e-02
4.733859375119209290e-02
-7.532970607280731201e-02
8.425313979387283325e-02
-6.345084309577941895e-02
7.968632131814956665e-02
-1.458849608898162842e-01
-7.873442023992538452e-02
-4.049763455986976624e-02
1.654810905456542969e-01
8.783006668090820312e-02
-6.818076968193054199e-02
7.860174030065536499e-02
8.692597597837448120e-02
-5.185722932219505310e-02
7.376593351364135742e-02
-6.030846387147903442e-03
-5.837136134505271912e-02
5.988764390349388123e-02
5.023225396871566772e-02
-1.908837072551250458e-02
-1.695770397782325745e-02
7.150088250637054443e-02
6.563206762075424194e-02
-1.297677159309387207e-01
3.216648474335670471e-02
7.066524028778076172e-02
-5.041873455047607422e-02
-1.166646275669336319e-02
-6.609652936458587646e-02
1.385818608105182648e-02
-8.914227038621902466e-02
-6.585668772459030151e-02
3.238339722156524658e-02
6.363830715417861938e-02
-3.876423090696334839e-02
-3.977156057953834534e-02
-1.735163852572441101e-02
1.015356974676251411e-03
-5.398992449045181274e-03
6.260088831186294556e-02
-9.136283770203590393e-03
2.097675204277038574e-02
-7.125847041606903076e-02
8.685792982578277588e-02
6.490633636713027954e-02
8.592271059751510620e-02
3.237882629036903381e-02
5.041643232107162476e-02
-5.250690877437591553e-02
1.297128647565841675e-01
-4.796504229307174683e-02
-9.517634660005569458e-02
-8.658293634653091431e-02
-3.547862544655799866e-02
-4.654783755540847778e-02
1.121897324919700623e-01
1.785160414874553680e-02
5.445929244160652161e-02
2.900549024343490601e-02
1.681300066411495209e-02
-9.840101003646850586e-02
-3.576039336621761322e-03
5.579255521297454834e-02
-4.216381907463073730e-02
3.696150332689285278e-02
-8.663537353277206421e-02
-1.389995366334915161e-01
-5.636487901210784912e-02
3.509286046028137207e-02
-2.981447055935859680e-02
-7.042503356933593750e-02
1.078433319926261902e-01
4.294798523187637329e-02
-1.813290640711784363e-02
3.638934344053268433e-02
7.264902442693710327e-02
1.384955793619155884e-01
-7.427260279655456543e-02
5.494797974824905396e-02
-5.170676857233047485e-02
-4.404957219958305359e-02
4.169081524014472961e-02
3.916041180491447449e-02
9.681906551122665405e-02
-9.698554128408432007e-02
-1.894350722432136536e-02
-8.747611194849014282e-03
-2.241783961653709412e-02
-5.318324640393257141e-02
5.197747796773910522e-02
-1.530884299427270889e-03
-2.108273329213261604e-03
6.447716802358627319e-02
7.982403784990310669e-02
-5.067651346325874329e-02
-1.423508860170841217e-02
-6.903128325939178467e-02
-2.782882377505302429e-02
-6.725076586008071899e-02
4.973097890615463257e-02
-1.279111057519912720e-01
-5.668384954333305359e-02
1.133292391896247864e-01
4.951728135347366333e-02
2.142782323062419891e-02
3.298712149262428284e-02
-5.846883729100227356e-02
-4.239474236965179443e-02
-4.336731135845184326e-02
-9.155200421810150146e-02
7.467452436685562134e-03
-6.909451633691787720e-02
-1.676501519978046417e-02
-2.038565278053283691e-02
3.666671738028526306e-02
1.218347102403640747e-01
9.856558591127395630e-02
1.062821783125400543e-02
2.046197280287742615e-02
-6.487874686717987061e-02
-1.442530751228332520e-02
-1.947880350053310394e-02
-1.138274744153022766e-01
-8.431529626250267029e-03
-1.476124860346317291e-02
-2.090361714363098145e-02
1.963420026004314423e-02
6.856050342321395874e-03
-4.968665074557065964e-03
-6.975982338190078735e-02
7.668023556470870972e-02
3.381045907735824585e-02
-1.495855278335511684e-03
2.722922898828983307e-02
9.017606824636459351e-02
7.235147058963775635e-02
1.059811469167470932e-02
5.485913902521133423e-02
-6.666672229766845703e-02
-3.809460625052452087e-02
-1.514210831373929977e-02
9.512316435575485229e-03
-1.115807238966226578e-02
-1.012972369790077209e-01
-1.814434304833412170e-02
-8.231046795845031738e-02
-2.497329004108905792e-02
-1.090411022305488586e-01
-1.983588933944702148e-02
1.632507592439651489e-01
6.005819514393806458e-02
-6.945012509822845459e-02
-1.558324415236711502e-02
7.733462750911712646e-02
6.372507661581039429e-02
-9.397412836551666260e-02
7.141567766666412354e-02
4.521231353282928467e-02
-2.385127916932106018e-02
-8.199728280305862427e-02
-1.180904451757669449e-02
4.156352952122688293e-02
-1.339867431670427322e-02
-1.860488951206207275e-01
7.099275011569261551e-03
-4.758153855800628662e-02
1.319653354585170746e-02
8.957047015428543091e-02
1.372580677270889282e-01
1.078284308314323425e-01
1.873346269130706787e-01
5.984525755047798157e-02
1.852110475301742554e-01
1.312780827283859253e-01
1.521625518798828125e-01
7.700715959072113037e-02
1.679619215428829193e-02
2.129444479942321777e-02
2.556295692920684814e-02
-9.390603750944137573e-02
-1.438562422990798950e-01
-5.235657840967178345e-02
6.136090494692325592e-03
-4.263683408498764038e-02
5.046711862087249756e-02
-1.476960927248001099e-01
-1.648679748177528381e-02
3.932897374033927917e-02
-3.899298235774040222e-02
4.337143152952194214e-02
6.039319094270467758e-03
-1.273314356803894043e-01
3.342593833804130554e-02
1.131735295057296753e-01
1.707380637526512146e-02
1.278517842292785645e-01
-3.480177000164985657e-02
3.251014277338981628e-02
-1.122681517153978348e-02
4.537294432520866394e-02
-2.040964737534523010e-02
-6.251497566699981689e-02
-3.581896424293518066e-02
-1.018486265093088150e-02
1.826094686985015869e-01
4.894962534308433533e-02
-4.399787262082099915e-02
-2.020610682666301727e-02
-4.642999917268753052e-02
-4.963114485144615173e-02
-7.296752929687500000e-02
-2.163632772862911224e-02
1.312909722328186035e-01
3.262621909379959106e-02
4.711053520441055298e-02
-5.503847450017929077e-02
3.777512162923812866e-02
-1.197295542806386948e-02
-2.144839987158775330e-02
-1.641290932893753052e-01
-7.980856113135814667e-03
4.215709492564201355e-02
-1.319763064384460449e-01
-7.452587783336639404e-02
-7.391533255577087402e-02
1.054549664258956909e-01
2.811837568879127502e-02
-6.723690778017044067e-02
6.930304318666458130e-02
-3.744201362133026123e-02
-4.760274291038513184e-02
4.728126525878906250e-02
3.477597609162330627e-02
6.077781692147254944e-02
4.743711650371551514e-02
2.065811902284622192e-01
7.567140460014343262e-02
-7.198509573936462402e-02
-1.849584095180034637e-02
5.439945682883262634e-02
-8.924867212772369385e-02
4.449500236660242081e-03
-5.486242845654487610e-02
1.921883970499038696e-02
-2.042130939662456512e-02
-1.890075393021106720e-03
3.980305418372154236e-02
6.458029150962829590e-02
-2.614229321479797363e-01
1.209343746304512024e-01
3.082785382866859436e-02
-1.462014913558959961e-01
-6.021630764007568359e-02
-8.710580319166183472e-02
8.426401019096374512e-02
-6.459420919418334961e-02
-3.956104442477226257e-02
2.471737191081047058e-02
-1.537403464317321777e-01
-5.943296942859888077e-03
-6.474070250988006592e-02
8.400652557611465454e-02
-4.726090282201766968e-02
-6.589690595865249634e-02
3.572371974587440491e-02
-8.330868929624557495e-02
1.090359017252922058e-01
7.850700616836547852e-02
8.169953525066375732e-02
3.682712838053703308e-02
-1.220501586794853210e-02
1.130947992205619812e-01
3.207834437489509583e-02
-2.536047063767910004e-02
4.086472839117050171e-02
1.141876578330993652e-01
5.846348591148853302e-03
-2.509993612766265869e-01
-8.888930082321166992e-02
-7.623630762100219727e-02
-9.774729609489440918e-02
-1.367184519767761230e-02
9.083727747201919556e-02
-7.511042803525924683e-02
8.768779039382934570e-02
1.870212145149707794e-02
8.561483025550842285e-02
9.673570096492767334e-02
-1.803855411708354950e-02
4.087166115641593933e-02
8.158383518457412720e-02
-7.606925070285797119e-02
3.684072569012641907e-02
4.051551967859268188e-02
-3.951611369848251343e-02
-1.201743036508560181e-01
2.734319120645523071e-02
7.719603180885314941e-02
1.263805925846099854e-01
1.598716676235198975e-01
1.427474468946456909e-01
-3.375444188714027405e-02
-4.980946332216262817e-02
-1.416626200079917908e-02
8.592826873064041138e-02
1.088628470897674561e-01
-1.470483541488647461e-01
1.586121767759323120e-01
-3.804175183176994324e-03
1.400358974933624268e-02
-1.127316504716873169e-01
5.115940049290657043e-02
2.785758301615715027e-02
-1.578695140779018402e-02
-2.095725387334823608e-01
4.236868396401405334e-02
-5.208379402756690979e-02
1.696731001138687134e-01
-3.336676955223083496e-02
-1.047457009553909302e-01
1.529274433851242065e-01
-4.663927480578422546e-02
1.260939389467239380e-01
1.035744175314903259e-01
6.258784234523773193e-02
2.876226603984832764e-02
-1.252468824386596680e-01
8.958285301923751831e-02
9.201157838106155396e-02
-1.102298870682716370e-01
7.356688380241394043e-02
-2.739615365862846375e-02
-4.327567666769027710e-02
-7.404885441064834595e-02
6.774703972041606903e-03
7.863938808441162109e-02
7.686457131057977676e-03
-1.197576429694890976e-02
-1.319438368082046509e-01
-5.003220215439796448e-02
-5.812826380133628845e-02
-1.222469285130500793e-02
-3.414563834667205811e-02
-5.771160870790481567e-02
-6.628435850143432617e-02
-1.000640094280242920e-01
5.442489311099052429e-02
1.214654836803674698e-02
-8.471908420324325562e-02
9.703424572944641113e-02
1.170065999031066895e-01
7.607420533895492554e-02
1.344742327928543091e-01
-3.363016247749328613e-02
-3.214778751134872437e-02
-9.001431614160537720e-02
-1.132134497165679932e-01
1.090981960296630859e-01
2.148715108633041382e-01
1.143521741032600403e-01
1.071873083710670471e-01
3.410648182034492493e-02
-9.998088330030441284e-02
-9.808102995157241821e-02
-2.904816716909408569e-02
-7.321123778820037842e-02
1.252814680337905884e-01
4.982100427150726318e-02
8.139019459486007690e-02
3.563400730490684509e-02
8.065011352300643921e-02
1.759875267744064331e-01
-2.907981909811496735e-02
5.317938327789306641e-02
4.105025529861450195e-02
-3.636894375085830688e-02
-8.951920084655284882e-03
-7.767031341791152954e-02
-2.101011723279953003e-01
-8.093757927417755127e-02
3.971279412508010864e-02
7.870855182409286499e-02
-5.125551670789718628e-02
-2.098503708839416504e-02
5.033918097615242004e-02
5.883992090821266174e-02
1.882346719503402710e-01
2.262453436851501465e-01
2.529677934944629669e-02
6.901919841766357422e-02
-4.965133219957351685e-02
7.329644262790679932e-02
7.110221311450004578e-03
-2.080430276691913605e-02
-5.902739986777305603e-02
-1.757674291729927063e-02
7.817409932613372803e-02
-1.439623534679412842e-01
-2.028284408152103424e-02
3.919410705566406250e-02
-1.042229607701301575e-01
-2.774835191667079926e-02
6.285578012466430664e-02
7.017596065998077393e-02
2.184854447841644287e-01
-1.072790995240211487e-01
-9.697019308805465698e-02
-1.019035726785659790e-01
1.281371414661407471e-01
-1.470467597246170044e-01
-2.044297158718109131e-01
-2.283511869609355927e-02
-1.464231759309768677e-01
-4.646920412778854370e-02
2.758919075131416321e-02
1.144831925630569458e-01
2.396917901933193207e-02
9.772585332393646240e-02
-1.830841600894927979e-01
-1.832426041364669800e-01
-9.582271426916122437e-02
-8.148889988660812378e-02
5.365465953946113586e-02
-3.140053153038024902e-02
2.830091714859008789e-01
-4.172185808420181274e-02
1.445223856717348099e-02
-2.517130039632320404e-02
-7.171197235584259033e-02
1.352443546056747437e-01
-8.913449943065643311e-02
5.421103164553642273e-02
1.184162776917219162e-02
-1.702147573232650757e-01
9.546966105699539185e-02
-1.512980759143829346e-01
-2.019223943352699280e-02
2.027391828596591949e-02
-7.268917560577392578e-02
-5.315583944320678711e-02
-8.538369834423065186e-02
1.047799959778785706e-01
1.625441908836364746e-01
6.050970032811164856e-02
-1.928519308567047119e-01
3.502123430371284485e-02
-5.135485902428627014e-02
1.521960496902465820e-01
4.457340016961097717e-02
7.842040061950683594e-02
-6.238383427262306213e-02
-4.031829070299863815e-03
-3.652129694819450378e-02
-2.230009064078330994e-02
9.983991831541061401e-02
1.614601165056228638e-01
-7.794370502233505249e-02
-4.930612444877624512e-02
-2.130928486585617065e-01
5.419569835066795349e-02
1.738117486238479614e-01
4.161947872489690781e-03
9.291055053472518921e-02
7.941127568483352661e-02
1.257435046136379242e-02
-6.676717847585678101e-02
2.164836078882217407e-01
-6.989462673664093018e-02
3.288071230053901672e-02
-9.751188009977340698e-02
-2.025743424892425537e-01
1.147842928767204285e-01
6.097620353102684021e-02
5.777122080326080322e-02
-7.292183488607406616e-02
-1.851409375667572021e-01
2.843899093568325043e-02
6.234819069504737854e-03
3.762938827276229858e-02
-1.311482489109039307e-01
-1.146816164255142212e-01
5.451256409287452698e-02
-6.205029040575027466e-02
2.252394333481788635e-02
-1.209798175841569901e-02
6.399030238389968872e-02
9.006094187498092651e-02
-8.214148133993148804e-02
1.450854688882827759e-01
-1.071305274963378906e-01
8.161507546901702881e-02
-3.158827545121312141e-03
1.616314649581909180e-01
6.240336224436759949e-02
1.064437534660100937e-02
1.476933360099792480e-01
1.939791738986968994e-01
3.107233159244060516e-02
-1.577508449554443359e-02
6.469588261097669601e-03
-6.479749828577041626e-02
-2.946784533560276031e-02
1.621101796627044678e-01
1.374183129519224167e-02
1.054723709821701050e-01
1.622544950805604458e-03
-2.736940421164035797e-02
-3.274425864219665527e-02
2.133640833199024200e-02
-4.735400900244712830e-02
-6.935667246580123901e-02
-2.113524358719587326e-03
8.928752504289150238e-03
8.855636417865753174e-02
-6.209894642233848572e-02
1.665772683918476105e-02
-6.529279798269271851e-02
9.678811579942703247e-02
-1.339307893067598343e-02
-5.359081178903579712e-02
7.711397949606180191e-03
-8.468468487262725830e-02
9.236754477024078369e-02
1.481554005295038223e-02
-1.316024065017700195e-01
-5.721760913729667664e-02
7.149716466665267944e-02
-7.593355327844619751e-02
3.373095020651817322e-02
-1.802044361829757690e-02
-1.285423040390014648e-01
-1.320012193173170090e-02
-1.041684895753860474e-01
5.581403523683547974e-02
2.074254490435123444e-02
3.069417774677276611e-01
-6.177482381463050842e-02
1.932139247655868530e-01
-9.107535332441329956e-02
-7.221676409244537354e-02
-1.515619307756423950e-01
1.299357414245605469e-01
5.136912688612937927e-02
-9.427011758089065552e-02
-1.144036948680877686e-01
-6.959290057420730591e-02
1.585755348205566406e-01
-4.487375542521476746e-02
2.726550213992595673e-02
1.558780204504728317e-02
3.096567280590534210e-02
4.023658111691474915e-02
-5.149725079536437988e-02
-2.613106928765773773e-02
1.443962156772613525e-01
-1.145976856350898743e-01
6.789711304008960724e-03
-9.590405225753784180e-02
-1.638277024030685425e-01
4.777400940656661987e-02
-1.739820092916488647e-02
9.269218891859054565e-02
6.957273930311203003e-02
-1.038155183196067810e-01
-1.421387195587158203e-01
6.254738569259643555e-02
-8.351680822670459747e-03
2.547003142535686493e-02
-1.496696099638938904e-02
1.468810588121414185e-01
-6.193693727254867554e-03
-1.411386858671903610e-02
-6.211753934621810913e-03
-1.554751303046941757e-03
5.167054384946823120e-02
-9.175942279398441315e-03
1.262796693481504917e-03
3.865530341863632202e-02
6.329674273729324341e-02
-3.719510510563850403e-02
6.046190485358238220e-02
1.223612204194068909e-01
-1.579033434391021729e-01
3.145208582282066345e-02
-1.125705428421497345e-02
-2.775291353464126587e-02
4.008643794804811478e-03
5.092172697186470032e-02
1.834206432104110718e-01
-6.950149685144424438e-02
3.520247293636202812e-03
-2.017093263566493988e-02
-1.008918061852455139e-01
-6.279484182596206665e-02
2.009865790605545044e-01
5.431184917688369751e-02
1.019640788435935974e-01
2.087706513702869415e-02
3.031133860349655151e-02
-1.422487795352935791e-01
3.164229169487953186e-02
1.202420890331268311e-01
-2.520364709198474884e-03
1.815520785748958588e-02
-4.888354614377021790e-02
-8.596622198820114136e-02
-8.632931113243103027e-02
-1.207021344453096390e-02
5.205393955111503601e-02
-1.055461317300796509e-01
-3.443720191717147827e-02
-2.629539929330348969e-02
-2.245079958811402321e-03
-1.138360947370529175e-01
8.577296137809753418e-02
6.931305676698684692e-02
-2.844428457319736481e-02
6.283858418464660645e-02
1.520967390388250351e-02
-5.178688094019889832e-02
-6.834568828344345093e-02
-4.931293427944183350e-03
7.332399487495422363e-02
-8.083962649106979370e-02
-8.386623114347457886e-02
2.824177779257297516e-02
3.706950694322586060e-02
9.508973360061645508e-02
7.384633272886276245e-02
7.519978284835815430e-02
4.759707301855087280e-02
9.956473857164382935e-02
1.404945645481348038e-02
-6.548066437244415283e-02
7.584235817193984985e-02
-1.014301404356956482e-01
-8.849467337131500244e-02
1.272087395191192627e-01
-6.607890129089355469e-02
-6.314323097467422485e-02
1.038138195872306824e-01
-9.818917512893676758e-02
7.235731184482574463e-02
4.845499992370605469e-02
9.813201427459716797e-02
-4.074324667453765869e-02
4.069608077406883240e-02
1.183692812919616699e-01
3.770406544208526611e-02
-2.693117782473564148e-02
1.520438194274902344e-01
-1.684227734804153442e-01
-2.137085050344467163e-02
-1.203610822558403015e-01
-9.883939474821090698e-02
-3.775210306048393250e-02
1.191799193620681763e-01
7.516953046433627605e-04
4.380367696285247803e-02
-6.908148527145385742e-02
9.403424710035324097e-02
4.384413361549377441e-02
-5.738445371389389038e-02
-1.086103692650794983e-01
2.857610397040843964e-02
1.166608277708292007e-02
-7.828370481729507446e-02
2.901188470423221588e-02
-5.582087114453315735e-02
3.694133367389440536e-03
-2.384809702634811401e-01
-2.745810151100158691e-02
1.317981909960508347e-02
-6.716885603964328766e-03
-1.194301061332225800e-02
-9.390336275100708008e-02
-4.415273293852806091e-02
-2.933986298739910126e-02
9.625618904829025269e-02
7.811155915260314941e-02
-3.407158702611923218e-02
-6.568558514118194580e-02
7.005254924297332764e-02
-8.312883228063583374e-02
2.588653750717639923e-02
-7.116413861513137817e-02
-1.157641783356666565e-01
6.485475599765777588e-02
1.426497697830200195e-01
8.033486455678939819e-02
3.373128920793533325e-02
7.804350554943084717e-02
-3.131112083792686462e-02
1.068898588418960571e-01
-6.548003107309341431e-02
2.103429585695266724e-01
-4.188057780265808105e-02
-2.054939419031143188e-02
1.127079203724861145e-01
-2.313656732439994812e-02
9.163122624158859253e-02
1.226349771022796631e-01
-4.878460243344306946e-02
1.025568228214979172e-02
-1.480597257614135742e-01
-1.213580816984176636e-01
-1.188980340957641602e-01
-6.013013422489166260e-02
7.343147695064544678e-02
-3.028081916272640228e-02
-6.528433412313461304e-02
3.443177044391632080e-02
1.415549032390117645e-02
-1.015957370400428772e-01
-8.370584808290004730e-03
-1.122153475880622864e-01
3.533595427870750427e-02
-8.213164657354354858e-02
2.711906097829341888e-02
2.168111354112625122e-01
8.344751596450805664e-02
-9.727696888148784637e-03
7.129193097352981567e-02
5.235632415860891342e-03
-8.740362524986267090e-02
1.916904002428054810e-01
1.300454139709472656e-01
1.314094662666320801e-01
1.361843049526214600e-01
5.513245984911918640e-02
-3.237287700176239014e-02
1.235925592482089996e-02
-1.030206233263015747e-01
6.005929037928581238e-02
6.087590940296649933e-03
-8.339011669158935547e-02
-1.267448514699935913e-01
1.353350281715393066e-02
2.549182176589965820e-01
-2.273938059806823730e-02
1.573562175035476685e-01
3.496991842985153198e-02
1.812062412500381470e-01
3.048900142312049866e-02
3.360804542899131775e-02
-8.810586296021938324e-03
-1.680815070867538452e-01
-1.007049158215522766e-01
-1.143765822052955627e-01
-4.891997948288917542e-02
8.387603610754013062e-02
-8.652378618717193604e-02
1.688845902681350708e-01
8.742044866085052490e-02
6.973679363727569580e-02
1.734201163053512573e-01
3.021139465272426605e-02
1.828198730945587158e-01
1.195245701819658279e-02
-1.200825199484825134e-01
-7.987353205680847168e-02
-2.643302641808986664e-02
1.122944429516792297e-01
-3.391030430793762207e-02
1.205110996961593628e-01
-8.172025531530380249e-02
6.471645087003707886e-03
3.168451040983200073e-02
2.244737371802330017e-02
-6.889060884714126587e-02
1.610085070133209229e-01
2.456617504358291626e-01
-1.029570028185844421e-01
-3.386997431516647339e-02
-8.078362047672271729e-02
-1.885926574468612671e-01
-1.142472997307777405e-01
-7.648522406816482544e-02
1.334644109010696411e-01
6.039880216121673584e-02
-5.509905517101287842e-02
4.129285365343093872e-02
-5.491942912340164185e-02
-1.044005677103996277e-01
8.514533936977386475e-02
-1.049629785120487213e-02
6.754834949970245361e-02
5.906366929411888123e-02
5.242528393864631653e-02
-6.015224847942590714e-03
2.582881785929203033e-02
2.305761724710464478e-01
-8.323199301958084106e-02
-8.759943395853042603e-02
8.161630481481552124e-03
1.757743209600448608e-01
-7.033864408731460571e-02
4.191305860877037048e-02
6.829308718442916870e-02
-2.052939683198928833e-01
-7.982892915606498718e-03
-2.504822611808776855e-02
2.980340085923671722e-02
6.306208670139312744e-03
6.084221974015235901e-02
2.195000834763050079e-02
1.113902479410171509e-01
1.365744471549987793e-01
9.005051106214523315e-03
-3.461802750825881958e-02
4.270732775330543518e-02
3.104282915592193604e-02
2.233534902334213257e-01
-5.900756642222404480e-02
3.536205738782882690e-02
3.663168475031852722e-02
-7.729905843734741211e-02
-6.107240449637174606e-03
7.033944875001907349e-02
-1.486601494252681732e-02
