1.157430000603199005e-02
9.436865150928497314e-02
-2.321225218474864960e-02
-2.947102673351764679e-02
1.004407182335853577e-02
-5.952052026987075806e-02
-6.737417727708816528e-02
-7.933143526315689087e-02
1.027868613600730896e-01
5.498248338699340820e-02
1.699253022670745850e-01
-8.563940972089767456e-02
5.902149714529514313e-03
1.035556420683860779e-01
5.564560741186141968e-02
8.292834460735321045e-02
5.330886319279670715e-02
1.070534810423851013e-01
2.062646113336086273e-02
1.078030094504356384e-01
1.360046714544296265e-01
5.453486461192369461e-03
-3.371194377541542053e-02
-1.299773454666137695e-01
-2.677412889897823334e-02
8.171009272336959839e-02
8.112160488963127136e-03
8.685090392827987671e-02
-2.855794504284858704e-02
9.117048233747482300e-02
9.395980089902877808e-02
-4.085870087146759033e-02
2.266903594136238098e-02
-3.072635643184185028e-02
4.111418873071670532e-02
-1.186842545866966248e-01
7.327839732170104980e-02
4.775159060955047607e-02
6.281232344917953014e-04
-4.067841172218322754e-02
-6.487660855054855347e-02
5.040161777287721634e-03
-5.651308223605155945e-03
-6.018132343888282776e-02
-6.877104938030242920e-02
9.344624355435371399e-03
2.292480692267417908e-02
-6.371957063674926758e-02
-2.115257643163204193e-02
-7.533314824104309082e-02
8.701048791408538818e-02
-2.795692533254623413e-03
-4.044261574745178223e-02
-7.487109303474426270e-02
1.010389924049377441e-01
6.494951900094747543e-03
1.561397779732942581e-02
4.585865885019302368e-02
-8.451557904481887817e-02
3.806171938776969910e-02
9.174624085426330566e-02
6.928575690835714340e-03
-1.695458660833537579e-03
7.781127840280532837e-02
3.125945478677749634e-02
-7.441765628755092621e-03
9.933156520128250122e-02
9.446758031845092773e-02
-5.218965932726860046e-02
-2.208987995982170105e-02
3.582952171564102173e-02
-3.858156874775886536e-02
7.230883091688156128e-02
-2.910167351365089417e-02
6.191145256161689758e-02
1.158264186233282089e-02
-3.539247810840606689e-02
-3.289802744984626770e-02
2.667611232027411461e-03
-8.794879168272018433e-02
1.374827325344085693e-02
3.933705762028694153e-02
-4.047983512282371521e-02
1.074996739625930786e-01
