9.539842605590820312e-02
1.443239450454711914e-01
2.699561715126037598e-01
-2.156638503074645996e-01
-4.406387731432914734e-02
1.487965136766433716e-01
1.784060150384902954e-01
5.077289789915084839e-02
8.683598786592483521e-02
-1.481872051954269409e-01
1.615371108055114746e-01
-3.437017500400543213e-01
-3.270008265972137451e-01
5.011618137359619141e-02
1.135862842202186584e-01
1.153747811913490295e-01
1.488972008228302002e-01
-1.788257360458374023e-01
5.491318181157112122e-02
-4.433709010481834412e-02
-1.992851346731185913e-01
-1.712047308683395386e-01
1.957263052463531494e-01
5.345633998513221741e-02
1.045420020818710327e-01
2.507397830486297607e-01
1.170804649591445923e-01
1.909333318471908569e-01
3.648047745227813721e-01
-2.987569272518157959e-01
-1.641945987939834595e-01
2.767305672168731689e-01
2.981936931610107422e-02
8.721386641263961792e-02
2.542760372161865234e-01
-2.848989367485046387e-01
2.941092848777770996e-01
-1.745270788669586182e-01
3.830525279045104980e-01
-1.381032615900039673e-01
1.373581737279891968e-01
-8.514730632305145264e-02
-1.479368358850479126e-01
5.533848702907562256e-02
-2.623638883233070374e-02
2.643940038979053497e-02
-9.938997030258178711e-02
2.490557543933391571e-02
1.718043684959411621e-01
-1.644091010093688965e-01
1.636048257350921631e-01
2.043290436267852783e-01
3.825480863451957703e-02
4.927625358104705811e-01
-2.816095650196075439e-01
-1.154762040823698044e-02
-9.976573288440704346e-02
1.315627843141555786e-01
-2.054474353790283203e-01
-1.314428895711898804e-01
2.854567766189575195e-01
2.537147998809814453e-01
-2.793758213520050049e-01
4.571064114570617676e-01
1.059697195887565613e-01
4.423221349716186523e-01
-1.087090838700532913e-02
2.022178620100021362e-01
3.791651129722595215e-01
-5.895830690860748291e-02
-2.170103937387466431e-01
-1.609667688608169556e-01
4.334867745637893677e-02
-1.408132761716842651e-01
-1.797181926667690277e-02
-3.033052384853363037e-01
7.932533323764801025e-02
-2.165222167968750000e-01
1.475504636764526367e-01
-2.075941264629364014e-01
-1.243627667427062988e-01
-1.226105764508247375e-01
-6.878852099180221558e-02
-2.000222802162170410e-01
3.322632983326911926e-02
-2.534376457333564758e-02
1.761689223349094391e-02
5.134297907352447510e-02
1.251455489546060562e-02
1.242661476135253906e-02
1.456349343061447144e-01
2.840996161103248596e-02
-2.277521230280399323e-02
7.034792751073837280e-02
-1.021533980965614319e-01
1.489667035639286041e-02
1.270917207002639771e-01
-2.045856118202209473e-01
-3.848792314529418945e-01
-1.812566965818405151e-01
2.299893796443939209e-01
1.806914508342742920e-01
1.499622017145156860e-01
4.549027979373931885e-01
3.250817060470581055e-01
-1.696859486401081085e-02
-1.193469464778900146e-01
1.142977029085159302e-01
6.080082058906555176e-02
-7.848175615072250366e-02
-8.883509784936904907e-03
-3.946927562355995178e-02
4.784913361072540283e-02
3.065170347690582275e-01
1.979320496320724487e-02
8.874096721410751343e-02
-3.011558949947357178e-01
-6.644751876592636108e-02
3.607355803251266479e-02
-3.661599159240722656e-01
2.038789540529251099e-01
-1.945384889841079712e-01
-2.083954662084579468e-01
-1.492440700531005859e-01
-1.002004835754632950e-03
5.900061223655939102e-03
-2.475042194128036499e-01
-7.009162753820419312e-02
-8.601871132850646973e-02
-7.196087390184402466e-02
5.805172324180603027e-01
1.088065505027770996e-01
-7.049817591905593872e-02
1.203786861151456833e-02
-2.595958709716796875e-01
2.504873275756835938e-01
-3.671001875773072243e-03
-7.007106393575668335e-02
2.968547642230987549e-01
2.679131031036376953e-01
-3.284901380538940430e-01
7.387754321098327637e-02
-7.270860671997070312e-02
2.566911876201629639e-01
-2.290658801794052124e-01
2.856793403625488281e-01
-3.702796697616577148e-01
1.919156610965728760e-01
1.262857019901275635e-01
-1.447447668761014938e-02
2.566499263048171997e-02
-2.061254978179931641e-01
6.995280086994171143e-02
5.807013809680938721e-02
-6.481608003377914429e-02
1.360480766743421555e-02
2.636977136135101318e-01
-6.968298554420471191e-02
8.075932972133159637e-03
-1.132108494639396667e-01
-3.187772259116172791e-02
-1.063864752650260925e-01
-1.352041661739349365e-01
3.238648772239685059e-01
-2.000897824764251709e-01
-4.701344668865203857e-01
5.360281094908714294e-02
-2.282887101173400879e-01
-1.469241380691528320e-01
3.253654837608337402e-01
2.798962891101837158e-01
-1.212152391672134399e-01
2.728325128555297852e-02
4.234086349606513977e-02
-2.374931722879409790e-01
-1.708500534296035767e-01
3.624650239944458008e-01
-1.552034020423889160e-01
1.322627812623977661e-02
-1.095379237085580826e-03
1.908740997314453125e-01
-1.307334601879119873e-01
3.770184516906738281e-01
-2.589825093746185303e-01
-3.401301801204681396e-02
2.511870861053466797e-01
-8.265224844217300415e-02
-1.242400780320167542e-01
2.516323029994964600e-01
-1.424811594188213348e-02
-9.940572828054428101e-02
-2.315946221351623535e-01
-4.713753610849380493e-02
4.678407311439514160e-02
3.728999989107251167e-03
-3.403493762016296387e-01
3.297944664955139160e-01
-8.976432681083679199e-02
-2.485654205083847046e-01
-3.765487968921661377e-01
3.224933147430419922e-01
-4.921562969684600830e-02
1.488770693540573120e-01
-6.005043908953666687e-02
-1.425715237855911255e-01
-5.134242177009582520e-01
4.943632706999778748e-02
-1.745493113994598389e-01
-2.974564731121063232e-01
5.473205819725990295e-03
-2.035529166460037231e-01
1.643768846988677979e-01
-9.707198292016983032e-02
9.299762547016143799e-02
1.684063076972961426e-01
-1.444186270236968994e-01
-6.201982125639915466e-02
6.168945692479610443e-04
2.140334844589233398e-01
2.294694185256958008e-01
1.516114734113216400e-02
-3.464896380901336670e-01
-4.314964115619659424e-01
-5.059534683823585510e-02
1.174280568957328796e-01
-2.918727993965148926e-01
-5.640827491879463196e-02
2.066496908664703369e-01
2.603919208049774170e-01
4.692621529102325439e-02
1.414142847061157227e-01
8.106536418199539185e-02
1.745699197053909302e-01
-1.702471822500228882e-01
1.655457727611064911e-02
5.077030658721923828e-01
-7.012344896793365479e-02
-1.457813084125518799e-01
9.743866324424743652e-02
4.018390476703643799e-01
1.652207076549530029e-01
-7.346361130475997925e-02
-1.307293772697448730e-01
3.761502206325531006e-01
-6.322722882032394409e-02
-3.973493725061416626e-02
-4.715308248996734619e-01
-1.237390637397766113e-01
-1.610684543848037720e-01
2.821736931800842285e-01
2.194469422101974487e-01
1.951275914907455444e-01
3.129241168498992920e-01
-2.205295860767364502e-01
6.974338740110397339e-02
4.989385977387428284e-02
-6.813176721334457397e-02
6.568072736263275146e-02
-2.901647686958312988e-01
5.620044469833374023e-02
5.248867720365524292e-02
2.673066556453704834e-01
-3.922561705112457275e-01
2.002889811992645264e-01
-2.296871989965438843e-01
-6.188797298818826675e-03
9.595376253128051758e-02
-8.497906476259231567e-02
6.759050767868757248e-03
4.757816344499588013e-02
1.748077869415283203e-01
-1.430683434009552002e-01
-2.965031564235687256e-01
-1.386083066463470459e-01
1.635991632938385010e-01
-2.657302841544151306e-02
9.342004358768463135e-02
3.394236043095588684e-02
-8.186535537242889404e-02
1.143947616219520569e-01
-2.254849225282669067e-01
2.288631796836853027e-01
-1.794202625751495361e-01
-6.592686474323272705e-02
7.551847398281097412e-02
1.846875399351119995e-01
-3.589616119861602783e-01
3.822386264801025391e-01
1.204359810799360275e-02
-1.996441930532455444e-01
-4.129100441932678223e-01
1.404902935028076172e-01
-2.392679303884506226e-01
-4.964493215084075928e-02
3.209486305713653564e-01
1.203334182500839233e-01
9.205985814332962036e-02
6.229289621114730835e-02
-1.617859005928039551e-01
-8.958522975444793701e-02
1.301203817129135132e-01
-5.011885985732078552e-02
-1.575064063072204590e-01
5.164734553545713425e-03
6.468974053859710693e-02
-1.186604350805282593e-01
-6.214553862810134888e-02
9.461256116628646851e-02
-9.651770442724227905e-02
5.387142300605773926e-02
-7.712711393833160400e-02
1.375375837087631226e-01
3.463793992996215820e-01
4.401147738099098206e-02
2.030137330293655396e-01
-3.234379887580871582e-01
-1.860671043395996094e-01
5.547273531556129456e-02
-9.022811800241470337e-02
2.748636007308959961e-01
3.714393675327301025e-01
-1.402512192726135254e-01
3.329796791076660156e-01
-2.306370288133621216e-01
-5.555790662765502930e-02
2.577896602451801300e-02
-2.391611039638519287e-02
-5.939559265971183777e-02
-6.156414002180099487e-02
3.035827279090881348e-01
8.300042897462844849e-02
1.961783468723297119e-01
1.749206632375717163e-01
2.431413391605019569e-03
-5.191707015037536621e-01
1.296362280845642090e-01
3.174118697643280029e-01
-2.524173259735107422e-01
1.419287323951721191e-01
-1.194091439247131348e-01
8.532201498746871948e-02
2.213920801877975464e-01
6.368868798017501831e-02
4.826752543449401855e-01
-3.104727566242218018e-01
-1.938911080360412598e-01
-3.033290803432464600e-01
9.469644166529178619e-03
2.788365446031093597e-02
1.250575333833694458e-01
3.164377510547637939e-01
-1.038515791296958923e-01
2.435114607214927673e-02
-6.049690842628479004e-01
2.286301702260971069e-01
-2.258859574794769287e-01
3.047180175781250000e-01
7.866027951240539551e-02
-4.220841228961944580e-01
3.937704861164093018e-01
-2.013996057212352753e-02
2.256442755460739136e-01
2.136310487985610962e-01
-1.501249521970748901e-01
2.350138574838638306e-01
-1.010978966951370239e-02
-2.276894301176071167e-01
2.282801121473312378e-01
2.229439765214920044e-01
-3.864040970802307129e-01
2.669197618961334229e-01
3.608517944812774658e-01
-1.205365508794784546e-01
-5.914390087127685547e-02
-2.060278356075286865e-01
1.505400538444519043e-01
-2.360505908727645874e-01
-2.941543422639369965e-02
1.928162723779678345e-01
-2.142150998115539551e-01
2.439303994178771973e-01
-6.627345085144042969e-02
-1.301164478063583374e-01
7.778950035572052002e-02
-1.073316484689712524e-01
-1.016699001193046570e-01
-1.415151208639144897e-01
3.410605192184448242e-01
8.122694492340087891e-02
1.560262888669967651e-01
1.774426400661468506e-01
-1.870283335447311401e-01
2.446701526641845703e-01
-3.844770789146423340e-02
-1.603421121835708618e-01
-4.317614436149597168e-02
-2.834766805171966553e-01
-3.083370029926300049e-01
2.863693237304687500e-01
2.168430574238300323e-02
1.003079786896705627e-01
-3.187879547476768494e-02
2.050995081663131714e-01
5.509646609425544739e-02
-4.694044291973114014e-01
2.172396779060363770e-01
1.111740395426750183e-01
-6.589272618293762207e-02
3.044852316379547119e-01
1.144671291112899780e-01
9.272780269384384155e-02
-1.330891102552413940e-01
-7.019679248332977295e-02
2.329563200473785400e-01
-2.784599959850311279e-01
2.725290954113006592e-01
-1.290169954299926758e-01
3.614940643310546875e-01
-5.930034443736076355e-02
-1.078033074736595154e-01
-2.453077137470245361e-01
3.776883473619818687e-03
-2.019456326961517334e-01
-9.351368248462677002e-02
2.392694167792797089e-02
1.795382983982563019e-02
5.730233341455459595e-02
-5.577742680907249451e-02
-6.841287761926651001e-02
2.498507350683212280e-01
3.860016539692878723e-02
-1.057760138064622879e-02
3.259152173995971680e-01
7.695063203573226929e-02
-5.190016031265258789e-01
-3.704663738608360291e-02
-3.927321434020996094e-01
2.939805388450622559e-01
-4.772938787937164307e-02
-3.904569447040557861e-01
1.556729227304458618e-01
7.073912769556045532e-02
-1.900006383657455444e-01
-6.467188149690628052e-02
6.157113239169120789e-02
1.967895925045013428e-01
-2.788563445210456848e-02
-1.179776117205619812e-01
-2.219190746545791626e-01
-4.713150262832641602e-01
3.422431349754333496e-01
-3.430091440677642822e-01
-2.802150249481201172e-01
1.045337840914726257e-01
-3.929569423198699951e-01
8.117127418518066406e-02
2.184220403432846069e-01
3.611569479107856750e-02
-1.938770264387130737e-01
1.632423251867294312e-01
3.981224820017814636e-02
-1.296431571245193481e-02
5.137689411640167236e-02
2.006299495697021484e-01
6.644532084465026855e-02
-9.856691211462020874e-02
-1.460366696119308472e-01
-7.585183717310428619e-03
7.367703318595886230e-02
1.250315159559249878e-01
2.971424907445907593e-02
-2.945192158222198486e-01
4.454268142580986023e-02
5.036842077970504761e-02
-5.543038249015808105e-02
-4.242422804236412048e-02
2.188880592584609985e-01
2.161213941872119904e-02
-8.705614507198333740e-02
1.980501711368560791e-01
8.342915028333663940e-02
-1.926138401031494141e-01
-4.486921057105064392e-02
1.180449053645133972e-01
-3.271665573120117188e-01
2.218428999185562134e-01
1.433021128177642822e-01
-2.390949577093124390e-01
-2.113682478666305542e-01
-8.943368494510650635e-02
-2.004663087427616119e-02
2.207121998071670532e-01
-2.676551640033721924e-01
1.496521532535552979e-01
3.297854661941528320e-01
-2.290944457054138184e-01
-1.411928981542587280e-01
-2.227483689785003662e-01
1.955278962850570679e-01
-3.350935876369476318e-01
1.747840046882629395e-01
-3.644585907459259033e-01
2.571240663528442383e-01
-5.169083178043365479e-02
-1.782373934984207153e-01
2.956443838775157928e-02
-1.305075734853744507e-01
-7.631542533636093140e-02
1.405678242444992065e-01
-2.506230771541595459e-01
1.744267493486404419e-01
-3.919617235660552979e-01
-3.471407890319824219e-01
-1.081875488162040710e-01
4.132103621959686279e-01
-3.496679663658142090e-01
1.909921020269393921e-01
-5.457795858383178711e-01
2.995380461215972900e-01
3.786988854408264160e-01
6.383354216814041138e-02
-2.941076457500457764e-02
-3.177624568343162537e-02
9.996764361858367920e-03
1.332239806652069092e-01
5.314727425575256348e-01
-1.349283903837203979e-01
-2.750057280063629150e-01
-1.126335188746452332e-01
2.153751105070114136e-01
-7.720445841550827026e-02
2.177662849426269531e-01
6.216227263212203979e-02
2.685770690441131592e-01
-3.595002591609954834e-01
1.155132949352264404e-01
3.884671330451965332e-01
2.806637883186340332e-01
-2.744957804679870605e-02
2.967183291912078857e-01
-4.999744296073913574e-01
2.085223942995071411e-01
4.390003681182861328e-01
-1.432949304580688477e-01
5.290953516960144043e-01
-7.763636857271194458e-02
6.207051873207092285e-02
-4.233369827270507812e-01
-2.451429665088653564e-01
-3.374905884265899658e-02
-4.359038770198822021e-01
1.860101521015167236e-02
-1.076752990484237671e-01
2.192190885543823242e-01
2.452345378696918488e-02
-7.816848903894424438e-02
-2.757937014102935791e-01
1.899420842528343201e-02
2.797648012638092041e-01
3.087994083762168884e-02
-3.562109172344207764e-01
-1.518008112907409668e-01
1.932898610830307007e-01
1.825625300407409668e-01
2.366808950901031494e-01
-2.369973063468933105e-01
-7.293292880058288574e-02
1.606943905353546143e-01
-1.764409095048904419e-01
-3.529563844203948975e-01
4.042763710021972656e-01
-2.761153578758239746e-01
3.270987570285797119e-01
7.184408605098724365e-02
-1.350969355553388596e-02
-2.616542577743530273e-01
3.127624094486236572e-02
4.628943279385566711e-02
9.099362790584564209e-02
-3.462947905063629150e-02
2.033473104238510132e-01
4.082400500774383545e-01
3.888919651508331299e-01
-1.838473230600357056e-01
-1.777162253856658936e-01
3.033707737922668457e-01
-7.639101892709732056e-02
-1.501963883638381958e-01
-3.251676559448242188e-01
1.332049667835235596e-01
-2.389645278453826904e-01
1.884252880699932575e-03
-8.522844314575195312e-02
2.031336426734924316e-01
4.971297085285186768e-02
3.270528465509414673e-02
2.691919803619384766e-01
2.144751250743865967e-01
1.095312368124723434e-02
2.640147507190704346e-02
-4.123555421829223633e-01
1.101390495896339417e-01
-2.959712147712707520e-01
1.791322529315948486e-01
-4.153729677200317383e-01
1.432299911975860596e-01
-3.835814073681831360e-02
1.680526435375213623e-01
-1.388943642377853394e-01
-5.973590537905693054e-02
-9.055477380752563477e-02
-1.047950461506843567e-01
-1.081025600433349609e-01
-2.560368776321411133e-01
-1.848344802856445312e-01
-1.039037927985191345e-01
-1.319942474365234375e-01
3.546773791313171387e-01
4.382362365722656250e-01
5.886507406830787659e-02
3.908174112439155579e-02
-2.362355589866638184e-01
3.714754581451416016e-01
2.274843119084835052e-02
7.316753268241882324e-02
2.754868566989898682e-01
1.509683430194854736e-01
1.388412714004516602e-01
-9.765142947435379028e-02
7.636256515979766846e-02
1.404257714748382568e-01
-7.431089133024215698e-02
-8.197963237762451172e-03
1.590391434729099274e-02
-6.012388318777084351e-02
-6.802678108215332031e-02
5.937206372618675232e-02
5.347425863146781921e-02
3.422401845455169678e-01
-1.817801147699356079e-01
-5.569108575582504272e-02
-9.530153125524520874e-02
2.348418161273002625e-02
8.172169327735900879e-02
2.212056517601013184e-01
6.724117696285247803e-02
9.030299633741378784e-02
-5.406481027603149414e-02
-3.837146759033203125e-01
3.671967983245849609e-02
-2.800452411174774170e-01
-2.010000795125961304e-01
-6.101468577980995178e-02
-1.389231830835342407e-01
-2.947215437889099121e-01
-1.404672861099243164e-01
-7.687575370073318481e-02
1.982445362955331802e-03
1.210648417472839355e-01
-2.127993404865264893e-01
1.406166553497314453e-01
1.847994029521942139e-01
-5.309835076332092285e-02
3.058910071849822998e-01
-6.925939116626977921e-03
-1.979748606681823730e-01
8.495734632015228271e-02
-2.305934429168701172e-01
1.519415378570556641e-01
-1.912079192698001862e-02
-9.432038664817810059e-02
-7.762054353952407837e-02
-1.034865230321884155e-01
6.124611571431159973e-02
-3.001231849193572998e-01
1.982095241546630859e-01
5.738884210586547852e-02
-1.950631439685821533e-01
1.201306805014610291e-01
-6.948484480381011963e-02
3.913785889744758606e-02
-1.527257859706878662e-01
1.591407954692840576e-01
5.346724987030029297e-01
-2.210078537464141846e-01
2.027853876352310181e-01
5.700568482279777527e-02
-1.955671757459640503e-01
4.207344651222229004e-01
1.596577093005180359e-02
2.482698410749435425e-01
-2.195281982421875000e-01
-3.837454915046691895e-01
-2.732867300510406494e-01
1.409781277179718018e-01
-6.955736875534057617e-02
6.948247551918029785e-02
3.141688182950019836e-02
3.827261179685592651e-02
2.255197167396545410e-01
-4.159693121910095215e-01
-3.282539546489715576e-01
8.023044466972351074e-02
6.642409414052963257e-02
-4.137786626815795898e-01
-1.926895678043365479e-01
-3.463237080723047256e-03
-3.418447971343994141e-01
9.645865857601165771e-02
9.864100813865661621e-02
1.491214986890554428e-02
-2.134397327899932861e-01
-4.035677015781402588e-02
3.101004101336002350e-02
-1.240164339542388916e-01
2.915666103363037109e-01
-1.446996629238128662e-01
-6.769144535064697266e-02
-1.177359372377395630e-01
-6.738415360450744629e-02
1.764376647770404816e-02
9.313818067312240601e-02
-3.115358352661132812e-01
-3.199476897716522217e-01
1.999791562557220459e-01
-5.217962712049484253e-02
3.145355284214019775e-01
6.716991215944290161e-02
-1.162800490856170654e-01
-9.260700643062591553e-02
-8.552349358797073364e-02
-1.056088656187057495e-01
-1.101488769054412842e-01
9.104794263839721680e-02
2.182606756687164307e-01
-5.273859202861785889e-02
4.376512765884399414e-01
3.356298804283142090e-02
1.618443280458450317e-01
2.333918027579784393e-02
-1.491511762142181396e-01
1.134596392512321472e-01
-7.280627638101577759e-02
1.437421739101409912e-01
-1.607080250978469849e-01
-8.648665249347686768e-02
-3.229304850101470947e-01
3.901617825031280518e-01
-1.669421494007110596e-01
-4.733428657054901123e-01
3.398315981030464172e-02
1.789997071027755737e-01
-2.922496795654296875e-01
3.465932607650756836e-01
1.647850126028060913e-01
5.494775176048278809e-01
-1.173525229096412659e-01
2.026337832212448120e-01
8.623222261667251587e-02
-2.658012695610523224e-02
7.802936248481273651e-03
-3.897914290428161621e-02
-7.871212810277938843e-02
4.210083186626434326e-02
-1.104388311505317688e-01
-2.887842655181884766e-01
1.142017096281051636e-01
-1.984943300485610962e-01
6.191549077630043030e-02
2.048317193984985352e-01
6.450551562011241913e-03
1.873567886650562286e-02
-7.273927330970764160e-02
-3.286261484026908875e-02
-3.652134239673614502e-01
3.315716385841369629e-01
-2.571150958538055420e-01
-3.736925497651100159e-02
-4.025476798415184021e-02
-2.967804484069347382e-02
-1.405115518718957901e-02
-5.028329491615295410e-01
1.021839454770088196e-01
3.329113721847534180e-01
-1.259137839078903198e-01
-1.843839883804321289e-01
3.080587685108184814e-01
1.049270480871200562e-01
-1.028459817171096802e-01
2.304300963878631592e-01
1.072839833796024323e-02
6.838651746511459351e-02
-5.631468072533607483e-02
3.738143742084503174e-01
-6.529615074396133423e-02
1.375082284212112427e-01
-1.297384873032569885e-02
-7.993812114000320435e-02
-3.229284286499023438e-02
1.795829157344996929e-03
-4.241089522838592529e-02
9.888973832130432129e-02
-6.659690290689468384e-02
2.590451156720519066e-03
-8.281014859676361084e-02
-3.955287113785743713e-02
-2.048685252666473389e-01
1.189072057604789734e-02
-1.541931033134460449e-01
-1.767980493605136871e-02
-2.861653268337249756e-01
1.251484006643295288e-01
5.489481613039970398e-02
3.211392462253570557e-02
-3.974678367376327515e-02
-3.759509325027465820e-01
-1.441257745027542114e-01
2.869658768177032471e-01
3.119572401046752930e-01
-4.346539676189422607e-01
-1.146129798144102097e-02
-2.270581126213073730e-01
-3.916328847408294678e-01
-1.355141252279281616e-01
-9.924198687076568604e-02
-1.014638245105743408e-01
-2.501229196786880493e-02
1.734449416399002075e-01
-3.185456991195678711e-01
2.330505400896072388e-01
5.189294740557670593e-02
-2.218420505523681641e-01
-8.913655579090118408e-02
3.800338506698608398e-02
-4.158681631088256836e-02
-2.163809724152088165e-02
4.268838167190551758e-01
-1.946355104446411133e-01
8.304396271705627441e-02
-7.330731302499771118e-02
